#ifndef POLICY_WEIGHTS_H
#define POLICY_WEIGHTS_H

// --- Normalization Statistics ---
const float OBS_MEAN[245] = {
    -0.022260f, 0.015174f, -0.041896f, -0.003037f, -0.001619f, -0.039711f, -0.022253f, 0.015168f, -0.041909f, -0.003036f,
    -0.001617f, -0.039713f, -0.022239f, 0.015163f, -0.041912f, -0.003033f, -0.001628f, -0.039726f, -0.022251f, 0.015168f,
    -0.041913f, -0.003038f, -0.001633f, -0.039729f, -0.022255f, 0.015166f, -0.041919f, -0.003043f, -0.001620f, -0.039714f,
    -0.022255f, 0.015154f, -0.041918f, -0.003038f, -0.001625f, -0.039723f, -0.022250f, 0.015170f, -0.041919f, -0.003031f,
    -0.001631f, -0.039721f, -0.022251f, 0.015162f, -0.041919f, -0.003036f, -0.001630f, -0.039726f, -0.022258f, 0.015161f,
    -0.041920f, -0.003043f, -0.001632f, -0.039727f, -0.022257f, 0.015157f, -0.041909f, -0.003033f, -0.001624f, -0.039720f,
    -0.022260f, 0.015177f, -0.041906f, -0.003048f, -0.001634f, -0.039714f, -0.022253f, 0.015175f, -0.041898f, -0.003043f,
    -0.001627f, -0.039704f, -0.022261f, 0.015178f, -0.041884f, -0.003042f, -0.001619f, -0.039695f, -0.022266f, 0.015180f,
    -0.041864f, -0.003046f, -0.001619f, -0.039678f, -0.022265f, 0.015186f, -0.041852f, -0.003047f, -0.001617f, -0.039668f,
    -0.022272f, 0.015199f, -0.041833f, -0.003050f, -0.001610f, -0.039640f, -0.022275f, 0.015198f, -0.041825f, -0.003047f,
    -0.001603f, -0.039620f, -0.022270f, 0.015209f, -0.041794f, -0.003044f, -0.001591f, -0.039606f, -0.022275f, 0.015224f,
    -0.041783f, -0.003040f, -0.001589f, -0.039589f, -0.022272f, 0.015237f, -0.041774f, -0.003043f, -0.001582f, -0.039579f,
    -0.022265f, 0.015234f, -0.041770f, -0.003044f, -0.001582f, -0.039578f, -0.022260f, 0.015238f, -0.041768f, -0.003047f,
    -0.001582f, -0.039569f, -0.022272f, 0.015236f, -0.041771f, -0.003041f, -0.001583f, -0.039575f, -0.022265f, 0.015235f,
    -0.041795f, -0.003035f, -0.001600f, -0.039597f, -0.022263f, 0.015225f, -0.041827f, -0.003044f, -0.001622f, -0.039629f,
    -0.022268f, 0.015206f, -0.041870f, -0.003038f, -0.001633f, -0.039651f, -0.022282f, 0.015192f, -0.041912f, -0.003041f,
    -0.001661f, -0.039697f, -0.022268f, 0.015163f, -0.041972f, -0.003043f, -0.001689f, -0.039739f, -0.022270f, 0.015162f,
    -0.042000f, -0.003036f, -0.001716f, -0.039780f, -0.022267f, 0.015158f, -0.042051f, -0.003047f, -0.001730f, -0.039817f,
    -0.022269f, 0.015150f, -0.042102f, -0.003030f, -0.001746f, -0.039857f, -0.022255f, 0.015154f, -0.042124f, -0.003020f,
    -0.001757f, -0.039873f, -0.022251f, 0.015160f, -0.042145f, -0.003010f, -0.001774f, -0.039881f, -0.022234f, 0.015171f,
    -0.042165f, -0.003011f, -0.001779f, -0.039886f, -0.022236f, 0.015177f, -0.042191f, -0.002995f, -0.001806f, -0.039912f,
    -0.022241f, 0.015183f, -0.042237f, -0.002999f, -0.001803f, -0.039937f, -0.022252f, 0.015190f, -0.042283f, -0.003008f,
    -0.001825f, -0.039969f, -0.022261f, 0.015171f, -0.042351f, -0.003025f, -0.001836f, -0.040007f, -0.022246f, 0.015174f,
    -0.042433f, -0.003002f, -0.001833f, -0.040051f, -0.022193f, 0.015161f, -0.042512f, -0.002926f, -0.001839f, -0.040099f,
    0.000501f, -0.099331f, -0.905213f, 0.085107f, -0.003646f};

const float OBS_STD[245] = {
    0.384670f, 0.388154f, 0.387296f, 0.389426f, 0.384615f, 0.388724f, 0.384672f, 0.388155f, 0.387292f, 0.389422f,
    0.384613f, 0.388720f, 0.384667f, 0.388149f, 0.387294f, 0.389426f, 0.384609f, 0.388721f, 0.384674f, 0.388144f,
    0.387293f, 0.389430f, 0.384614f, 0.388719f, 0.384668f, 0.388151f, 0.387295f, 0.389420f, 0.384612f, 0.388721f,
    0.384673f, 0.388154f, 0.387299f, 0.389423f, 0.384607f, 0.388723f, 0.384678f, 0.388151f, 0.387297f, 0.389431f,
    0.384616f, 0.388724f, 0.384666f, 0.388155f, 0.387293f, 0.389421f, 0.384612f, 0.388724f, 0.384673f, 0.388152f,
    0.387295f, 0.389422f, 0.384614f, 0.388716f, 0.384669f, 0.388147f, 0.387298f, 0.389429f, 0.384609f, 0.388722f,
    0.384670f, 0.388146f, 0.387296f, 0.389423f, 0.384612f, 0.388718f, 0.384662f, 0.388148f, 0.387297f, 0.389426f,
    0.384615f, 0.388714f, 0.384670f, 0.388145f, 0.387298f, 0.389428f, 0.384610f, 0.388716f, 0.384668f, 0.388142f,
    0.387290f, 0.389425f, 0.384612f, 0.388719f, 0.384664f, 0.388148f, 0.387288f, 0.389425f, 0.384616f, 0.388715f,
    0.384668f, 0.388139f, 0.387285f, 0.389426f, 0.384607f, 0.388712f, 0.384667f, 0.388143f, 0.387281f, 0.389422f,
    0.384610f, 0.388710f, 0.384663f, 0.388137f, 0.387275f, 0.389422f, 0.384603f, 0.388702f, 0.384667f, 0.388138f,
    0.387273f, 0.389422f, 0.384607f, 0.388711f, 0.384662f, 0.388138f, 0.387272f, 0.389421f, 0.384601f, 0.388696f,
    0.384669f, 0.388141f, 0.387264f, 0.389420f, 0.384604f, 0.388693f, 0.384671f, 0.388142f, 0.387262f, 0.389419f,
    0.384601f, 0.388683f, 0.384673f, 0.388139f, 0.387263f, 0.389422f, 0.384602f, 0.388689f, 0.384671f, 0.388136f,
    0.387259f, 0.389431f, 0.384603f, 0.388692f, 0.384672f, 0.388139f, 0.387261f, 0.389424f, 0.384607f, 0.388691f,
    0.384672f, 0.388148f, 0.387267f, 0.389422f, 0.384609f, 0.388692f, 0.384675f, 0.388146f, 0.387265f, 0.389430f,
    0.384612f, 0.388699f, 0.384682f, 0.388148f, 0.387270f, 0.389432f, 0.384610f, 0.388696f, 0.384683f, 0.388148f,
    0.387271f, 0.389439f, 0.384615f, 0.388687f, 0.384683f, 0.388150f, 0.387268f, 0.389442f, 0.384615f, 0.388689f,
    0.384683f, 0.388147f, 0.387269f, 0.389447f, 0.384619f, 0.388686f, 0.384694f, 0.388145f, 0.387276f, 0.389450f,
    0.384625f, 0.388687f, 0.384706f, 0.388144f, 0.387278f, 0.389462f, 0.384624f, 0.388684f, 0.384713f, 0.388146f,
    0.387277f, 0.389468f, 0.384623f, 0.388688f, 0.384714f, 0.388137f, 0.387267f, 0.389483f, 0.384620f, 0.388680f,
    0.384719f, 0.388137f, 0.387265f, 0.389498f, 0.384624f, 0.388676f, 0.384724f, 0.388129f, 0.387262f, 0.389508f,
    0.384631f, 0.388665f, 0.384730f, 0.388124f, 0.387260f, 0.389518f, 0.384629f, 0.388669f, 0.384736f, 0.388129f,
    0.387274f, 0.389533f, 0.384643f, 0.388676f, 0.384743f, 0.388130f, 0.387274f, 0.389552f, 0.384660f, 0.388684f,
    0.154660f, 0.335068f, 0.204891f, 0.700550f, 0.708500f};

// --- Policy Network Weights & Biases ---
// Shape: 32
const float PARAMS_HIDDEN_0_BIAS[32] = {
    0.057524f, -0.080431f, -0.091193f, 0.179015f, 0.079963f, 0.092589f, 0.051773f, 0.035284f, 0.012788f, 0.083592f,
    0.180544f, 0.063403f, 0.084183f, 0.196963f, 0.041847f, 0.045386f, 0.038408f, 0.178679f, 0.111349f, 0.119010f,
    0.046388f, 0.033259f, 0.048173f, 0.151251f, -0.030725f, 0.068378f, 0.106658f, 0.099856f, 0.200175f, 0.001479f,
    -0.023856f, 0.096173f};

// Shape: 245x32
const float PARAMS_HIDDEN_0_KERNEL[7840] = {
    0.013436f, -0.031931f, -0.013319f, 0.034560f, -0.024125f, 0.028536f, -0.009682f, -0.070587f, -0.009360f, -0.015174f,
    -0.031940f, -0.033225f, -0.037145f, -0.016081f, -0.012425f, -0.081988f, 0.099703f, -0.005793f, 0.066626f, -0.016543f,
    -0.010458f, 0.006088f, 0.051418f, 0.042742f, 0.014356f, 0.014572f, 0.059894f, 0.035660f, -0.021915f, 0.003033f,
    -0.019130f, 0.037145f, 0.130580f, 0.003688f, -0.031939f, 0.018324f, -0.005187f, -0.026892f, -0.021960f, 0.036161f,
    0.017667f, 0.019876f, -0.051770f, -0.003082f, -0.035943f, 0.005272f, 0.004369f, 0.019405f, 0.058359f, 0.011524f,
    0.006296f, 0.000981f, -0.015533f, 0.004405f, -0.019657f, 0.008871f, 0.022006f, -0.028124f, 0.026912f, -0.015741f,
    0.075526f, 0.007307f, 0.043696f, 0.001833f, -0.052578f, 0.002838f, -0.001331f, -0.027591f, 0.076847f, 0.031481f,
    0.053673f, -0.019835f, 0.000465f, 0.007359f, 0.022169f, 0.009023f, 0.035611f, -0.047643f, -0.004883f, 0.013844f,
    0.032652f, -0.003451f, -0.056162f, -0.000442f, -0.005512f, 0.050920f, -0.070460f, -0.026648f, -0.041181f, 0.023283f,
    0.047251f, 0.019125f, -0.033583f, 0.009082f, 0.008012f, 0.024429f, -0.031479f, 0.015739f, 0.030625f, 0.048187f,
    0.025098f, 0.006178f, -0.012004f, -0.020314f, 0.024629f, 0.007872f, -0.056192f, 0.009843f, 0.011298f, 0.027507f,
    -0.009947f, 0.010296f, -0.033592f, 0.002555f, 0.008563f, 0.012493f, -0.051066f, -0.009982f, -0.036914f, -0.076069f,
    0.025603f, -0.081853f, 0.028029f, 0.025563f, 0.021611f, -0.016182f, -0.024369f, 0.003284f, 0.050171f, -0.017566f,
    0.003442f, -0.018512f, 0.030661f, -0.030801f, -0.016063f, 0.004525f, 0.010120f, 0.065398f, -0.075399f, -0.025607f,
    -0.003202f, 0.024708f, -0.019401f, 0.046774f, 0.021179f, 0.005751f, -0.042186f, 0.022477f, -0.002916f, -0.019787f,
    0.021766f, -0.011193f, -0.028966f, 0.043324f, -0.055619f, -0.011092f, -0.010715f, -0.012209f, 0.042061f, -0.026531f,
    0.041565f, 0.014033f, 0.014673f, 0.010684f, 0.003449f, 0.017776f, 0.016576f, 0.052357f, 0.025523f, -0.004326f,
    0.060267f, -0.036297f, -0.007995f, -0.001435f, -0.012987f, -0.043766f, -0.032130f, -0.032191f, 0.044486f, 0.006139f,
    0.032855f, 0.015488f, -0.049555f, -0.038817f, 0.005590f, 0.011477f, 0.002014f, 0.011063f, 0.015553f, 0.027704f,
    -0.017216f, 0.002091f, 0.009078f, -0.013762f, -0.040193f, -0.022711f, -0.043651f, 0.042267f, 0.006027f, 0.002112f,
    -0.034637f, -0.002327f, 0.001567f, -0.023747f, -0.010194f, 0.037882f, -0.017392f, 0.096667f, -0.072701f, -0.025026f,
    -0.016985f, -0.006358f, -0.043851f, 0.000798f, -0.035722f, -0.038358f, -0.032958f, -0.050611f, -0.061042f, -0.002403f,
    -0.001048f, -0.017094f, -0.011886f, 0.003989f, 0.057045f, -0.027586f, -0.057960f, 0.039724f, -0.023157f, 0.009401f,
    -0.028388f, -0.080047f, 0.009742f, -0.015886f, -0.006816f, -0.012189f, 0.008512f, -0.010389f, 0.030488f, 0.029317f,
    0.019036f, 0.009691f, -0.009072f, -0.054555f, 0.002867f, 0.018144f, 0.000119f, 0.003251f, -0.007319f, -0.050133f,
    0.005445f, -0.001120f, -0.007078f, 0.048668f, 0.022705f, -0.038860f, 0.003228f, 0.045673f, 0.013544f, 0.026967f,
    0.002732f, -0.003799f, -0.035406f, 0.031787f, -0.001523f, 0.010720f, -0.053327f, 0.002732f, -0.004888f, 0.001242f,
    -0.018308f, -0.060628f, 0.043084f, -0.008309f, 0.044015f, 0.043345f, 0.004660f, -0.006713f, -0.017519f, 0.077742f,
    0.031108f, 0.015318f, 0.030277f, -0.025966f, -0.039173f, -0.010148f, 0.022143f, 0.044910f, -0.001986f, -0.021686f,
    0.009805f, -0.022694f, 0.070757f, 0.028904f, -0.041506f, 0.030815f, 0.025703f, 0.062595f, -0.029391f, -0.021820f,
    -0.012023f, -0.011996f, -0.029680f, -0.012565f, 0.102758f, 0.020526f, 0.070131f, -0.024867f, -0.035732f, -0.031773f,
    -0.029593f, 0.009351f, -0.009973f, 0.014788f, 0.009103f, 0.039135f, -0.012400f, 0.018407f, -0.002912f, 0.010367f,
    -0.058986f, 0.031018f, 0.004595f, -0.046604f, -0.008270f, 0.015567f, 0.022861f, 0.044948f, -0.022523f, 0.025706f,
    0.019026f, -0.003130f, 0.043787f, -0.015125f, -0.024995f, 0.035309f, 0.017065f, 0.006391f, -0.012248f, -0.007072f,
    0.070547f, 0.005450f, -0.027897f, 0.018784f, -0.021357f, 0.041337f, 0.008861f, 0.000154f, -0.018553f, 0.012376f,
    -0.012948f, 0.047747f, 0.017026f, -0.005461f, -0.044267f, 0.014050f, 0.011620f, 0.054168f, -0.001295f, 0.044784f,
    0.003091f, 0.033264f, -0.077114f, 0.031630f, 0.036100f, -0.011978f, -0.003684f, 0.052202f, -0.018538f, -0.018991f,
    0.027156f, 0.034561f, 0.033563f, -0.023866f, -0.036413f, 0.013663f, 0.044425f, 0.002460f, -0.024979f, -0.038299f,
    -0.013947f, -0.050699f, -0.050147f, -0.039740f, 0.015616f, -0.006347f, -0.040783f, -0.034363f, 0.010884f, -0.058935f,
    -0.058951f, 0.017020f, -0.019865f, -0.051167f, 0.011569f, 0.020254f, 0.012181f, 0.026729f, 0.029350f, 0.013128f,
    -0.015823f, 0.005814f, -0.025262f, -0.005829f, 0.020875f, -0.020913f, -0.047712f, 0.029722f, -0.061913f, 0.006725f,
    -0.087025f, 0.003313f, 0.006449f, -0.020970f, -0.025779f, -0.044175f, -0.033347f, -0.099128f, -0.030879f, -0.050559f,
    -0.024153f, 0.044373f, -0.049931f, 0.042539f, 0.001243f, 0.043143f, -0.031041f, 0.044976f, -0.013601f, 0.032024f,
    0.002221f, 0.002732f, 0.031964f, 0.024693f, -0.020931f, 0.001592f, -0.003736f, -0.001402f, 0.020124f, -0.001728f,
    0.022573f, -0.070438f, -0.002770f, 0.001783f, -0.010141f, 0.010352f, 0.045571f, -0.038884f, 0.024648f, 0.000379f,
    -0.005553f, -0.026009f, 0.062835f, 0.013328f, -0.022652f, 0.039163f, 0.022300f, 0.049429f, -0.027879f, -0.002163f,
    -0.032415f, -0.005681f, 0.015391f, -0.076149f, 0.010507f, -0.017888f, 0.022283f, -0.015032f, 0.001415f, 0.031178f,
    -0.042969f, -0.008191f, 0.006049f, 0.010571f, 0.023812f, -0.011322f, 0.025601f, -0.033421f, -0.006101f, 0.044952f,
    -0.108412f, 0.057836f, -0.004041f, 0.005449f, -0.006025f, -0.013575f, -0.045115f, 0.033856f, -0.007567f, -0.014210f,
    -0.060690f, 0.040271f, 0.036725f, 0.006730f, 0.007007f, -0.000375f, 0.037022f, 0.038447f, 0.018671f, -0.026146f,
    0.025445f, -0.061576f, -0.026388f, 0.035177f, -0.066274f, 0.048084f, -0.016630f, 0.036223f, -0.035722f, 0.046309f,
    -0.003495f, 0.056523f, 0.012659f, -0.027041f, -0.011472f, 0.009191f, -0.010997f, 0.078017f, 0.003346f, -0.088739f,
    0.002230f, 0.008065f, -0.019077f, -0.029994f, -0.020669f, -0.004936f, -0.025276f, -0.039882f, -0.021941f, -0.005250f,
    -0.024786f, 0.022928f, -0.006813f, -0.000678f, -0.014498f, 0.002972f, 0.013027f, 0.053740f, -0.036586f, -0.058552f,
    0.003185f, -0.019501f, 0.007871f, 0.063571f, 0.063166f, 0.000937f, -0.014366f, 0.036704f, -0.003812f, 0.023033f,
    -0.021018f, -0.020091f, 0.004727f, -0.020561f, -0.021482f, 0.009661f, -0.002809f, 0.005414f, -0.024586f, -0.019295f,
    0.039091f, 0.037292f, -0.031531f, 0.025290f, -0.051908f, 0.052094f, -0.005771f, -0.005559f, 0.017022f, -0.038902f,
    -0.009126f, 0.001697f, -0.036750f, 0.000516f, -0.038915f, 0.016370f, 0.145551f, 0.008290f, 0.034676f, 0.021218f,
    -0.025195f, -0.031237f, 0.032966f, -0.016055f, 0.009788f, -0.022141f, 0.032117f, -0.011493f, 0.013587f, 0.017038f,
    0.033015f, -0.023628f, -0.040743f, -0.016042f, -0.001176f, -0.008882f, 0.092803f, 0.020163f, -0.021718f, 0.045362f,
    0.067980f, 0.019780f, -0.015322f, 0.022047f, -0.037509f, 0.035487f, -0.042096f, 0.041960f, 0.011736f, 0.043508f,
    0.021928f, 0.002346f, 0.028620f, 0.001716f, -0.005762f, 0.043324f, 0.064571f, 0.001115f, 0.040571f, 0.047185f,
    0.014195f, -0.004651f, 0.006373f, -0.008759f, -0.036206f, -0.007963f, 0.016374f, -0.006745f, -0.035676f, -0.015105f,
    -0.047705f, -0.000832f, -0.006937f, 0.046472f, -0.004176f, -0.034855f, -0.007377f, -0.022257f, -0.036834f, 0.072484f,
    0.039494f, -0.040793f, 0.004514f, -0.066313f, 0.011931f, -0.038969f, -0.027577f, 0.022654f, -0.012771f, 0.017154f,
    -0.034918f, -0.024960f, -0.015019f, 0.010225f, 0.013042f, -0.025317f, -0.009789f, 0.020737f, -0.019727f, 0.026637f,
    0.001887f, 0.039366f, 0.055425f, -0.008355f, 0.016582f, 0.010173f, -0.017705f, -0.037052f, 0.029369f, -0.054196f,
    -0.013357f, 0.047250f, 0.083652f, 0.039691f, -0.012620f, -0.004678f, 0.051694f, -0.007894f, 0.027768f, -0.000033f,
    -0.001164f, 0.016557f, -0.023450f, 0.005705f, 0.027801f, -0.020793f, 0.013986f, -0.025567f, 0.009154f, -0.009721f,
    -0.023375f, -0.040276f, -0.054409f, 0.001222f, -0.050911f, -0.045794f, 0.060707f, -0.004997f, 0.071249f, 0.027095f,
    0.056870f, -0.019468f, -0.008198f, -0.043409f, 0.055042f, 0.068151f, -0.027597f, -0.024151f, 0.013166f, 0.000986f,
    -0.065576f, -0.072741f, -0.000469f, -0.048264f, 0.037058f, -0.021445f, 0.017802f, -0.017823f, 0.030361f, -0.021228f,
    0.025993f, 0.003049f, -0.058838f, 0.000319f, 0.010192f, 0.015260f, -0.025365f, 0.010311f, -0.041171f, -0.065342f,
    -0.018521f, -0.017049f, -0.022847f, 0.017851f, -0.057884f, 0.018204f, 0.074288f, -0.011031f, 0.013913f, 0.043461f,
    0.044753f, 0.014431f, -0.013621f, 0.034488f, 0.037738f, 0.025305f, -0.001487f, -0.025174f, -0.000682f, -0.020779f,
    -0.026900f, 0.019953f, 0.020350f, 0.001328f, -0.017468f, 0.017022f, 0.003971f, -0.022128f, -0.027173f, 0.002593f,
    0.023152f, -0.008498f, -0.063470f, -0.039222f, 0.016547f, -0.000903f, 0.015666f, -0.021636f, 0.048669f, 0.072701f,
    -0.085059f, -0.039839f, 0.007460f, 0.074691f, -0.030879f, 0.005383f, 0.021437f, -0.020223f, 0.060675f, -0.026089f,
    0.021718f, -0.038066f, 0.027142f, -0.010871f, 0.070011f, -0.001901f, -0.032202f, -0.033550f, 0.015402f, -0.025904f,
    -0.024222f, 0.021569f, 0.003607f, 0.045574f, 0.018165f, -0.024337f, -0.019348f, -0.031908f, 0.074029f, -0.058451f,
    0.067544f, -0.050685f, 0.046104f, 0.045326f, 0.023470f, -0.032825f, -0.000470f, -0.019437f, 0.017498f, -0.006737f,
    -0.005067f, -0.061457f, 0.016476f, -0.013910f, 0.050019f, -0.026308f, 0.024693f, 0.017226f, -0.000316f, 0.006923f,
    0.053855f, 0.008706f, 0.001339f, 0.036364f, -0.050848f, 0.073780f, -0.082927f, 0.001223f, -0.024185f, 0.062456f,
    0.006112f, -0.009022f, 0.062449f, 0.040459f, 0.010149f, 0.015930f, 0.014788f, 0.044138f, -0.044896f, -0.003085f,
    0.008345f, -0.003148f, -0.020098f, 0.006153f, -0.001714f, 0.007352f, -0.001343f, -0.052908f, 0.050326f, -0.004776f,
    -0.014691f, -0.000113f, -0.000787f, -0.010507f, -0.079801f, -0.040011f, 0.021486f, -0.002784f, -0.049692f, -0.008382f,
    0.015846f, -0.030220f, 0.030939f, -0.053802f, -0.039731f, -0.019070f, -0.028193f, 0.022105f, -0.086801f, -0.046031f,
    -0.023661f, 0.037580f, -0.016452f, 0.023288f, 0.033079f, 0.021835f, -0.018416f, 0.031560f, -0.031478f, -0.016210f,
    -0.018875f, 0.027051f, 0.056865f, 0.006769f, 0.023314f, -0.000277f, 0.060010f, 0.069283f, 0.009459f, -0.016309f,
    -0.012764f, -0.019769f, 0.000174f, -0.028891f, 0.014722f, -0.037843f, -0.006949f, -0.020268f, 0.002438f, 0.018165f,
    0.079869f, -0.069472f, -0.017816f, 0.041853f, 0.004350f, -0.006313f, 0.004934f, -0.046167f, -0.008182f, -0.011938f,
    0.020835f, -0.007074f, 0.006007f, 0.005570f, -0.008906f, 0.011829f, -0.005806f, -0.007827f, -0.007414f, 0.005370f,
    0.032458f, 0.011232f, 0.001062f, -0.025779f, 0.021321f, -0.008706f, 0.015071f, 0.038835f, -0.028957f, 0.056711f,
    -0.000882f, -0.080573f, -0.010537f, 0.044129f, -0.000846f, 0.020744f, 0.000237f, 0.044226f, 0.017548f, 0.053416f,
    0.035546f, -0.001252f, -0.032947f, -0.004916f, 0.019208f, 0.041554f, -0.025612f, -0.003414f, 0.015435f, 0.036809f,
    0.049954f, -0.006136f, -0.013969f, -0.057853f, -0.020296f, 0.001675f, -0.021542f, -0.010703f, -0.008773f, 0.018610f,
    -0.046697f, 0.009060f, 0.017341f, 0.012026f, -0.004838f, 0.041384f, -0.016250f, 0.011730f, -0.041999f, 0.002418f,
    0.020458f, 0.033535f, -0.011339f, -0.004987f, -0.006766f, -0.026277f, -0.071012f, 0.034848f, -0.031008f, 0.005056f,
    -0.015523f, 0.026502f, -0.007427f, 0.029337f, -0.021061f, 0.000277f, -0.040784f, 0.017493f, -0.031221f, -0.038791f,
    0.020554f, 0.042070f, -0.068544f, -0.073570f, -0.014507f, 0.019303f, -0.044413f, -0.004991f, 0.060199f, -0.041795f,
    -0.032409f, -0.006277f, 0.029990f, -0.050149f, 0.023708f, -0.018564f, -0.032840f, -0.025544f, 0.041665f, -0.008515f,
    0.020424f, -0.028540f, 0.016904f, 0.008788f, -0.011498f, 0.003601f, -0.017805f, -0.016143f, 0.044291f, 0.004938f,
    0.010863f, 0.062778f, -0.009326f, -0.011224f, 0.002275f, -0.046559f, 0.037048f, -0.023660f, -0.036299f, 0.042082f,
    -0.030234f, -0.013085f, -0.045999f, 0.034108f, 0.009144f, 0.068075f, -0.027422f, 0.007443f, -0.003109f, -0.013947f,
    0.043344f, 0.007175f, 0.021172f, -0.050202f, 0.040725f, 0.030400f, 0.030644f, -0.008423f, -0.023461f, -0.091587f,
    -0.028407f, 0.035231f, 0.027396f, 0.053835f, 0.069424f, -0.038783f, 0.077188f, 0.021577f, -0.017135f, -0.011340f,
    0.010071f, -0.001386f, 0.010288f, -0.044577f, 0.011501f, -0.026794f, 0.013678f, -0.007887f, 0.022968f, 0.027529f,
    0.006684f, -0.022108f, 0.037578f, -0.013857f, 0.022252f, -0.042776f, 0.035569f, -0.021384f, 0.027176f, -0.033927f,
    -0.041859f, -0.000239f, -0.005307f, 0.058079f, 0.010446f, 0.008538f, -0.050683f, 0.046179f, 0.005882f, 0.021837f,
    -0.014243f, -0.010448f, 0.042089f, -0.026158f, -0.011779f, -0.029015f, 0.000599f, -0.051752f, -0.011883f, -0.014950f,
    0.008863f, -0.035100f, 0.034102f, 0.021712f, -0.029924f, -0.005406f, -0.026001f, -0.032369f, 0.002976f, -0.003745f,
    0.008891f, 0.002465f, -0.004108f, 0.001357f, -0.021127f, 0.023037f, -0.021316f, -0.018583f, 0.022011f, -0.033935f,
    0.016451f, -0.060576f, 0.015625f, 0.029171f, 0.021478f, -0.008344f, -0.053674f, -0.005070f, 0.025989f, -0.039668f,
    0.005821f, 0.009141f, -0.015619f, -0.013144f, -0.037572f, -0.078038f, -0.035749f, 0.000897f, -0.006870f, -0.030782f,
    0.030614f, -0.010218f, 0.011916f, -0.001784f, -0.005305f, 0.022388f, 0.054398f, 0.009139f, -0.000893f, 0.022938f,
    -0.025716f, -0.010642f, -0.027361f, -0.024823f, 0.025864f, -0.024729f, -0.028401f, -0.035510f, 0.012168f, -0.059014f,
    -0.015647f, -0.060138f, 0.070763f, -0.052375f, -0.006239f, -0.012093f, -0.012914f, -0.033016f, -0.018226f, -0.030250f,
    -0.008017f, 0.009167f, 0.004396f, -0.054753f, 0.076581f, 0.073560f, 0.018167f, 0.028948f, -0.005300f, -0.033710f,
    -0.062723f, 0.019312f, -0.034826f, -0.024921f, -0.018398f, 0.014553f, -0.042851f, 0.024573f, 0.035998f, 0.025472f,
    0.024456f, -0.028759f, -0.003014f, 0.028453f, 0.041513f, -0.017121f, -0.010613f, -0.012029f, -0.014581f, 0.072956f,
    -0.051074f, 0.002631f, -0.040480f, 0.011222f, 0.007828f, -0.026157f, 0.007126f, 0.033754f, 0.025485f, -0.059177f,
    -0.017248f, -0.009120f, -0.022889f, 0.018202f, -0.047103f, -0.044529f, -0.017686f, -0.015214f, -0.006570f, 0.039706f,
    0.041083f, -0.017364f, 0.009831f, -0.026475f, 0.033175f, -0.002822f, 0.046043f, 0.035464f, 0.017231f, -0.010689f,
    -0.020998f, 0.003812f, 0.050286f, -0.039142f, 0.003628f, -0.019059f, 0.019580f, 0.017583f, -0.061856f, -0.036313f,
    0.003896f, -0.057452f, -0.009924f, -0.029004f, 0.039940f, -0.033535f, -0.037339f, -0.059856f, -0.077165f, -0.005737f,
    -0.026467f, 0.001902f, 0.032957f, 0.033410f, 0.061197f, -0.014209f, -0.014951f, 0.012901f, 0.035976f, -0.007357f,
    -0.012284f, 0.018425f, 0.003381f, -0.023198f, -0.027431f, -0.032484f, -0.010217f, 0.007665f, 0.033396f, -0.030870f,
    0.041252f, 0.006825f, -0.029708f, 0.014691f, -0.032781f, -0.015831f, -0.003661f, 0.059148f, 0.013137f, -0.024590f,
    0.071948f, 0.066012f, -0.038178f, 0.067444f, 0.024054f, -0.003245f, -0.039943f, 0.009020f, 0.019125f, -0.031176f,
    0.027481f, 0.011837f, 0.027525f, 0.014077f, 0.042244f, -0.021544f, -0.020771f, 0.013275f, -0.001047f, 0.037586f,
    0.017476f, 0.008898f, 0.038029f, 0.006703f, 0.041415f, -0.085838f, -0.051956f, -0.034679f, 0.080024f, -0.021071f,
    -0.062256f, 0.009833f, 0.033326f, -0.029705f, 0.023319f, -0.045169f, -0.013794f, 0.004966f, 0.004675f, 0.020803f,
    -0.010320f, -0.014613f, -0.068472f, -0.031573f, -0.018983f, 0.001672f, 0.023225f, -0.037889f, 0.031670f, 0.016306f,
    -0.022209f, -0.021782f, -0.028590f, -0.006392f, 0.029774f, -0.000120f, -0.032388f, 0.060219f, 0.034314f, 0.020479f,
    -0.002755f, -0.051118f, 0.058489f, -0.055593f, 0.035904f, -0.014284f, 0.037880f, -0.026849f, -0.021218f, -0.034624f,
    -0.040820f, 0.049771f, 0.005733f, -0.038025f, -0.043092f, 0.004042f, -0.019787f, -0.064528f, 0.053970f, 0.003683f,
    -0.075367f, 0.021824f, 0.022149f, -0.042234f, 0.043309f, 0.014305f, 0.057684f, 0.022818f, -0.082820f, 0.086912f,
    -0.006351f, 0.016207f, 0.014954f, 0.010302f, -0.032876f, -0.013078f, -0.044100f, -0.021122f, 0.033922f, 0.028254f,
    0.044958f, 0.000164f, 0.038642f, -0.046594f, -0.011955f, 0.011531f, -0.000773f, 0.028625f, 0.020813f, -0.003542f,
    -0.015316f, 0.001405f, -0.070819f, 0.016550f, -0.033499f, 0.025983f, 0.027802f, -0.025139f, 0.101765f, 0.045046f,
    0.016136f, 0.045173f, -0.000411f, 0.000450f, -0.005693f, 0.022758f, 0.082941f, 0.006670f, 0.047802f, -0.061652f,
    0.065130f, -0.009087f, -0.008344f, -0.032936f, -0.009282f, -0.001535f, -0.010223f, 0.057357f, -0.067398f, 0.005493f,
    -0.006664f, -0.043117f, -0.033227f, 0.036643f, 0.071423f, -0.002139f, 0.024563f, -0.023087f, 0.020834f, 0.011553f,
    0.033761f, -0.029133f, -0.019616f, 0.040573f, 0.025171f, 0.006547f, 0.013056f, -0.004673f, 0.042856f, -0.063166f,
    -0.020954f, -0.025287f, -0.021869f, 0.032818f, -0.004837f, -0.003806f, 0.039623f, -0.022610f, -0.025230f, 0.006957f,
    0.064575f, 0.002598f, -0.011332f, -0.007805f, 0.050120f, -0.035889f, -0.049566f, -0.028492f, -0.019678f, 0.000751f,
    0.031927f, 0.061436f, -0.033011f, 0.015661f, 0.017143f, -0.024272f, -0.027087f, -0.023891f, -0.008540f, 0.034456f,
    -0.015090f, 0.045702f, -0.001203f, -0.045827f, -0.033892f, 0.048664f, -0.011770f, -0.048366f, 0.001606f, 0.083027f,
    0.007379f, -0.005663f, -0.019947f, 0.001400f, 0.013314f, -0.023424f, -0.033732f, -0.013130f, -0.001691f, -0.005736f,
    0.005947f, 0.031940f, 0.056485f, 0.040868f, -0.061267f, -0.022450f, 0.037935f, 0.009220f, 0.034513f, -0.029385f,
    0.010472f, -0.021177f, 0.009204f, -0.040328f, 0.063028f, 0.056702f, 0.006063f, -0.015564f, 0.004942f, 0.011485f,
    0.016817f, 0.003751f, -0.026057f, -0.021195f, -0.049328f, -0.012463f, -0.043831f, 0.017020f, 0.010113f, -0.020670f,
    -0.026921f, -0.010038f, 0.034448f, -0.027871f, -0.040712f, -0.025910f, -0.028394f, 0.001548f, -0.016300f, -0.009427f,
    -0.001102f, 0.040493f, -0.002321f, 0.009146f, -0.052940f, -0.015770f, 0.009333f, 0.006502f, 0.029152f, -0.041090f,
    -0.031543f, 0.026535f, 0.006143f, 0.022619f, 0.016127f, 0.046776f, -0.032342f, -0.038721f, 0.009909f, 0.003231f,
    -0.006994f, 0.043923f, 0.067069f, 0.028979f, -0.002549f, -0.023054f, -0.004309f, 0.030400f, -0.008525f, -0.099761f,
    -0.050843f, -0.053378f, -0.027700f, 0.048347f, 0.056697f, -0.024779f, -0.045133f, 0.005859f, -0.064458f, -0.057740f,
    -0.002315f, 0.012369f, 0.029088f, -0.028359f, -0.025261f, -0.009217f, -0.034865f, -0.021027f, -0.035353f, -0.021049f,
    -0.001274f, -0.031404f, -0.002621f, 0.046359f, -0.013766f, -0.016185f, -0.014847f, 0.009117f, 0.052570f, 0.017174f,
    0.058475f, -0.009749f, -0.085801f, -0.092129f, -0.002565f, 0.013691f, 0.003587f, -0.007066f, -0.017084f, -0.016891f,
    -0.047857f, 0.060638f, 0.035510f, -0.033446f, 0.014151f, 0.034139f, 0.057863f, -0.009189f, -0.026879f, 0.028047f,
    0.045810f, 0.020521f, -0.016629f, 0.022243f, -0.023165f, 0.058696f, 0.022603f, 0.012016f, -0.038751f, -0.004168f,
    -0.027525f, -0.010094f, 0.005936f, -0.028123f, -0.017772f, -0.009538f, -0.035456f, 0.051333f, -0.000074f, 0.039293f,
    0.024500f, -0.065523f, 0.055659f, 0.031470f, 0.018601f, 0.048402f, 0.034814f, 0.090028f, 0.013973f, -0.018109f,
    0.025729f, -0.045014f, -0.005216f, -0.002644f, -0.022965f, 0.017561f, -0.026314f, -0.047521f, -0.018805f, 0.006584f,
    -0.027683f, 0.021179f, -0.008074f, 0.000343f, -0.007122f, 0.002381f, -0.029695f, -0.045768f, -0.037813f, 0.003313f,
    0.005534f, 0.028420f, -0.000027f, -0.041524f, -0.007502f, 0.038546f, -0.015971f, -0.005523f, -0.012955f, 0.035220f,
    -0.000437f, -0.020080f, 0.011123f, -0.017844f, -0.019056f, -0.027537f, 0.004799f, -0.003779f, 0.019446f, 0.026876f,
    -0.037807f, 0.023459f, 0.001593f, 0.007121f, -0.015697f, -0.013734f, -0.010402f, -0.025524f, -0.058400f, -0.008493f,
    -0.052323f, -0.018220f, 0.019053f, 0.035849f, -0.048981f, -0.014833f, -0.022086f, 0.004534f, 0.007234f, 0.030496f,
    0.006212f, -0.045261f, 0.085679f, 0.003849f, 0.006491f, 0.029554f, -0.033120f, 0.006606f, 0.026028f, -0.022442f,
    -0.033385f, 0.012399f, -0.047427f, 0.023767f, 0.022162f, -0.009133f, 0.004594f, 0.021966f, 0.004006f, -0.015530f,
    -0.013223f, 0.005047f, -0.027459f, -0.000249f, 0.037505f, -0.032232f, -0.065736f, 0.021444f, 0.049139f, 0.034172f,
    -0.017600f, -0.041024f, -0.036413f, 0.036630f, -0.045505f, -0.008731f, 0.031299f, -0.002968f, 0.027826f, 0.040856f,
    -0.022835f, 0.021499f, -0.008288f, -0.037908f, 0.122178f, 0.018080f, -0.074595f, -0.032940f, -0.008068f, -0.022014f,
    0.005012f, 0.035944f, -0.010854f, -0.041050f, 0.012030f, -0.034721f, 0.008200f, -0.007307f, 0.020105f, 0.050863f,
    0.006241f, 0.021278f, 0.019144f, -0.012982f, 0.011470f, 0.000063f, -0.050635f, 0.021352f, 0.027217f, -0.005110f,
    -0.018886f, 0.047760f, 0.023128f, 0.028776f, 0.053007f, -0.023046f, -0.016341f, 0.011511f, 0.006214f, -0.015988f,
    0.002498f, 0.006444f, 0.039270f, 0.029542f, -0.038982f, -0.001224f, -0.058223f, -0.024913f, -0.003499f, -0.038778f,
    0.010426f, -0.020411f, -0.067083f, -0.005689f, 0.099857f, 0.022851f, 0.026830f, -0.016247f, -0.002278f, 0.039623f,
    -0.028591f, -0.017412f, 0.031059f, 0.008379f, -0.018295f, -0.007577f, 0.007636f, -0.025050f, -0.110809f, 0.000370f,
    0.040953f, 0.016000f, -0.012288f, 0.021424f, 0.001306f, 0.008204f, -0.036536f, 0.089485f, 0.001521f, 0.023590f,
    -0.016582f, 0.030012f, 0.042951f, -0.029931f, 0.043834f, -0.048355f, 0.038609f, 0.021285f, 0.025706f, -0.062387f,
    0.012166f, 0.020861f, 0.031110f, -0.044744f, -0.017427f, 0.005517f, 0.015931f, 0.028864f, -0.027168f, -0.009471f,
    -0.007570f, -0.031286f, 0.012077f, 0.043149f, 0.023870f, -0.005250f, -0.049812f, -0.059719f, 0.023811f, 0.053905f,
    -0.013140f, -0.005110f, -0.046653f, -0.038328f, 0.001224f, -0.030407f, -0.006988f, 0.015885f, 0.008709f, -0.011612f,
    -0.045972f, -0.032198f, -0.033397f, 0.039593f, -0.037412f, -0.021216f, 0.017035f, -0.000617f, -0.020215f, 0.001553f,
    -0.023887f, -0.033443f, 0.009057f, -0.031789f, 0.051694f, 0.024797f, -0.012203f, 0.032353f, -0.035621f, -0.007476f,
    -0.044839f, -0.015300f, 0.051843f, -0.015195f, 0.002330f, 0.017976f, 0.015905f, 0.060979f, 0.057552f, 0.030923f,
    0.063537f, 0.003003f, 0.064417f, 0.018308f, 0.039373f, -0.034395f, -0.002198f, 0.012493f, -0.104255f, 0.052201f,
    -0.008928f, 0.001614f, -0.014247f, 0.002972f, 0.041843f, 0.009497f, 0.001040f, 0.006633f, -0.019894f, -0.005541f,
    -0.019304f, -0.017524f, 0.068022f, 0.022852f, 0.059587f, 0.055520f, -0.039707f, 0.005317f, 0.007117f, 0.008407f,
    -0.025796f, -0.018271f, -0.013387f, -0.071136f, 0.028020f, -0.033886f, 0.007813f, 0.009329f, 0.008642f, -0.047438f,
    -0.006140f, -0.027955f, 0.003328f, -0.051601f, 0.024578f, -0.032612f, 0.011958f, 0.007446f, -0.022041f, 0.029569f,
    -0.006180f, 0.019035f, 0.032943f, -0.003439f, -0.027433f, 0.058592f, 0.040220f, -0.010279f, -0.003130f, -0.035023f,
    -0.034698f, 0.036486f, 0.023575f, -0.020215f, 0.053681f, -0.011416f, -0.027475f, -0.008499f, -0.052553f, 0.086508f,
    0.017431f, 0.000742f, 0.042852f, -0.020541f, -0.001776f, -0.032834f, -0.004380f, 0.036279f, 0.049179f, -0.009385f,
    0.021284f, -0.016745f, 0.121362f, -0.013325f, -0.023428f, -0.029141f, -0.025038f, 0.027864f, -0.074937f, -0.038590f,
    0.067267f, -0.014438f, 0.029437f, -0.035011f, 0.017597f, -0.051690f, 0.013976f, 0.002292f, 0.009387f, 0.000606f,
    -0.028029f, -0.026352f, -0.002048f, 0.038830f, -0.080764f, -0.045973f, -0.000024f, -0.003066f, 0.006562f, 0.032369f,
    0.059492f, 0.011044f, 0.001655f, -0.000532f, -0.041586f, 0.022505f, -0.024269f, -0.063006f, 0.052712f, -0.028404f,
    0.056360f, 0.017418f, 0.015576f, 0.029136f, -0.021094f, -0.000172f, 0.003639f, -0.028784f, 0.002279f, 0.022358f,
    -0.001691f, -0.031001f, -0.031602f, 0.001470f, -0.021284f, -0.002966f, 0.069695f, 0.013387f, -0.015958f, -0.007318f,
    -0.059826f, -0.039402f, -0.034703f, -0.026172f, 0.063478f, 0.023334f, 0.056336f, -0.012551f, 0.047015f, 0.014896f,
    0.046034f, -0.055009f, 0.008966f, -0.024492f, 0.003967f, 0.002022f, 0.058209f, 0.026292f, -0.079891f, -0.015252f,
    -0.048577f, -0.029500f, 0.065106f, 0.026428f, 0.022376f, 0.036640f, 0.020885f, 0.044867f, 0.009906f, 0.020046f,
    0.003649f, 0.010895f, 0.015585f, 0.003789f, 0.002964f, -0.004854f, -0.001446f, 0.008677f, 0.024248f, -0.024371f,
    -0.044790f, 0.021112f, 0.049313f, -0.005475f, -0.028777f, 0.005541f, -0.002163f, -0.032409f, -0.036832f, 0.020429f,
    -0.032864f, -0.040510f, -0.068557f, 0.012349f, -0.026266f, 0.004471f, 0.008004f, 0.013952f, -0.042488f, 0.039700f,
    -0.009003f, -0.016246f, -0.011185f, -0.020347f, -0.024864f, -0.005381f, 0.022689f, 0.015952f, 0.030172f, -0.018457f,
    0.046427f, 0.064530f, -0.007428f, -0.027683f, 0.013822f, -0.053348f, -0.017248f, 0.031609f, 0.010665f, 0.034786f,
    0.014591f, 0.031677f, -0.036152f, 0.048333f, 0.032834f, 0.015730f, 0.051243f, -0.009824f, 0.028673f, 0.002450f,
    0.022672f, -0.039464f, 0.011579f, 0.019655f, 0.009000f, -0.031211f, 0.018836f, -0.058504f, -0.028424f, 0.000831f,
    0.014050f, 0.019158f, -0.034870f, 0.051606f, -0.008702f, -0.017684f, 0.012262f, 0.021721f, 0.049595f, -0.015475f,
    -0.026144f, 0.018926f, -0.060209f, 0.042383f, -0.017411f, 0.051938f, 0.010097f, 0.006152f, 0.022384f, -0.027730f,
    0.018356f, -0.005144f, 0.034853f, -0.058488f, 0.053035f, -0.009564f, 0.056744f, -0.013554f, -0.033436f, -0.017614f,
    -0.054584f, 0.015670f, -0.048846f, 0.001120f, -0.035178f, -0.056806f, -0.006340f, -0.000277f, 0.006515f, 0.065942f,
    0.023019f, -0.026133f, -0.010117f, 0.037004f, 0.025242f, 0.007924f, -0.101647f, -0.072881f, 0.038005f, 0.011856f,
    0.051043f, -0.078198f, 0.021700f, 0.000492f, -0.031334f, 0.060419f, 0.085649f, -0.001631f, 0.000228f, -0.026083f,
    0.001217f, 0.009713f, -0.008712f, -0.013859f, 0.023966f, -0.045397f, -0.006227f, 0.028715f, 0.010564f, -0.025214f,
    0.014147f, -0.008962f, 0.015637f, 0.021028f, 0.008150f, 0.031729f, 0.001185f, 0.028278f, -0.028121f, -0.007300f,
    -0.018896f, 0.041415f, 0.025490f, 0.054659f, -0.008253f, -0.045739f, 0.036845f, 0.020273f, 0.005887f, -0.009586f,
    -0.001472f, -0.058998f, 0.002750f, 0.027051f, 0.059470f, -0.046542f, 0.039330f, -0.031195f, 0.054963f, 0.056916f,
    0.057554f, -0.040383f, -0.032268f, 0.018545f, 0.065745f, -0.007365f, 0.028218f, -0.064731f, -0.009489f, -0.014018f,
    0.055958f, 0.103094f, -0.048807f, -0.030823f, -0.054452f, -0.017720f, -0.007753f, -0.030909f, -0.023967f, -0.041342f,
    0.046918f, -0.000623f, -0.044950f, 0.026040f, -0.029768f, -0.014682f, 0.069771f, -0.005401f, 0.003884f, 0.049192f,
    0.032857f, 0.034069f, -0.029435f, -0.011190f, -0.009744f, -0.025852f, 0.029375f, 0.010518f, -0.026258f, 0.054028f,
    0.034741f, -0.024251f, 0.022237f, -0.024579f, 0.049974f, 0.007716f, 0.013313f, -0.016250f, 0.028486f, -0.025835f,
    -0.000027f, -0.025746f, -0.045554f, 0.006258f, -0.032491f, 0.031282f, -0.032369f, -0.032618f, 0.021125f, -0.009924f,
    -0.006016f, 0.060722f, 0.048176f, 0.051843f, -0.027858f, -0.022033f, -0.019570f, 0.029217f, -0.038272f, -0.005450f,
    -0.019743f, -0.031956f, 0.047337f, 0.041310f, 0.037571f, 0.024359f, -0.003115f, 0.050199f, -0.052943f, 0.052175f,
    0.078925f, -0.028336f, 0.002506f, 0.012084f, -0.008948f, -0.033133f, 0.008265f, -0.009144f, -0.033421f, -0.037312f,
    0.007650f, 0.023077f, -0.029171f, -0.014468f, -0.028109f, 0.011877f, -0.061757f, 0.002685f, -0.040408f, -0.022944f,
    -0.036113f, 0.023994f, 0.025836f, -0.002752f, -0.019131f, -0.016956f, 0.028581f, 0.028424f, 0.021046f, -0.001798f,
    -0.005685f, -0.016106f, 0.022308f, -0.011130f, 0.024011f, 0.017842f, -0.011852f, 0.004460f, -0.049172f, 0.044248f,
    0.034103f, -0.043646f, -0.036726f, -0.010421f, 0.001626f, -0.001016f, 0.033377f, -0.013525f, 0.064318f, -0.008445f,
    0.045527f, -0.001075f, -0.008270f, -0.000505f, 0.043097f, -0.011817f, 0.063061f, -0.033790f, 0.015359f, 0.014181f,
    0.019708f, -0.020808f, 0.003522f, -0.023708f, 0.022285f, -0.024768f, 0.011085f, -0.021033f, -0.040645f, 0.004456f,
    -0.003854f, -0.004401f, 0.021359f, 0.007130f, -0.043682f, 0.015445f, 0.013886f, -0.010981f, -0.008188f, 0.011764f,
    -0.001614f, -0.033726f, -0.047071f, -0.045818f, 0.027035f, 0.024991f, 0.006760f, 0.059668f, -0.031760f, 0.036478f,
    -0.000764f, 0.042721f, 0.030725f, 0.014252f, -0.000087f, -0.005222f, -0.049186f, -0.016740f, 0.024631f, -0.038398f,
    -0.018712f, 0.028976f, -0.030205f, 0.031947f, 0.056560f, 0.046020f, 0.080974f, -0.010501f, 0.094946f, 0.012599f,
    -0.029464f, -0.019168f, 0.040766f, -0.008408f, -0.014558f, 0.004368f, -0.029532f, -0.023683f, 0.067387f, 0.010657f,
    -0.022276f, 0.010488f, 0.017747f, 0.063296f, -0.024380f, -0.019875f, 0.018675f, 0.002449f, -0.042816f, -0.037485f,
    0.026042f, 0.039869f, 0.017971f, -0.070862f, -0.016481f, -0.034482f, -0.050994f, -0.006465f, 0.079180f, -0.017292f,
    0.013857f, 0.020836f, 0.024089f, -0.045417f, 0.030710f, -0.034004f, 0.009267f, -0.007160f, 0.023265f, -0.038607f,
    0.011534f, -0.001853f, 0.043300f, 0.055013f, -0.016413f, 0.026677f, -0.042764f, 0.016793f, 0.076464f, 0.010313f,
    -0.003445f, -0.000918f, 0.035782f, 0.026575f, -0.045078f, 0.007319f, -0.017857f, -0.043245f, 0.032701f, 0.004520f,
    0.044163f, 0.002116f, 0.017976f, 0.027245f, 0.010083f, 0.005721f, 0.055114f, 0.011803f, -0.029061f, 0.008251f,
    0.005120f, -0.038765f, -0.008825f, -0.002163f, -0.036095f, 0.045175f, -0.009643f, -0.000606f, 0.001287f, -0.043583f,
    -0.046582f, 0.019821f, 0.048113f, 0.039521f, -0.015650f, 0.104199f, -0.012205f, 0.036343f, 0.002645f, -0.005596f,
    0.006361f, -0.054877f, 0.024907f, 0.008351f, -0.015382f, -0.007735f, 0.066543f, 0.016621f, 0.006271f, 0.022983f,
    0.045973f, -0.028370f, 0.009005f, 0.006484f, -0.004796f, 0.070958f, 0.018793f, 0.005407f, 0.106207f, -0.041772f,
    -0.039266f, -0.059593f, -0.028002f, 0.054762f, -0.004376f, -0.017387f, -0.004382f, -0.020832f, -0.094998f, -0.034066f,
    -0.044454f, 0.001525f, -0.035969f, -0.066006f, 0.034599f, 0.009124f, 0.004068f, 0.019686f, -0.031894f, -0.008436f,
    -0.050920f, -0.020300f, 0.037465f, 0.020341f, 0.056342f, -0.002515f, -0.024681f, -0.005479f, -0.070995f, 0.004198f,
    -0.064065f, -0.024976f, 0.006254f, -0.026641f, -0.013236f, -0.060857f, 0.024879f, -0.030665f, -0.003138f, -0.003581f,
    -0.004880f, -0.040140f, 0.015531f, -0.026713f, 0.024133f, 0.025920f, 0.065673f, 0.015443f, -0.021034f, 0.032444f,
    0.033229f, 0.014643f, 0.025064f, -0.034452f, -0.018213f, 0.022991f, 0.042457f, -0.041570f, 0.001731f, 0.004402f,
    -0.065405f, 0.041062f, 0.082684f, -0.062586f, -0.017227f, -0.024493f, 0.043464f, 0.010734f, -0.047137f, -0.029233f,
    0.011659f, 0.007873f, 0.048263f, -0.038594f, 0.005209f, 0.009975f, -0.013926f, -0.020006f, -0.032312f, 0.003239f,
    0.003359f, -0.036563f, -0.005791f, -0.025853f, 0.039220f, 0.000806f, 0.033546f, 0.014647f, -0.017326f, -0.030567f,
    -0.037682f, 0.007002f, -0.053012f, 0.034051f, -0.068471f, 0.026626f, 0.016498f, 0.028900f, 0.008823f, 0.033065f,
    -0.017469f, -0.063404f, -0.032219f, -0.013809f, 0.047891f, -0.036023f, -0.009862f, -0.023318f, 0.008315f, -0.009023f,
    -0.048505f, 0.029672f, -0.027852f, 0.006613f, -0.059338f, 0.007823f, -0.013625f, 0.049488f, -0.011494f, 0.039810f,
    0.050904f, 0.011975f, -0.002503f, -0.014553f, 0.070673f, 0.027983f, 0.062800f, 0.007000f, -0.034336f, 0.001849f,
    0.031538f, -0.060415f, 0.027508f, 0.050603f, -0.004892f, 0.049755f, -0.039601f, -0.012543f, -0.035341f, -0.011306f,
    -0.028432f, 0.068165f, -0.011338f, 0.012225f, 0.032065f, 0.025188f, 0.051475f, 0.040912f, 0.006370f, -0.002781f,
    -0.026516f, 0.053946f, -0.046058f, 0.004989f, -0.066378f, 0.037522f, -0.030336f, 0.082557f, 0.011462f, 0.056450f,
    0.017949f, -0.023591f, 0.005387f, -0.006984f, -0.005957f, -0.009245f, -0.016627f, 0.040679f, -0.053193f, 0.021975f,
    0.015582f, 0.007676f, 0.007847f, 0.023814f, 0.060482f, -0.017220f, -0.047413f, -0.010263f, 0.007468f, -0.033969f,
    0.039944f, -0.062426f, 0.003915f, -0.035704f, -0.024378f, 0.000619f, 0.041838f, -0.043402f, 0.026201f, -0.017692f,
    0.009300f, 0.023820f, -0.050070f, -0.001273f, -0.065018f, -0.073505f, 0.000515f, -0.051668f, 0.004470f, -0.052223f,
    -0.009593f, 0.001407f, -0.020899f, 0.026327f, 0.005493f, -0.038105f, -0.033664f, -0.025015f, 0.038430f, -0.008513f,
    -0.001190f, -0.049024f, 0.021087f, 0.052901f, -0.019820f, 0.007955f, 0.008121f, -0.011141f, 0.008487f, -0.004962f,
    0.000025f, -0.035862f, -0.092368f, 0.049674f, 0.037340f, -0.017360f, 0.028179f, 0.025505f, 0.018869f, 0.030142f,
    0.034980f, 0.015399f, -0.010073f, 0.003017f, -0.013444f, 0.006134f, -0.032819f, 0.007748f, 0.060085f, 0.002236f,
    -0.006183f, 0.022355f, -0.040014f, 0.019948f, -0.024812f, -0.020324f, -0.022001f, -0.037222f, 0.045856f, -0.010868f,
    -0.012028f, 0.027283f, -0.058404f, 0.055161f, -0.092081f, 0.036380f, 0.026478f, -0.006522f, 0.033023f, -0.007280f,
    -0.023686f, -0.031313f, -0.005350f, -0.045732f, 0.012276f, 0.011867f, -0.051602f, 0.000424f, 0.026726f, -0.077488f,
    0.021696f, -0.017040f, 0.001645f, 0.001276f, 0.053062f, 0.012984f, -0.002936f, 0.044250f, -0.015182f, 0.018348f,
    0.067258f, 0.018250f, -0.045413f, -0.013694f, 0.020162f, 0.065078f, 0.023728f, -0.004406f, -0.047291f, -0.009980f,
    0.004434f, 0.004866f, 0.021116f, -0.062354f, 0.022151f, 0.000274f, -0.012838f, 0.041704f, 0.039285f, -0.017174f,
    -0.010678f, 0.028023f, 0.099390f, -0.010796f, 0.002658f, -0.012361f, 0.015351f, 0.032919f, -0.010422f, -0.064453f,
    0.036883f, -0.010284f, 0.087030f, 0.010852f, -0.009582f, -0.020525f, 0.024720f, -0.058241f, -0.028235f, -0.098881f,
    0.020969f, 0.007127f, 0.045633f, 0.056018f, -0.028953f, -0.004972f, 0.009895f, -0.004530f, 0.021381f, 0.010854f,
    -0.012222f, -0.012091f, -0.000237f, 0.015934f, 0.022412f, 0.012780f, -0.011570f, -0.023421f, -0.055250f, 0.021054f,
    -0.004995f, -0.033687f, 0.023144f, 0.052905f, -0.029245f, -0.035595f, -0.029025f, -0.073641f, 0.006386f, -0.031218f,
    0.013171f, 0.005964f, -0.011448f, 0.041500f, -0.014090f, -0.008536f, 0.046622f, -0.038069f, 0.013880f, -0.043189f,
    0.012965f, 0.000568f, 0.011556f, -0.034249f, -0.034353f, -0.021253f, 0.028941f, -0.003455f, -0.007064f, 0.000447f,
    -0.005493f, 0.006680f, 0.024821f, -0.027071f, 0.000061f, 0.005220f, 0.047266f, -0.012617f, -0.019194f, 0.045278f,
    -0.020343f, -0.032082f, -0.058215f, 0.033785f, -0.001561f, -0.021240f, 0.033960f, -0.008075f, 0.014244f, 0.046680f,
    0.009554f, -0.004362f, 0.033902f, -0.005959f, 0.012785f, -0.033793f, -0.019054f, 0.012671f, -0.035805f, 0.023627f,
    0.034571f, -0.007832f, 0.016756f, -0.029039f, 0.032533f, 0.000085f, -0.018667f, 0.029303f, 0.000810f, 0.022337f,
    -0.019840f, -0.016840f, -0.039962f, -0.036015f, -0.057674f, 0.025160f, 0.027114f, -0.008254f, -0.024576f, 0.043753f,
    0.025411f, -0.028084f, 0.010419f, -0.007103f, 0.037261f, -0.023720f, -0.016773f, -0.028744f, 0.017203f, -0.073836f,
    0.085165f, -0.002245f, 0.020653f, -0.019009f, 0.033535f, 0.022502f, 0.046715f, -0.024291f, 0.012343f, -0.058757f,
    0.027327f, 0.010249f, 0.018590f, -0.012658f, -0.041838f, 0.036474f, 0.021815f, 0.049506f, 0.018046f, 0.018441f,
    -0.037321f, 0.024530f, -0.029852f, -0.017521f, 0.008519f, -0.002519f, -0.027928f, -0.004608f, -0.043690f, 0.059522f,
    0.006768f, -0.049362f, 0.033144f, 0.031647f, 0.056093f, 0.003615f, -0.014486f, 0.017999f, -0.019906f, -0.007230f,
    -0.011466f, 0.015252f, -0.018441f, 0.027879f, 0.035996f, 0.053814f, 0.026945f, 0.011420f, -0.028515f, 0.054739f,
    0.035386f, -0.010706f, 0.047432f, 0.003502f, 0.002607f, -0.015424f, 0.005965f, -0.036820f, -0.086540f, 0.025349f,
    0.024997f, 0.001887f, 0.098000f, -0.002173f, 0.045254f, 0.022554f, 0.004850f, 0.056537f, 0.042894f, 0.010942f,
    0.034680f, 0.018838f, -0.055719f, 0.058014f, 0.006451f, 0.006457f, -0.029994f, -0.001234f, -0.016583f, -0.028288f,
    -0.024235f, -0.021609f, -0.015705f, 0.013768f, 0.032524f, -0.096264f, 0.024805f, -0.021649f, 0.023925f, -0.014602f,
    -0.008724f, -0.012307f, 0.019843f, 0.011570f, 0.011932f, 0.017692f, -0.032464f, -0.027324f, 0.066649f, 0.024183f,
    -0.042199f, -0.011207f, -0.039544f, 0.002529f, -0.052049f, 0.015272f, 0.065712f, 0.001698f, 0.005650f, -0.005520f,
    -0.046346f, 0.025174f, 0.026212f, -0.019963f, 0.009339f, -0.038512f, 0.014772f, 0.072430f, 0.010275f, -0.022500f,
    0.027035f, -0.005179f, 0.052363f, -0.010163f, -0.007937f, 0.008651f, -0.053749f, 0.002686f, 0.031046f, 0.020000f,
    -0.033517f, -0.007954f, -0.058595f, 0.040443f, 0.055379f, -0.059942f, 0.006375f, -0.026699f, 0.038475f, 0.009729f,
    -0.047606f, -0.018230f, 0.034669f, -0.051211f, -0.045466f, -0.039669f, 0.001072f, -0.003721f, -0.042699f, -0.025489f,
    0.025500f, 0.031903f, -0.014136f, 0.045352f, 0.038387f, -0.030975f, 0.050914f, 0.040305f, -0.008603f, -0.034451f,
    -0.105280f, 0.008481f, 0.028595f, -0.016622f, 0.072000f, -0.046376f, 0.022647f, 0.029767f, 0.027363f, 0.021439f,
    -0.035506f, 0.038434f, -0.027665f, -0.027930f, -0.016993f, 0.068482f, -0.082345f, 0.017215f, 0.030799f, 0.001838f,
    -0.031667f, -0.117322f, 0.022147f, 0.035833f, -0.021185f, 0.014873f, 0.042134f, -0.033267f, -0.002450f, -0.003992f,
    -0.028678f, 0.003225f, -0.092992f, -0.033396f, 0.041750f, 0.033620f, 0.024880f, 0.016137f, -0.041527f, -0.019773f,
    -0.025785f, -0.016716f, 0.028406f, -0.031729f, 0.036332f, -0.041584f, -0.007660f, 0.060353f, 0.058294f, 0.064292f,
    0.017620f, -0.020029f, -0.015802f, -0.052196f, 0.011338f, 0.035172f, 0.025996f, -0.019164f, -0.049014f, -0.031034f,
    0.011460f, -0.010297f, 0.003884f, 0.027918f, -0.026014f, 0.021339f, -0.021212f, 0.006669f, -0.007629f, 0.015957f,
    -0.019605f, 0.005089f, -0.044986f, -0.013528f, 0.039628f, -0.007771f, 0.008129f, -0.031767f, -0.009918f, 0.041239f,
    -0.048213f, -0.063177f, -0.010043f, -0.007665f, -0.058477f, 0.017128f, 0.002828f, -0.039795f, -0.006556f, 0.023010f,
    0.043333f, -0.021075f, -0.008379f, 0.017295f, 0.021880f, -0.011312f, 0.006418f, 0.009304f, 0.023734f, -0.021404f,
    0.023926f, -0.012607f, 0.007252f, 0.029053f, 0.016427f, -0.032690f, -0.024846f, -0.018575f, -0.016436f, 0.071443f,
    -0.006119f, -0.000932f, -0.032665f, 0.098034f, -0.014172f, -0.028596f, -0.025437f, -0.056536f, -0.060822f, -0.049738f,
    -0.029966f, -0.041115f, -0.044973f, -0.031375f, 0.018489f, 0.045689f, 0.025840f, 0.002713f, -0.022076f, 0.036287f,
    0.007035f, 0.034080f, 0.025791f, -0.042741f, -0.013579f, 0.012035f, 0.043520f, -0.048673f, 0.002849f, 0.027426f,
    0.029596f, -0.069687f, 0.057661f, -0.014054f, -0.072941f, 0.046667f, 0.018848f, -0.040131f, -0.037860f, 0.073404f,
    -0.046664f, 0.020801f, -0.041027f, -0.057633f, 0.088624f, 0.025724f, -0.004445f, 0.031410f, -0.007977f, -0.017106f,
    -0.057327f, 0.004452f, 0.023564f, 0.026622f, 0.034865f, -0.003731f, -0.053457f, 0.008671f, -0.013046f, -0.068618f,
    -0.019994f, 0.014918f, 0.002020f, 0.044538f, -0.054234f, 0.031524f, 0.010439f, 0.008817f, -0.024596f, 0.007847f,
    0.020957f, -0.019538f, -0.032979f, 0.018095f, -0.003458f, 0.011842f, 0.030449f, 0.020698f, -0.021981f, -0.055503f,
    -0.033136f, 0.021114f, 0.050474f, 0.000287f, 0.058869f, -0.012436f, 0.017383f, 0.024211f, -0.061147f, -0.003336f,
    -0.040303f, -0.009368f, -0.014294f, 0.000542f, 0.002331f, -0.002319f, 0.024200f, 0.047287f, 0.010897f, -0.045728f,
    -0.027763f, 0.059491f, -0.015295f, -0.073509f, 0.007676f, 0.021005f, 0.009628f, 0.005987f, -0.001251f, 0.026030f,
    -0.018346f, -0.018982f, -0.028052f, 0.019977f, 0.011603f, 0.003492f, 0.022414f, -0.037605f, -0.011152f, 0.022385f,
    0.002286f, 0.006846f, -0.030056f, -0.035481f, -0.019158f, -0.002894f, 0.001708f, -0.045419f, -0.016667f, 0.039662f,
    0.028667f, 0.020030f, 0.013304f, -0.075980f, 0.013496f, -0.001368f, 0.084200f, 0.035903f, -0.014243f, 0.016706f,
    -0.001037f, 0.029657f, 0.017415f, -0.037570f, 0.024229f, 0.077594f, 0.044989f, -0.019743f, -0.052721f, 0.026402f,
    0.070283f, 0.041047f, -0.022829f, -0.047709f, -0.028793f, 0.004537f, -0.034746f, -0.036996f, 0.014391f, -0.082412f,
    -0.013135f, 0.038913f, -0.065365f, 0.021290f, 0.008968f, -0.002339f, -0.002338f, 0.005783f, -0.018648f, -0.023232f,
    -0.025953f, 0.015094f, 0.045488f, -0.049800f, -0.034332f, 0.001253f, 0.005168f, 0.027546f, 0.028424f, -0.035670f,
    -0.010010f, 0.000428f, 0.016164f, -0.032923f, 0.009616f, 0.012004f, 0.033834f, -0.001426f, 0.012454f, 0.007043f,
    0.009537f, -0.012380f, 0.113333f, -0.052938f, -0.046949f, 0.001053f, -0.044026f, 0.012864f, -0.011811f, -0.011063f,
    -0.033084f, -0.084752f, 0.022695f, 0.003380f, 0.073142f, -0.014729f, -0.011560f, -0.000160f, 0.027773f, -0.000110f,
    0.066389f, -0.014217f, -0.036744f, 0.027696f, 0.011142f, 0.021439f, 0.014956f, 0.055427f, -0.064298f, -0.058925f,
    -0.036940f, -0.066062f, 0.035780f, -0.074140f, 0.050241f, 0.083508f, -0.069010f, 0.047360f, 0.006702f, 0.047692f,
    -0.054466f, 0.029866f, 0.026149f, -0.041825f, 0.007080f, -0.023701f, 0.071113f, -0.019537f, 0.010667f, 0.029676f,
    -0.001938f, -0.047926f, -0.024804f, -0.003626f, -0.028301f, -0.017823f, 0.029926f, 0.029884f, -0.096352f, 0.056689f,
    -0.006748f, 0.023096f, 0.009543f, 0.007598f, -0.034972f, 0.000993f, -0.005685f, -0.055553f, 0.001040f, -0.040507f,
    0.009739f, -0.001639f, 0.007831f, -0.020293f, -0.004756f, 0.005603f, 0.041097f, 0.011722f, -0.011628f, 0.014681f,
    0.020024f, 0.001055f, -0.025234f, 0.076020f, 0.047419f, 0.013346f, 0.011513f, -0.024820f, 0.039741f, -0.039758f,
    0.003063f, -0.038452f, 0.003527f, 0.047093f, 0.038267f, 0.037014f, 0.015972f, 0.043342f, 0.022174f, -0.007212f,
    0.071688f, 0.007093f, -0.017550f, 0.007928f, -0.023807f, -0.005784f, -0.025335f, -0.031939f, 0.008817f, -0.012189f,
    0.032717f, -0.019831f, -0.016644f, 0.012865f, -0.020047f, -0.036016f, 0.028006f, -0.019467f, 0.022608f, 0.004765f,
    0.002837f, -0.052449f, 0.008742f, 0.010755f, 0.036210f, -0.008005f, -0.035550f, 0.006567f, 0.017679f, 0.056846f,
    0.036993f, -0.037554f, -0.024359f, 0.106513f, -0.001540f, -0.038081f, -0.011061f, 0.019529f, -0.056316f, 0.027997f,
    -0.016508f, 0.019903f, -0.058870f, 0.017972f, -0.034677f, 0.041387f, 0.020112f, -0.022122f, 0.101636f, 0.027779f,
    0.018564f, 0.016922f, -0.043802f, -0.025596f, -0.031281f, -0.002420f, -0.007252f, 0.006925f, -0.010661f, -0.001329f,
    0.044225f, 0.017813f, 0.006561f, 0.045616f, 0.083672f, 0.007328f, -0.004695f, -0.005301f, -0.043933f, -0.025532f,
    -0.016757f, 0.064192f, -0.010761f, -0.020035f, -0.046178f, -0.024537f, -0.000258f, 0.006443f, 0.005556f, 0.043753f,
    0.011199f, -0.007736f, 0.050174f, -0.020426f, 0.051615f, 0.053624f, -0.043860f, -0.047467f, 0.009533f, -0.007021f,
    0.029820f, 0.045008f, -0.000272f, -0.034710f, 0.011918f, 0.000336f, 0.071034f, -0.012387f, -0.009361f, -0.015260f,
    0.024429f, -0.013709f, -0.015652f, -0.017807f, -0.003801f, -0.029182f, -0.059234f, 0.036812f, -0.032514f, -0.003816f,
    0.009161f, 0.005630f, -0.043689f, -0.010554f, -0.063346f, 0.031769f, 0.007701f, -0.002459f, -0.015951f, 0.024344f,
    -0.014071f, 0.000066f, -0.026880f, -0.033746f, -0.044902f, -0.034254f, -0.001979f, 0.045278f, -0.018051f, -0.012519f,
    0.008518f, 0.046038f, 0.018695f, -0.037007f, -0.021456f, 0.008249f, 0.028973f, 0.057368f, -0.017528f, 0.008587f,
    0.033695f, -0.019067f, 0.022524f, 0.008642f, 0.007638f, 0.000650f, 0.009176f, 0.010835f, 0.032210f, 0.015147f,
    -0.036583f, -0.015122f, -0.063280f, 0.025709f, -0.058543f, -0.025141f, 0.030055f, -0.017761f, -0.003761f, 0.021590f,
    0.027044f, -0.067444f, 0.004285f, 0.037819f, -0.036715f, 0.004813f, -0.041417f, 0.007091f, 0.053058f, 0.019458f,
    -0.028115f, 0.005489f, 0.020587f, 0.035873f, 0.039241f, 0.060612f, -0.071785f, 0.022299f, 0.020352f, 0.052460f,
    0.056539f, -0.000875f, 0.003890f, 0.032223f, 0.000436f, -0.008354f, -0.065151f, -0.036761f, -0.009184f, -0.011219f,
    -0.018034f, 0.046446f, -0.019550f, 0.019765f, 0.005464f, -0.063363f, -0.012648f, -0.031734f, 0.006377f, -0.014696f,
    -0.023656f, 0.016053f, -0.016116f, 0.007585f, 0.013426f, 0.015419f, 0.040057f, -0.014306f, 0.039179f, -0.019243f,
    -0.007811f, 0.005511f, 0.019184f, -0.033142f, -0.024762f, 0.021206f, 0.018341f, 0.061096f, -0.014476f, 0.012099f,
    0.002429f, -0.007342f, 0.018696f, 0.021583f, -0.088503f, 0.031073f, 0.005413f, 0.005285f, -0.054684f, 0.002958f,
    -0.004348f, 0.038652f, -0.018861f, 0.041726f, 0.082774f, 0.043217f, 0.012632f, 0.037224f, -0.041800f, -0.011189f,
    -0.030355f, 0.020970f, 0.009578f, 0.002112f, 0.022198f, 0.015071f, 0.052918f, 0.034869f, 0.024930f, -0.055924f,
    -0.033689f, -0.030505f, 0.003082f, -0.053956f, 0.055492f, 0.076361f, 0.071822f, -0.014652f, 0.005274f, 0.017584f,
    -0.000077f, 0.045736f, -0.008120f, -0.020828f, 0.022088f, -0.017991f, 0.003178f, 0.002833f, -0.016430f, -0.040743f,
    -0.008946f, -0.015199f, -0.005938f, -0.023778f, -0.033219f, 0.004665f, -0.030604f, 0.039629f, 0.039589f, -0.059836f,
    -0.034793f, -0.003369f, 0.035177f, -0.065066f, 0.004270f, -0.011339f, 0.052756f, -0.014998f, -0.045429f, -0.047580f,
    -0.049528f, -0.027903f, -0.017069f, -0.060754f, -0.016191f, 0.007960f, 0.036950f, -0.007761f, 0.087711f, -0.014749f,
    0.013924f, 0.012651f, -0.002163f, 0.068598f, -0.027802f, -0.000192f, -0.001398f, -0.037323f, 0.028877f, -0.027894f,
    0.039325f, -0.007997f, -0.055072f, -0.104513f, -0.031521f, -0.013616f, 0.068814f, -0.064767f, -0.014615f, 0.005924f,
    0.004156f, 0.021535f, -0.016710f, 0.034827f, 0.002598f, -0.008057f, 0.035460f, -0.003660f, 0.036092f, 0.047375f,
    -0.000563f, 0.013433f, 0.021145f, 0.013988f, -0.022005f, 0.000283f, -0.031262f, 0.005720f, 0.029886f, -0.007920f,
    -0.003150f, 0.001290f, 0.062102f, -0.043530f, 0.019259f, 0.007816f, 0.007622f, -0.020472f, 0.023918f, 0.061377f,
    -0.006445f, 0.003614f, -0.016441f, 0.040653f, 0.002772f, -0.017013f, -0.031401f, -0.027815f, 0.033810f, 0.043405f,
    -0.021284f, 0.003553f, 0.071016f, -0.014136f, -0.039776f, 0.025653f, 0.003111f, -0.023794f, 0.008385f, -0.010876f,
    0.029955f, -0.006517f, 0.071653f, 0.012324f, -0.078230f, 0.016136f, -0.073032f, 0.029024f, -0.013216f, 0.033804f,
    0.042470f, 0.047669f, -0.034950f, 0.012094f, -0.021155f, 0.019069f, -0.041850f, 0.045240f, -0.018067f, -0.015698f,
    -0.009138f, -0.066326f, 0.004902f, 0.007509f, -0.007581f, -0.028252f, -0.006969f, -0.004101f, 0.003493f, 0.016493f,
    0.043385f, -0.014517f, 0.023876f, 0.036852f, -0.018244f, -0.015360f, 0.009336f, 0.027192f, 0.039162f, -0.059140f,
    -0.004088f, -0.023714f, 0.026992f, -0.010059f, 0.048084f, -0.022475f, 0.028839f, 0.023800f, -0.047708f, -0.088785f,
    -0.005913f, -0.000129f, 0.014381f, 0.039310f, -0.014118f, 0.037283f, 0.000196f, -0.005320f, 0.028056f, -0.018178f,
    -0.010898f, -0.060136f, -0.016025f, 0.026111f, -0.002851f, 0.019101f, 0.072213f, -0.025195f, -0.045843f, 0.015953f,
    0.043737f, 0.044162f, 0.032926f, -0.018066f, -0.009682f, -0.015040f, 0.036214f, -0.047114f, -0.011082f, 0.047727f,
    0.003211f, 0.002913f, 0.000783f, 0.035073f, -0.003738f, -0.015741f, -0.007681f, 0.032093f, 0.029191f, 0.019741f,
    -0.017090f, 0.019710f, 0.007384f, 0.006769f, -0.059409f, 0.010235f, 0.019420f, 0.003853f, -0.001840f, -0.008444f,
    0.063421f, 0.038850f, 0.014453f, -0.058897f, 0.000227f, -0.019281f, 0.008144f, -0.011596f, 0.013254f, 0.065788f,
    0.010422f, 0.000789f, -0.056543f, 0.002364f, -0.003354f, 0.005627f, 0.040830f, 0.024530f, -0.003142f, 0.027563f,
    -0.058446f, 0.007219f, 0.016305f, -0.053545f, -0.007822f, -0.005144f, -0.021657f, 0.020178f, 0.030318f, 0.017711f,
    0.060332f, 0.043167f, 0.013975f, -0.003846f, 0.009367f, 0.040721f, 0.050339f, -0.023545f, -0.012732f, -0.007415f,
    -0.067861f, 0.037634f, -0.016149f, 0.043115f, 0.023341f, -0.005689f, -0.061686f, -0.077273f, 0.040424f, 0.014837f,
    -0.013896f, -0.019282f, 0.009320f, -0.058605f, -0.046680f, 0.019933f, 0.026699f, -0.039448f, -0.030530f, -0.027598f,
    -0.011417f, 0.001169f, 0.021969f, -0.020190f, -0.050820f, -0.008225f, -0.015818f, 0.039196f, 0.035843f, 0.011681f,
    0.043111f, 0.067519f, 0.007930f, -0.008053f, -0.069175f, 0.046162f, -0.023272f, -0.026127f, 0.039421f, 0.025969f,
    0.034189f, -0.050437f, 0.013945f, -0.012867f, 0.031160f, 0.012180f, -0.018017f, -0.003331f, -0.018406f, -0.039348f,
    0.002507f, -0.055344f, -0.041955f, -0.010756f, 0.009120f, -0.029454f, -0.035295f, -0.019225f, 0.006171f, -0.063677f,
    -0.016392f, -0.029641f, -0.019696f, -0.004545f, -0.052111f, 0.053685f, -0.071865f, 0.036682f, 0.011344f, -0.044799f,
    -0.066258f, 0.021451f, -0.014415f, -0.018991f, -0.014754f, 0.052613f, -0.052830f, 0.047531f, 0.006403f, 0.053636f,
    -0.007247f, -0.027798f, 0.100808f, 0.020107f, 0.044510f, 0.053139f, 0.023094f, -0.000516f, -0.012916f, 0.008499f,
    -0.048028f, -0.019200f, -0.016147f, 0.001422f, -0.026532f, -0.014225f, 0.007535f, 0.011633f, 0.078280f, -0.029862f,
    0.003809f, -0.030647f, -0.037939f, 0.046905f, 0.023635f, 0.025694f, -0.009150f, -0.012985f, -0.014875f, -0.019381f,
    -0.005148f, -0.023437f, -0.010461f, 0.002212f, -0.018245f, 0.026610f, -0.033682f, -0.018487f, -0.000909f, 0.070937f,
    -0.005249f, -0.019485f, -0.004214f, 0.005809f, 0.006917f, 0.010670f, -0.038921f, -0.021209f, -0.041385f, 0.004277f,
    0.056431f, -0.029094f, -0.027128f, -0.019264f, -0.005124f, 0.023273f, -0.061032f, -0.022539f, -0.017079f, -0.031507f,
    -0.016119f, -0.006643f, -0.010139f, 0.017829f, 0.004517f, 0.015759f, -0.002180f, -0.005910f, 0.012234f, 0.016786f,
    -0.023774f, -0.020661f, 0.041067f, 0.015113f, -0.019983f, -0.055342f, -0.070424f, -0.024301f, -0.035042f, -0.076005f,
    0.045474f, 0.015170f, 0.034397f, -0.038131f, 0.030805f, 0.037584f, 0.050727f, -0.031642f, 0.002349f, -0.021078f,
    0.003216f, -0.024180f, -0.029650f, 0.005939f, -0.010191f, -0.015022f, 0.012525f, -0.000335f, -0.026591f, -0.032182f,
    0.021627f, 0.022702f, 0.052102f, 0.041030f, 0.018157f, -0.043466f, -0.036784f, -0.014767f, 0.014540f, 0.006138f,
    0.017182f, 0.056669f, 0.026682f, 0.057621f, 0.018697f, -0.032909f, 0.016305f, 0.057502f, 0.045747f, 0.025033f,
    -0.039455f, 0.036429f, 0.054851f, -0.013800f, -0.031109f, 0.052452f, 0.026123f, -0.014522f, -0.008159f, -0.040899f,
    -0.022553f, 0.017942f, 0.044817f, -0.015894f, 0.010243f, -0.031132f, 0.031451f, 0.034990f, 0.017538f, 0.020693f,
    -0.090677f, -0.021753f, -0.017838f, -0.004946f, -0.044240f, 0.054999f, 0.015348f, 0.016717f, 0.023209f, -0.016757f,
    -0.096651f, -0.014112f, -0.011260f, 0.042266f, -0.018735f, -0.027019f, 0.041369f, 0.031505f, -0.005428f, 0.032774f,
    -0.026120f, 0.030431f, -0.027225f, 0.019998f, -0.022525f, -0.019596f, 0.023112f, 0.009052f, -0.010596f, 0.010627f,
    -0.027192f, 0.002751f, 0.004836f, 0.045838f, -0.065864f, -0.018396f, 0.018380f, -0.025744f, 0.083335f, -0.013765f,
    0.018411f, -0.012381f, -0.028341f, 0.086772f, 0.047324f, 0.051964f, -0.003240f, 0.000913f, 0.052906f, 0.045549f,
    -0.022643f, -0.008113f, -0.000807f, 0.009699f, -0.069317f, -0.024681f, 0.036014f, -0.004897f, 0.035569f, 0.033632f,
    0.034479f, -0.006644f, -0.005465f, -0.006577f, -0.022808f, -0.009762f, 0.008732f, -0.021254f, -0.037045f, 0.000310f,
    0.018218f, -0.034582f, -0.021270f, 0.014776f, 0.061739f, 0.015603f, 0.014957f, -0.022218f, -0.034244f, 0.021459f,
    -0.068147f, -0.017150f, -0.033939f, 0.020161f, 0.016583f, -0.002976f, -0.069758f, 0.003737f, 0.021554f, 0.034357f,
    -0.094386f, 0.049167f, -0.008237f, -0.021710f, 0.014023f, -0.048991f, 0.022719f, -0.000684f, 0.002510f, 0.011284f,
    -0.023005f, 0.070239f, -0.011941f, 0.085540f, 0.009580f, -0.022923f, -0.041906f, 0.060923f, -0.003542f, -0.017270f,
    -0.058244f, -0.052275f, -0.022526f, -0.023279f, -0.008359f, 0.017110f, -0.011722f, -0.035541f, 0.023135f, 0.027134f,
    0.013132f, -0.006801f, -0.077500f, 0.008674f, 0.016684f, -0.020887f, -0.019591f, -0.000596f, 0.030086f, 0.015921f,
    0.005736f, 0.040161f, 0.021841f, 0.002250f, 0.055062f, -0.024855f, -0.041806f, 0.029118f, 0.034942f, 0.017196f,
    -0.006614f, 0.024555f, -0.016295f, 0.019046f, 0.016619f, 0.044689f, 0.032522f, 0.004134f, -0.039171f, 0.036668f,
    0.007403f, 0.021661f, 0.075207f, 0.015630f, -0.060049f, 0.009383f, 0.070105f, 0.003368f, 0.075741f, -0.051756f,
    0.020546f, 0.008027f, -0.005305f, -0.031511f, -0.009957f, -0.025993f, 0.025398f, 0.067994f, 0.007295f, 0.002978f,
    -0.037598f, 0.061940f, -0.062480f, 0.062072f, 0.015279f, -0.019502f, -0.045089f, 0.002301f, -0.013277f, -0.020691f,
    -0.022600f, 0.031189f, 0.044737f, -0.023193f, 0.028515f, 0.022399f, 0.062766f, -0.000683f, 0.000723f, -0.041931f,
    -0.035440f, -0.054670f, -0.017235f, -0.002404f, 0.025380f, -0.007703f, 0.038803f, 0.006893f, 0.020930f, -0.049740f,
    -0.008197f, 0.040183f, 0.040757f, -0.072752f, -0.006493f, 0.033097f, 0.013613f, 0.068455f, -0.092662f, -0.012985f,
    -0.054893f, -0.035942f, 0.031671f, -0.026188f, -0.010726f, -0.020886f, 0.015529f, 0.001815f, 0.050701f, 0.052811f,
    -0.044335f, -0.036743f, 0.014326f, -0.023127f, 0.028168f, -0.010698f, 0.051816f, -0.028066f, -0.032861f, 0.030979f,
    -0.052619f, 0.047151f, -0.019155f, 0.069712f, -0.051064f, 0.035247f, 0.061396f, -0.002157f, -0.033789f, -0.033101f,
    0.070392f, 0.040777f, 0.011043f, -0.015565f, -0.004580f, -0.017011f, -0.021528f, -0.032449f, 0.016564f, 0.003903f,
    0.068448f, 0.022378f, 0.011915f, -0.003900f, 0.037741f, -0.047602f, -0.013200f, 0.017428f, 0.004426f, -0.019967f,
    -0.047852f, 0.002910f, -0.028261f, -0.004093f, -0.012647f, 0.007558f, 0.067913f, -0.061108f, 0.111834f, -0.050221f,
    0.002672f, -0.008209f, -0.078386f, 0.005614f, 0.020878f, -0.019754f, 0.067118f, 0.007799f, -0.095444f, -0.034509f,
    0.017613f, 0.024670f, 0.021129f, -0.019260f, 0.001304f, -0.020535f, 0.006271f, -0.004373f, 0.027288f, 0.000159f,
    -0.000663f, 0.015231f, -0.022649f, 0.046472f, 0.040987f, 0.082763f, -0.027439f, 0.006809f, -0.050516f, -0.008048f,
    0.076759f, -0.034585f, 0.029550f, -0.030459f, -0.007285f, 0.018042f, 0.055027f, 0.016775f, -0.006550f, -0.024728f,
    -0.023778f, 0.001059f, 0.026666f, 0.048572f, 0.010201f, 0.056118f, 0.010281f, -0.052475f, 0.025464f, -0.024351f,
    0.025141f, -0.024719f, -0.009263f, -0.050848f, -0.061527f, 0.012038f, 0.009356f, 0.002353f, -0.017715f, -0.038882f,
    -0.052067f, 0.036997f, -0.018128f, 0.028786f, -0.001642f, -0.036747f, 0.022300f, -0.048750f, -0.001120f, 0.004059f,
    -0.013265f, 0.012073f, 0.033990f, 0.015690f, 0.037305f, 0.000575f, 0.002474f, 0.005519f, 0.061494f, -0.004654f,
    0.005158f, 0.036523f, -0.011520f, -0.010925f, 0.008519f, -0.030545f, 0.006432f, -0.030169f, 0.000789f, -0.029077f,
    -0.013798f, 0.064863f, -0.035590f, -0.019283f, 0.009945f, -0.071705f, -0.005576f, 0.017731f, -0.014409f, 0.029724f,
    -0.010956f, 0.012369f, -0.005105f, 0.037243f, 0.073793f, -0.009210f, 0.004441f, -0.034161f, -0.007850f, 0.026861f,
    -0.046616f, -0.029002f, 0.024831f, -0.053404f, -0.017189f, 0.024181f, 0.043554f, -0.028376f, 0.020273f, -0.000002f,
    0.035798f, -0.028961f, -0.040047f, -0.026146f, -0.058918f, 0.012478f, -0.019024f, 0.007326f, 0.024178f, -0.000730f,
    0.022813f, -0.042642f, 0.038375f, 0.019342f, 0.022051f, -0.036517f, 0.053777f, -0.029702f, 0.010270f, -0.044064f,
    0.008222f, -0.034600f, -0.071127f, 0.028672f, 0.032770f, -0.014563f, -0.006406f, 0.001381f, -0.007711f, -0.067245f,
    -0.025066f, -0.048906f, -0.042784f, -0.008131f, 0.021656f, 0.079191f, 0.024221f, -0.018068f, 0.017595f, -0.048436f,
    0.011267f, -0.028969f, -0.027630f, 0.020232f, 0.041648f, -0.011546f, 0.029860f, -0.055698f, 0.009556f, 0.008936f,
    0.020676f, 0.026591f, -0.039945f, -0.008971f, -0.018586f, -0.035010f, 0.008732f, -0.026793f, -0.000698f, 0.002603f,
    0.042182f, -0.013185f, -0.011071f, 0.034351f, -0.012190f, 0.019408f, -0.040661f, -0.095708f, 0.052454f, 0.012771f,
    0.051097f, 0.034994f, -0.038106f, 0.012261f, 0.069129f, 0.013196f, -0.039040f, -0.002899f, 0.028670f, -0.037690f,
    -0.043453f, 0.019057f, -0.013710f, -0.010237f, 0.003584f, 0.015155f, -0.007631f, 0.078593f, -0.048275f, -0.050127f,
    0.012860f, 0.013275f, -0.031371f, 0.010406f, -0.060062f, -0.053225f, -0.059723f, -0.015680f, 0.056337f, -0.024879f,
    0.018458f, 0.007104f, -0.010169f, -0.063788f, -0.024404f, -0.016639f, -0.024780f, -0.029182f, -0.015431f, 0.039685f,
    -0.017143f, 0.017356f, 0.010406f, 0.013096f, -0.016229f, -0.003745f, -0.093293f, -0.016660f, 0.065856f, 0.008141f,
    -0.026769f, -0.058638f, -0.039772f, 0.019806f, -0.020218f, -0.024692f, 0.073607f, 0.024778f, 0.090229f, 0.089538f,
    -0.053195f, -0.011548f, 0.030993f, -0.043610f, -0.027937f, 0.000097f, 0.021298f, 0.000850f, -0.013832f, -0.020533f,
    0.018788f, 0.009887f, -0.014076f, 0.014627f, 0.052894f, 0.008612f, -0.017895f, 0.030405f, -0.010071f, -0.000502f,
    0.031885f, 0.041262f, 0.041000f, -0.024632f, -0.002160f, -0.027258f, -0.029171f, -0.012486f, 0.001609f, 0.021650f,
    0.011800f, -0.026193f, 0.014391f, -0.009144f, -0.046124f, 0.021941f, -0.011962f, 0.003142f, 0.017531f, -0.021095f,
    0.001426f, -0.026874f, -0.015027f, -0.024746f, 0.036930f, -0.046131f, -0.006912f, -0.004885f, -0.000987f, -0.030012f,
    0.029608f, 0.032582f, 0.037200f, -0.047288f, -0.032368f, 0.023486f, -0.005464f, 0.014919f, 0.010933f, -0.025217f,
    -0.056400f, -0.018797f, -0.051884f, -0.022825f, -0.004268f, 0.022785f, -0.047674f, -0.043842f, 0.027169f, -0.025870f,
    -0.009707f, -0.019860f, 0.010706f, -0.019555f, 0.025057f, 0.013923f, 0.036081f, -0.002925f, -0.008610f, -0.001798f,
    0.037442f, -0.040152f, -0.018936f, -0.029257f, 0.014346f, -0.000456f, -0.019350f, 0.002154f, -0.031832f, 0.021315f,
    0.010156f, 0.015871f, -0.073760f, -0.044017f, 0.057500f, 0.089915f, -0.004532f, 0.008543f, -0.042476f, -0.044849f,
    0.033391f, -0.013821f, 0.017274f, -0.009089f, 0.007884f, 0.049192f, 0.009199f, 0.036653f, -0.037819f, 0.036373f,
    -0.021060f, -0.035493f, -0.006415f, 0.048826f, 0.036122f, -0.005867f, 0.011711f, 0.006174f, 0.015728f, -0.007353f,
    -0.045557f, -0.029664f, -0.012759f, -0.048802f, -0.026092f, 0.066572f, -0.028863f, 0.039974f, -0.005747f, 0.044087f,
    0.019155f, -0.021184f, 0.029188f, 0.000982f, 0.025285f, 0.009518f, 0.038943f, -0.000530f, 0.027513f, 0.020039f,
    -0.049786f, 0.064911f, 0.005320f, 0.002034f, -0.033325f, 0.026947f, -0.019129f, -0.009795f, 0.001840f, -0.008221f,
    -0.022470f, -0.037432f, 0.028285f, 0.011791f, -0.014265f, -0.019261f, 0.015900f, -0.032875f, 0.080273f, 0.074129f,
    0.019896f, -0.027997f, -0.002922f, 0.044451f, 0.011924f, -0.001789f, 0.004534f, -0.068529f, -0.020351f, 0.002091f,
    -0.009382f, 0.040068f, -0.030709f, -0.015312f, 0.013687f, -0.000654f, -0.005009f, 0.035959f, -0.008229f, -0.001111f,
    -0.020738f, 0.001102f, -0.008286f, -0.019384f, 0.001672f, -0.007138f, -0.053128f, -0.005817f, -0.094608f, -0.003154f,
    -0.001277f, 0.006417f, -0.046424f, -0.005959f, -0.009205f, 0.024501f, 0.040566f, -0.027757f, -0.025567f, 0.010035f,
    -0.004147f, 0.009558f, -0.045992f, 0.020364f, -0.033934f, -0.062988f, 0.020508f, -0.004115f, 0.022254f, -0.037063f,
    -0.064053f, 0.017596f, 0.007996f, -0.067793f, 0.018341f, -0.022737f, -0.000127f, 0.018128f, 0.057142f, -0.035568f,
    0.012425f, 0.011647f, -0.063133f, -0.051515f, -0.022864f, 0.010979f, -0.008417f, -0.078510f, -0.060645f, 0.025377f,
    -0.013022f, 0.000550f, 0.008460f, 0.050894f, 0.034701f, 0.002828f, 0.011563f, 0.048484f, 0.004629f, -0.002131f,
    0.025262f, 0.015456f, -0.080328f, -0.029358f, -0.027313f, -0.050599f, 0.048538f, -0.045946f, 0.000246f, -0.036135f,
    0.070065f, -0.000658f, -0.031909f, 0.016755f, 0.030523f, -0.001436f, 0.024890f, 0.037277f, -0.038895f, -0.045102f,
    -0.048637f, 0.025994f, -0.008858f, 0.074696f, -0.004923f, 0.005282f, -0.027337f, -0.043655f, -0.009342f, 0.011703f,
    0.039019f, 0.011216f, 0.046913f, 0.003573f, 0.065632f, 0.051033f, -0.047476f, -0.004524f, 0.017276f, 0.031214f,
    -0.030095f, -0.003427f, 0.064626f, -0.053533f, 0.025011f, 0.045763f, 0.000803f, -0.025592f, 0.012528f, 0.019691f,
    -0.005908f, -0.031502f, 0.039909f, -0.010653f, 0.001711f, 0.000174f, -0.044752f, 0.011836f, -0.031647f, 0.019383f,
    -0.006982f, -0.046501f, 0.029846f, -0.034524f, 0.023626f, 0.008211f, -0.026141f, -0.021734f, 0.012372f, -0.028058f,
    0.000194f, 0.023485f, -0.052466f, -0.007102f, 0.054553f, -0.021047f, -0.020350f, -0.018642f, -0.015615f, -0.005414f,
    -0.006678f, 0.001907f, 0.047553f, 0.034596f, 0.003628f, 0.014282f, -0.019333f, 0.008655f, -0.015237f, 0.002520f,
    -0.033128f, -0.002353f, -0.042161f, 0.011131f, -0.062220f, -0.009904f, 0.022163f, -0.026659f, -0.035356f, 0.027843f,
    -0.059515f, -0.010535f, -0.052644f, 0.000680f, -0.037283f, 0.010454f, -0.010867f, 0.011746f, -0.017267f, -0.006158f,
    -0.112275f, -0.040291f, -0.038612f, -0.007223f, 0.028537f, 0.004778f, 0.009023f, -0.039888f, 0.000534f, 0.019047f,
    -0.064442f, 0.029748f, 0.034341f, 0.006527f, -0.028928f, 0.045799f, 0.062962f, 0.007797f, 0.003329f, 0.007971f,
    -0.022657f, 0.010958f, 0.013366f, -0.008314f, -0.086290f, -0.034184f, 0.013320f, -0.009283f, -0.018589f, 0.015688f,
    -0.058660f, 0.022367f, 0.035564f, 0.015937f, -0.007310f, 0.014096f, -0.044140f, -0.022097f, -0.018074f, 0.013405f,
    0.002456f, 0.000013f, -0.065562f, 0.052357f, 0.006790f, -0.015841f, -0.045443f, 0.022130f, 0.050530f, 0.007900f,
    0.023711f, 0.000048f, -0.043244f, 0.021198f, -0.017053f, -0.026610f, -0.005956f, -0.011055f, 0.050737f, -0.022219f,
    -0.002285f, -0.026653f, 0.058675f, 0.003480f, 0.021213f, 0.056822f, -0.029419f, 0.002785f, -0.052834f, -0.027728f,
    0.028766f, -0.005674f, -0.016771f, 0.066924f, 0.011213f, 0.030086f, -0.028510f, -0.022518f, 0.009418f, 0.037100f,
    0.103636f, 0.010537f, 0.000919f, 0.024387f, 0.044811f, 0.040668f, 0.027966f, 0.015182f, -0.030538f, -0.041356f,
    0.013844f, 0.007731f, 0.028921f, -0.001707f, 0.017604f, 0.039670f, 0.039604f, -0.015331f, -0.036960f, 0.046924f,
    0.004766f, -0.069964f, -0.007386f, -0.022350f, 0.002229f, 0.077814f, -0.009635f, -0.004844f, -0.027958f, 0.030251f,
    0.003063f, -0.022081f, -0.025814f, 0.018552f, 0.027300f, -0.047113f, -0.025177f, -0.018733f, -0.045898f, 0.058357f,
    -0.013073f, -0.051516f, -0.033698f, 0.021432f, 0.012581f, 0.019955f, 0.002147f, -0.002024f, 0.056331f, -0.011441f,
    0.017441f, -0.024596f, -0.033124f, -0.058401f, -0.027216f, -0.060960f, -0.004032f, -0.035713f, -0.035661f, 0.000627f,
    -0.009194f, -0.009083f, -0.024738f, -0.005186f, 0.029133f, 0.041488f, -0.018090f, 0.000775f, -0.067265f, 0.016261f,
    0.002087f, 0.030894f, -0.041082f, 0.046119f, -0.002678f, 0.036991f, -0.018260f, 0.028646f, 0.053632f, -0.026565f,
    -0.023399f, 0.035560f, -0.032206f, -0.015516f, 0.089545f, 0.023374f, 0.016721f, -0.073130f, 0.013222f, -0.031052f,
    -0.048596f, -0.015640f, 0.005322f, 0.003875f, -0.023155f, -0.030357f, -0.004122f, -0.015250f, -0.037034f, -0.008692f,
    0.007677f, -0.002736f, -0.002319f, 0.023819f, -0.064944f, 0.055588f, 0.032266f, 0.014440f, -0.052417f, 0.071923f,
    0.058849f, -0.078980f, 0.066894f, -0.033980f, 0.015718f, 0.005912f, 0.008672f, 0.000691f, 0.052128f, -0.044353f,
    0.027613f, -0.001220f, -0.042187f, 0.021217f, 0.005255f, -0.006351f, -0.054149f, -0.020081f, 0.045238f, -0.020933f,
    0.022243f, 0.010307f, 0.059868f, -0.019543f, 0.006653f, 0.043154f, 0.024862f, 0.106257f, 0.028428f, -0.008993f,
    -0.038561f, 0.027329f, -0.024609f, 0.023293f, 0.016127f, 0.013498f, -0.047232f, 0.019723f, -0.019966f, -0.063251f,
    -0.050978f, -0.017341f, 0.002153f, -0.013799f, 0.015638f, 0.024506f, -0.000812f, 0.023890f, -0.024725f, -0.072144f,
    -0.034879f, -0.046795f, 0.052685f, -0.019491f, 0.036434f, -0.011610f, -0.083863f, -0.007328f, -0.001837f, 0.086603f,
    -0.024616f, 0.021774f, -0.025309f, -0.020406f, 0.049814f, -0.043888f, -0.017434f, -0.022979f, 0.044362f, 0.058484f,
    -0.019115f, -0.031823f, 0.028691f, -0.009189f, 0.003277f, 0.066190f, 0.036704f, -0.001199f, -0.024836f, -0.026930f,
    -0.010262f, -0.037742f, 0.011274f, 0.011517f, 0.049300f, 0.002368f, -0.041804f, -0.076637f, 0.096164f, 0.016598f,
    0.002194f, 0.005582f, -0.091302f, 0.008424f, -0.016713f, -0.015245f, -0.036118f, -0.053403f, -0.034017f, 0.038774f,
    0.036641f, 0.023751f, 0.015151f, 0.020972f, 0.002588f, 0.011126f, -0.043770f, 0.053012f, 0.109721f, 0.004710f,
    -0.034538f, 0.011447f, -0.010640f, -0.013248f, -0.015246f, 0.027693f, -0.046530f, 0.033688f, -0.054792f, 0.013368f,
    0.048207f, 0.028593f, 0.056740f, -0.019857f, -0.003159f, 0.019577f, -0.013512f, -0.041972f, -0.027547f, -0.007969f,
    0.007245f, 0.057740f, -0.065416f, -0.057991f, 0.054368f, -0.033390f, 0.034608f, -0.005483f, -0.017255f, 0.012168f,
    -0.079969f, -0.030882f, -0.021633f, 0.045951f, -0.000161f, 0.036311f, -0.100742f, -0.064476f, 0.049612f, 0.032103f,
    -0.085473f, -0.037883f, -0.022581f, -0.006869f, 0.062312f, 0.018515f, -0.029857f, -0.004706f, 0.048503f, -0.071511f,
    -0.076020f, -0.017065f, -0.016437f, -0.136371f, -0.086051f, -0.033724f, 0.051378f, 0.005571f, -0.029944f, 0.046283f,
    -0.022617f, -0.002380f, 0.011826f, -0.065048f, -0.013450f, -0.005683f, -0.045748f, -0.025638f, -0.123948f, 0.004570f,
    0.074941f, 0.009453f, 0.014448f, 0.074038f, 0.012746f, 0.043167f, 0.068682f, -0.018859f, 0.031315f, -0.005880f,
    0.002840f, 0.011944f, -0.094797f, -0.029469f, -0.019442f, -0.075252f, -0.055037f, -0.045212f, 0.029935f, 0.010604f,
    -0.042676f, 0.000847f, -0.036148f, 0.041264f, 0.045428f, 0.032155f, -0.010316f, 0.033642f, -0.008434f, 0.012878f,
    0.026417f, -0.046617f, 0.014312f, -0.041036f, 0.042130f, 0.014753f, 0.021309f, -0.006580f, 0.056190f, -0.079918f,
    -0.033600f, -0.007566f, 0.034290f, -0.020676f, 0.021956f, -0.103080f, -0.010909f, 0.010845f, -0.044097f, 0.035513f,
    0.040067f, 0.010240f, -0.012967f, -0.059033f, -0.039953f, -0.014565f, -0.029647f, 0.034813f, 0.014979f, 0.006946f,
    -0.063070f, 0.029555f, -0.100224f, 0.004651f, 0.004225f, 0.054375f, -0.044548f, -0.047831f, 0.056876f, -0.009695f,
    -0.061240f, -0.013144f, -0.086310f, 0.009598f, -0.059717f, -0.002802f, -0.056818f, -0.030464f, -0.050454f, 0.079453f,
    0.023780f, -0.022484f, -0.056781f, -0.078607f, -0.029538f, 0.017320f, -0.048913f, 0.056450f, 0.083513f, 0.052451f,
    -0.038295f, -0.044942f, 0.034700f, -0.058420f, -0.007435f, 0.008560f, -0.024456f, 0.089100f, 0.007754f, -0.026410f,
    0.064537f, 0.018563f, -0.056583f, 0.018764f, -0.008509f, -0.032282f, -0.032532f, -0.046595f, -0.010908f, 0.043951f,
    0.013656f, 0.071031f, -0.006098f, 0.049104f, -0.015161f, -0.033537f, 0.041717f, 0.009006f, -0.001434f, 0.016557f,
    -0.024595f, -0.023483f, -0.022937f, -0.005577f, -0.043022f, -0.032432f, 0.050586f, 0.003605f, 0.028110f, 0.073044f,
    -0.046744f, 0.009532f, -0.042784f, -0.055521f, -0.024752f, -0.047537f, -0.020067f, -0.016057f, 0.010435f, -0.022031f,
    -0.012327f, 0.030315f, 0.030186f, -0.041503f, -0.046614f, 0.001710f, -0.072804f, -0.015509f, 0.002698f, -0.007305f,
    -0.011791f, 0.002564f, -0.038237f, -0.017117f, -0.071709f, 0.044076f, -0.022232f, -0.046648f, -0.001057f, -0.034068f,
    0.060833f, -0.049934f, -0.053761f, 0.037408f, 0.004404f, 0.088864f, -0.021392f, 0.012608f, -0.050650f, 0.074064f,
    -0.025777f, 0.053101f, -0.018161f, 0.009664f, -0.037317f, 0.028781f, -0.079235f, 0.020389f, 0.119708f, -0.018364f,
    0.007636f, 0.012711f, 0.045470f, -0.003534f, 0.010728f, -0.073017f, 0.082674f, -0.013941f, -0.000599f, 0.101033f,
    -0.032565f, -0.057310f, 0.018493f, -0.010510f, 0.064366f, 0.055114f, -0.040734f, 0.049024f, 0.028154f, -0.017507f,
    -0.029542f, -0.046568f, 0.025798f, -0.019605f, -0.009330f, 0.020948f, -0.027494f, -0.093541f, 0.043143f, -0.029332f,
    0.051908f, 0.060166f, -0.013897f, 0.011924f, 0.010651f, -0.016485f, 0.058974f, -0.031525f, 0.045168f, 0.017005f,
    -0.009438f, -0.007174f, 0.088803f, 0.003343f, -0.008649f, 0.023694f, 0.053198f, 0.030667f, -0.002078f, -0.017505f,
    0.035344f, 0.028700f, -0.006283f, -0.024092f, 0.021682f, 0.052247f, -0.018478f, -0.041417f, -0.061315f, -0.039357f,
    -0.013792f, 0.026750f, 0.020320f, 0.018038f, 0.002615f, -0.025468f, -0.043027f, -0.039451f, 0.062368f, 0.056921f,
    0.022618f, -0.023221f, -0.008783f, 0.061831f, -0.015071f, -0.035807f, 0.004449f, 0.029960f, -0.010099f, -0.026903f,
    -0.013143f, -0.021195f, 0.047336f, 0.061956f, -0.050107f, 0.012375f, -0.007220f, -0.011052f, -0.124394f, -0.085698f,
    -0.012894f, 0.037733f, 0.061273f, 0.055089f, -0.045778f, 0.049277f, 0.016191f, -0.055785f, -0.031105f, 0.032527f,
    0.067274f, 0.055379f, -0.038029f, -0.077189f, -0.049195f, -0.084609f, 0.076141f, 0.037177f, -0.036515f, 0.045678f,
    -0.023044f, -0.035436f, 0.064881f, -0.067530f, -0.106206f, -0.022587f, -0.004101f, 0.047649f, -0.073542f, -0.032315f,
    -0.081946f, 0.033982f, 0.025880f, -0.007790f, -0.018384f, 0.045276f, 0.008500f, -0.103693f, -0.007508f, -0.007329f,
    0.014509f, 0.086507f, -0.022688f, 0.032934f, -0.002380f, -0.007293f, 0.009632f, -0.041960f, 0.017733f, 0.021662f,
    0.049039f, 0.004528f, -0.006391f, -0.036603f, 0.064926f, -0.047326f, -0.005811f, 0.037207f, -0.061114f, 0.046837f,
    0.026852f, -0.070043f, 0.019530f, -0.006862f, 0.027940f, -0.016352f, -0.041187f, -0.027533f, -0.002486f, -0.078165f,
    0.022134f, -0.009415f, 0.002167f, -0.017948f, 0.040950f, -0.030521f, -0.025054f, -0.020877f, -0.088241f, 0.003820f,
    -0.006435f, -0.053838f, 0.015807f, 0.031900f, -0.085509f, 0.039244f, -0.047104f, 0.062913f, 0.028039f, 0.049614f,
    -0.039734f, 0.014892f, -0.000176f, -0.010138f, -0.003502f, -0.016438f, -0.045598f, -0.053846f, -0.070561f, -0.089958f,
    0.026843f, -0.003478f, 0.001722f, 0.036124f, -0.034069f, -0.023464f, -0.067299f, -0.023793f, 0.016356f, 0.021257f,
    -0.119336f, 0.083453f, -0.030313f, -0.011952f, 0.046657f, -0.050190f, -0.023288f, 0.089249f, -0.013732f, 0.052304f,
    0.008636f, 0.010904f, 0.078721f, -0.010772f, 0.035886f, -0.009094f, 0.059228f, 0.065364f, 0.032901f, -0.040558f,
    -0.032637f, -0.058541f, 0.009308f, 0.008084f, 0.045317f, -0.018599f, -0.022839f, -0.006596f, -0.026307f, 0.006148f,
    0.014345f, 0.055568f, -0.039608f, 0.062971f, -0.057795f, -0.019272f, 0.039620f, -0.045881f, -0.091071f, 0.016263f,
    0.015256f, 0.042651f, 0.018700f, -0.014818f, 0.025389f, -0.005255f, -0.009531f, 0.031662f, -0.030479f, -0.006662f,
    0.025493f, -0.028840f, -0.017648f, 0.051251f, 0.018829f, 0.027282f, -0.014320f, -0.000967f, -0.052690f, 0.010515f,
    0.067497f, -0.031005f, -0.015582f, -0.109924f, -0.078222f, -0.034023f, -0.036997f, -0.073166f, 0.064502f, -0.003963f,
    -0.035590f, -0.058403f, 0.067007f, -0.011765f, 0.007504f, 0.149776f, -0.048465f, -0.004371f, 0.007553f, -0.009917f,
    -0.038958f, -0.043675f, -0.042689f, 0.036327f, 0.041647f, 0.073087f, -0.044439f, -0.029472f, -0.044126f, -0.035767f,
    -0.051015f, 0.045186f, 0.073779f, 0.100838f, -0.002593f, -0.045517f, 0.067309f, -0.040977f, 0.068246f, 0.007318f,
    -0.029901f, 0.069428f, -0.021506f, -0.096981f, -0.002304f, -0.099574f, -0.059297f, -0.003765f, -0.050202f, 0.011368f,
    -0.036228f, -0.056075f, 0.016647f, 0.053593f, -0.013094f, 0.004633f, 0.007050f, 0.009497f, -0.044193f, -0.052946f,
    0.014653f, 0.023558f, -0.002242f, 0.081523f, -0.002604f, 0.008219f, -0.028659f, -0.015735f, 0.028999f, -0.064357f,
    -0.023069f, 0.009728f, -0.028237f, 0.047087f, 0.068962f, -0.039163f, 0.013361f, -0.027319f, -0.024203f, 0.054946f,
    0.042925f, 0.021020f, -0.029515f, -0.016133f, -0.029061f, 0.067552f, -0.091702f, -0.075594f, -0.027130f, 0.003159f,
    0.009179f, -0.035971f, -0.020521f, -0.011137f, 0.012252f, 0.055618f, -0.020449f, -0.034038f, 0.017802f, -0.017254f,
    -0.039843f, -0.012538f, 0.074133f, -0.043457f, 0.035991f, -0.009278f, -0.042262f, -0.024944f, 0.070536f, 0.137645f,
    0.031373f, 0.061174f, -0.090783f, 0.038366f, 0.007975f, -0.034378f, -0.009139f, -0.044531f, -0.063554f, -0.034181f,
    0.009741f, -0.148647f, 0.081621f, 0.017572f, 0.013807f, 0.009558f, 0.018206f, -0.032065f, -0.072712f, -0.053569f,
    0.041966f, 0.068584f, -0.081525f, 0.000033f, -0.035811f, -0.032710f, 0.011899f, -0.092004f, 0.007565f, 0.059049f,
    -0.070855f, 0.081963f, -0.005051f, 0.060121f, 0.063641f, -0.001033f, -0.045016f, 0.086906f, 0.078162f, 0.003534f,
    -0.079501f, 0.023322f, -0.006958f, -0.077250f, -0.020501f, -0.081196f, -0.021480f, 0.051191f, -0.029805f, 0.000588f,
    -0.024392f, -0.065973f, 0.052651f, 0.084448f, 0.015187f, 0.061553f, -0.002126f, 0.018072f, 0.024760f, -0.054514f,
    -0.027963f, 0.026952f, -0.002973f, 0.076435f, 0.011576f, 0.065732f, -0.015230f, -0.018325f, 0.001125f, 0.002877f,
    -0.036993f, -0.034433f, -0.072569f, -0.037721f, 0.038760f, 0.007695f, -0.035953f, 0.030509f, -0.026908f, 0.007361f,
    -0.118537f, 0.026148f, 0.013752f, -0.007732f, -0.021421f, -0.060755f, -0.075665f, -0.009029f, -0.040620f, -0.074526f,
    0.015679f, 0.063401f, -0.049420f, 0.017074f, -0.009091f, -0.060739f, 0.029689f, 0.069855f, -0.083630f, 0.017714f,
    0.039754f, -0.005812f, 0.004457f, 0.014572f, 0.071641f, 0.012257f, 0.018756f, 0.076054f, -0.102741f, -0.019473f,
    -0.016576f, 0.070121f, -0.030292f, 0.039046f, 0.044525f, 0.026078f, -0.050963f, -0.054927f, 0.096609f, -0.116137f,
    0.102919f, 0.053944f, -0.001825f, 0.031819f, 0.011703f, -0.076188f, -0.009783f, -0.177362f, -0.071244f, 0.003930f,
    -0.004459f, 0.089437f, 0.003801f, -0.016323f, -0.037138f, -0.032805f, -0.029689f, -0.003664f, -0.047484f, 0.108324f,
    -0.012832f, 0.005131f, -0.039125f, 0.033000f, 0.042297f, 0.091563f, 0.055338f, 0.019655f, 0.007473f, -0.090345f,
    0.046063f, 0.011474f, 0.073080f, 0.041088f, 0.035104f, 0.000699f, 0.002679f, -0.091611f, -0.042860f, -0.060263f,
    -0.034546f, 0.036804f, 0.006333f, 0.050143f, -0.022029f, 0.010785f, -0.082309f, 0.018881f, -0.034102f, 0.055839f,
    -0.004248f, 0.030503f, -0.027392f, -0.039460f, 0.023657f, -0.030514f, 0.009792f, 0.063350f, -0.032274f, 0.014332f,
    0.008561f, -0.021706f, -0.061017f, 0.001925f, 0.048479f, -0.104213f, 0.078734f, 0.053794f, -0.004540f, 0.037147f,
    -0.005266f, 0.115586f, 0.010408f, -0.022324f, -0.110097f, 0.033206f, 0.018327f, -0.078213f, -0.065515f, -0.020691f,
    -0.148112f, -0.017903f, 0.031644f, -0.146999f, 0.080298f, 0.107029f, 0.041476f, -0.085788f, -0.044592f, -0.079984f,
    -0.012432f, -0.054278f, 0.020712f, 0.138061f, -0.040033f, 0.041692f, 0.021095f, -0.033538f, 0.037444f, -0.109308f,
    0.038980f, 0.054428f, 0.023853f, 0.109780f, 0.097897f, 0.005461f, 0.023873f, -0.019304f, 0.047210f, -0.024182f,
    0.050571f, -0.051584f, -0.058122f, -0.020335f, 0.009397f, -0.060932f, -0.004895f, 0.095817f, 0.034319f, -0.032908f,
    -0.039073f, -0.031289f, -0.020783f, 0.014599f, -0.012768f, 0.055550f, -0.061727f, 0.006879f, -0.019602f, -0.046267f,
    0.057001f, -0.078214f, -0.029676f, 0.024360f, 0.052658f, 0.005866f, 0.036648f, 0.004152f, -0.046582f, -0.014960f,
    0.032193f, 0.021401f, 0.038379f, -0.035399f, 0.033157f, 0.059906f, -0.005856f, 0.023174f, -0.095622f, -0.078128f,
    -0.069910f, -0.005447f, -0.045496f, -0.031608f, -0.048307f, 0.022756f, 0.008972f, 0.027492f, -0.088865f, -0.013564f,
    0.035339f, -0.092979f, 0.002298f, 0.058933f, -0.003577f, 0.002053f, -0.029996f, -0.002163f, 0.015053f, 0.028595f,
    -0.029915f, 0.036308f, 0.004402f, 0.017394f, -0.105559f, 0.056395f, 0.100620f, -0.026412f, 0.083874f, 0.130327f,
    -0.084920f, -0.080664f, 0.038652f, 0.055220f, 0.036471f, 0.110859f, 0.105298f, 0.006457f, -0.092438f, -0.072611f,
    0.118549f, -0.022854f, 0.035591f, 0.074531f, -0.114365f, 0.047464f, -0.059973f, -0.084906f, 0.080705f, -0.166976f,
    -0.104544f, -0.016249f, -0.001343f, 0.015740f, -0.076742f, 0.001943f, -0.025318f, 0.053534f, 0.032367f, 0.060997f,
    -0.025256f, 0.137042f, -0.070428f, -0.041906f, 0.015930f, -0.031703f, 0.007752f, 0.076732f, -0.042243f, -0.012012f,
    -0.076645f, -0.028069f, 0.116085f, -0.102322f, 0.081254f, 0.016195f, -0.062665f, 0.029059f, 0.042095f, -0.051885f,
    0.009342f, -0.033701f, -0.033031f, 0.002532f, 0.009269f, 0.060113f, 0.010220f, -0.023549f, -0.060225f, -0.012121f,
    -0.018744f, 0.077594f, -0.058319f, 0.063822f, -0.033129f, -0.009015f, 0.012615f, 0.045412f, 0.045231f, 0.041866f,
    0.052888f, 0.030955f, 0.028007f, -0.043826f, -0.098282f, -0.060337f, 0.088400f, -0.070777f, 0.009559f, 0.070729f,
    -0.084749f, 0.071977f, -0.044993f, 0.077839f, 0.076123f, 0.015527f, -0.073072f, 0.038626f, 0.070759f, -0.076902f,
    -0.049027f, -0.021455f, -0.095179f, -0.030463f, 0.090996f, -0.085325f, 0.061686f, 0.122558f, 0.059856f, 0.004840f,
    -0.058326f, -0.101364f, -0.070706f, -0.030307f, 0.045347f, 0.099001f, -0.092009f, 0.128116f, 0.040295f, -0.004430f,
    0.084904f, -0.154141f, 0.059300f, 0.100218f, -0.075715f, 0.077845f, 0.092754f, -0.011008f, 0.056363f, 0.005574f,
    0.017057f, 0.020983f, 0.115499f, 0.000423f, -0.006119f, 0.085266f, 0.113493f, -0.016663f, 0.065033f, -0.013542f,
    0.042143f, -0.048742f, -0.056349f, -0.072763f, -0.034098f, -0.029919f, -0.013810f, 0.051235f, -0.033617f, -0.017494f,
    -0.076511f, -0.066481f, -0.000960f, -0.012221f, 0.004125f, 0.061149f, 0.001154f, 0.114506f, 0.057916f, 0.006661f,
    -0.034244f, -0.030003f, -0.024624f, 0.040509f, 0.080128f, 0.081083f, -0.037562f, -0.046443f, 0.058355f, 0.047364f,
    -0.030792f, -0.023726f, -0.033730f, -0.056331f, 0.002078f, 0.033522f, -0.075353f, -0.054462f, -0.011277f, -0.027997f,
    -0.090101f, -0.071112f, 0.057766f, -0.099163f, 0.004113f, 0.063844f, -0.074921f, -0.008328f, 0.124287f, 0.054845f,
    -0.038275f, 0.075565f, -0.142468f, 0.020408f, 0.021411f, 0.043841f, -0.082630f, 0.021451f, -0.013501f, 0.030904f,
    0.100551f, 0.148269f, -0.049186f, -0.022906f, 0.117796f, 0.051483f, 0.013050f, 0.092990f, 0.004126f, -0.017806f,
    -0.147524f, -0.077396f, 0.202385f, -0.068107f, 0.112315f, 0.123150f, -0.132799f, 0.129035f, -0.008210f, -0.119993f,
    0.079739f, -0.108357f, -0.134081f, 0.027024f, -0.015137f, 0.014499f, -0.082088f, 0.033004f, -0.039845f, 0.076798f,
    0.042956f, -0.008195f, 0.029130f, 0.187399f, -0.082396f, -0.045153f, 0.046371f, 0.049159f, 0.018896f, 0.056600f,
    0.068768f, 0.054217f, -0.028722f, -0.061785f, 0.023980f, -0.054619f, -0.010319f, 0.035228f, -0.032732f, 0.051481f,
    -0.014714f, -0.043433f, 0.033964f, -0.072132f, -0.012101f, -0.057146f, -0.030888f, 0.070355f, -0.022449f, -0.049894f,
    -0.043189f, 0.034265f, -0.069678f, 0.106499f, -0.062049f, -0.013866f, -0.005514f, -0.085283f, -0.094545f, -0.023608f,
    0.009275f, 0.010581f, -0.071045f, 0.063949f, 0.069957f, -0.051136f, -0.009238f, -0.131044f, 0.096828f, -0.104939f,
    -0.007329f, 0.056197f, -0.144675f, 0.003796f, -0.012173f, 0.056245f, -0.003683f, -0.024900f, -0.064471f, 0.116128f,
    0.110727f, -0.059832f, -0.059397f, 0.012460f, -0.064898f, 0.027734f, 0.152542f, -0.127337f, 0.024831f, 0.199181f,
    0.070802f, -0.029254f, -0.103019f, -0.176062f, -0.142572f, -0.001286f, 0.057306f, 0.168876f, -0.018137f, 0.103082f,
    -0.047110f, -0.015293f, 0.138360f, -0.129683f, 0.077041f, 0.004026f, -0.050210f, 0.089801f, 0.109053f, 0.089782f,
    -0.011784f, -0.048857f, 0.038670f, 0.047390f, 0.131945f, 0.035736f, -0.026841f, -0.068978f, 0.051092f, -0.040376f,
    0.123082f, 0.033580f, 0.015075f, 0.030497f, -0.064471f, -0.012413f, -0.077485f, -0.034154f, 0.010608f, 0.049496f,
    -0.004848f, 0.025078f, -0.018011f, -0.012048f, 0.088103f, -0.030332f, -0.038690f, 0.099250f, -0.086401f, 0.069993f,
    0.088180f, -0.043908f, 0.005225f, 0.022397f, 0.046154f, 0.140880f, -0.001271f, 0.070334f, -0.032635f, -0.002313f,
    0.040093f, -0.008824f, -0.019156f, -0.067133f, -0.074773f, 0.009291f, 0.018348f, 0.041087f, -0.041575f, -0.071110f,
    -0.023006f, -0.054552f, -0.065845f, -0.006736f, 0.067995f, -0.135560f, -0.024072f, 0.101316f, -0.076863f, 0.037987f,
    0.051469f, 0.084321f, 0.087995f, 0.137298f, -0.078010f, 0.033754f, 0.031902f, 0.031258f, -0.084669f, -0.045720f,
    0.067119f, -0.055250f, 0.086487f, 0.211744f, -0.020921f, -0.118587f, 0.151394f, 0.128990f, 0.089356f, 0.083923f,
    0.009415f, -0.012130f, -0.115816f, -0.093579f, 0.151998f, -0.054355f, 0.067813f, 0.115854f, -0.146316f, 0.023576f,
    -0.006338f, -0.035920f, -0.003200f, -0.194816f, -0.085011f, -0.070792f, 0.097866f, 0.106610f, -0.135903f, -0.037266f,
    0.035146f, 0.082995f, -0.014139f, -0.026879f, 0.010569f, 0.116160f, -0.066949f, 0.006493f, 0.025096f, 0.093592f,
    0.063850f, 0.057046f, 0.028321f, 0.052959f, -0.038897f, -0.072679f, 0.048657f, -0.036664f, 0.089945f, 0.028276f,
    -0.130449f, 0.026906f, 0.025742f, -0.040453f, 0.062052f, -0.086430f, -0.084084f, -0.059712f, 0.002483f, 0.104041f,
    -0.051314f, -0.125540f, -0.034797f, 0.004315f, 0.002036f, 0.037174f, -0.001105f, -0.002564f, -0.017704f, -0.027541f,
    -0.081553f, 0.067852f, -0.043526f, 0.073534f, -0.046047f, 0.102230f, 0.081627f, -0.055917f, 0.010952f, -0.140580f,
    0.019003f, -0.162698f, -0.036587f, 0.059023f, -0.088031f, 0.012140f, 0.001643f, 0.039994f, 0.112850f, 0.029721f,
    -0.099734f, 0.193111f, 0.132411f, -0.088129f, -0.100236f, -0.035123f, -0.119147f, 0.078336f, 0.131545f, -0.029199f,
    0.092845f, 0.207158f, 0.118725f, 0.014276f, -0.110807f, -0.184521f, -0.090570f, 0.022998f, 0.066330f, 0.134830f,
    0.008901f, 0.143859f, -0.022893f, -0.024973f, 0.120617f, -0.112062f, 0.125649f, 0.046729f, -0.103761f, 0.087557f,
    0.135995f, 0.018055f, 0.117124f, -0.061191f, 0.045900f, 0.159469f, 0.127226f, 0.129698f, -0.072978f, 0.070268f,
    0.055372f, -0.106270f, 0.013296f, 0.098295f, 0.032116f, 0.006013f, -0.023296f, -0.097788f, -0.063540f, -0.046871f,
    0.032845f, 0.091076f, -0.037269f, 0.046916f, -0.049386f, -0.005795f, 0.007927f, -0.007020f, -0.039054f, 0.063241f,
    -0.003815f, 0.113342f, 0.095534f, -0.017159f, 0.053299f, 0.001847f, -0.006949f, 0.101420f, 0.100291f, -0.004974f,
    -0.000971f, 0.035469f, 0.017818f, -0.023766f, 0.012320f, -0.015694f, 0.022068f, 0.023321f, 0.116622f, 0.022415f,
    -0.058190f, -0.083588f, 0.004230f, -0.079940f, -0.154345f, -0.146861f, 0.010142f, -0.135464f, -0.063213f, 0.129209f,
    -0.098104f, 0.166833f, 0.028816f, 0.097267f, 0.032511f, 0.089189f, -0.077293f, 0.124229f, 0.031342f, 0.013176f,
    0.006484f, -0.042796f, 0.128997f, -0.016013f, 0.080742f, 0.190854f, -0.072346f, -0.084053f, 0.214718f, 0.122168f,
    0.147389f, 0.118919f, 0.048490f, -0.030188f, -0.128927f, -0.052464f, 0.165831f, -0.049779f, 0.091164f, 0.144121f,
    -0.113342f, 0.055544f, -0.016311f, -0.075234f, 0.025468f, -0.076255f, -0.207846f, -0.036985f, -0.000831f, 0.036327f,
    -0.155774f, -0.042462f, 0.108234f, 0.080043f, -0.066496f, -0.048750f, 0.073066f, 0.104377f, -0.067872f, -0.013211f,
    0.014775f, 0.109764f, -0.001743f, 0.040496f, -0.001227f, 0.049328f, -0.069589f, -0.111988f, 0.090677f, -0.091398f,
    0.062164f, 0.038390f, -0.119026f, 0.138150f, -0.037412f, -0.084484f, 0.060364f, -0.016229f, -0.125709f, -0.082882f,
    0.028283f, 0.092108f, -0.013148f, -0.112674f, -0.041049f, 0.074611f, -0.151554f, -0.017053f, 0.071933f, 0.024652f,
    -0.096305f, -0.013088f, -0.118834f, 0.044872f, -0.070561f, 0.046657f, -0.035271f, 0.236753f, 0.136459f, -0.087499f,
    -0.019166f, -0.090172f, -0.059421f, -0.189075f, -0.131569f, 0.101541f, -0.157646f, -0.058302f, 0.010285f, 0.049381f,
    0.123612f, 0.086390f, -0.059123f, 0.274877f, 0.101973f, -0.076979f, -0.022779f, -0.112705f, -0.132265f, 0.050151f,
    0.223610f, -0.069760f, 0.015831f, 0.220505f, 0.070793f, 0.048645f, -0.128705f, -0.229419f, -0.034587f, 0.053779f,
    0.104894f, 0.169175f, 0.017619f, 0.080252f, -0.047906f, -0.000877f, 0.047120f, -0.129686f, 0.133952f, 0.021235f,
    -0.076670f, -0.019099f, 0.071933f, 0.089337f, 0.041960f, -0.111124f, 0.111341f, 0.237436f, 0.165900f, 0.071898f,
    -0.024262f, -0.016854f, 0.071845f, -0.031718f, 0.025983f, 0.073586f, 0.138914f, 0.009492f, 0.000560f, -0.121284f,
    -0.032735f, -0.075067f, 0.042934f, 0.024384f, -0.052625f, 0.074992f, -0.067240f, -0.059430f, 0.075096f, -0.018843f,
    0.004866f, 0.115010f, -0.022284f, 0.077809f, 0.058182f, -0.046197f, -0.034449f, -0.005295f, 0.146524f, 0.193237f,
    0.094489f, -0.010065f, -0.020569f, -0.093514f, 0.008602f, -0.040150f, 0.022047f, 0.016329f, -0.027149f, 0.026625f,
    0.199093f, 0.011722f, -0.127273f, -0.122635f, 0.032569f, -0.117719f, -0.111639f, -0.113709f, 0.028825f, -0.169894f,
    -0.036160f, 0.175582f, -0.086143f, 0.254295f, 0.026647f, 0.124460f, 0.027225f, 0.093065f, -0.090135f, 0.133477f,
    0.147374f, 0.021324f, 0.132355f, -0.075381f, -0.011083f, -0.004175f, 0.052268f, 0.139232f, 0.025681f, 0.032678f,
    0.240656f, 0.121654f, 0.172482f, 0.106875f, 0.039089f, -0.065018f, -0.180181f, -0.143630f, 0.139588f, -0.001352f,
    0.054957f, 0.174329f, -0.083200f, 0.086407f, -0.022184f, -0.105573f, -0.000500f, -0.042458f, -0.134729f, -0.128628f,
    -0.006968f, 0.062520f, -0.087190f, -0.126265f, 0.114824f, 0.157984f, -0.028726f, -0.069403f, 0.065393f, 0.069108f,
    -0.139729f, -0.041948f, 0.094992f, 0.104737f, 0.065127f, 0.027250f, 0.094709f, 0.100916f, 0.038496f, -0.059310f,
    0.097650f, -0.079387f, 0.010530f, 0.005432f, -0.111086f, 0.182532f, -0.048389f, -0.117345f, 0.062698f, -0.013059f,
    -0.000616f, -0.152091f, -0.060275f, 0.126824f, 0.021562f, -0.189306f, -0.033579f, -0.015212f, -0.055191f, -0.042130f,
    0.094455f, 0.038095f, -0.196856f, 0.073488f, -0.147252f, 0.082639f, -0.092227f, 0.014782f, -0.100358f, 0.363977f,
    0.116436f, -0.158896f, 0.063128f, -0.140288f, -0.037131f, -0.227052f, -0.213669f, 0.208347f, -0.154914f, -0.047274f,
    0.050992f, 0.038204f, 0.119793f, 0.107369f, -0.075162f, 0.236462f, 0.180362f, 0.020534f, -0.030526f, -0.029868f,
    -0.025094f, 0.037494f, 0.208200f, -0.060349f, 0.012174f, 0.146962f, 0.011111f, 0.033019f, -0.197559f, -0.224870f,
    -0.107923f, 0.071783f, 0.083365f, 0.165358f, 0.073830f, 0.082975f, -0.038876f, -0.085213f, 0.013976f, -0.147076f,
    0.122963f, -0.015932f, -0.020561f, 0.046808f, -0.020028f, 0.112147f, 0.036127f, -0.119598f, 0.137315f, 0.272642f,
    0.148706f, 0.031354f, -0.018475f, -0.019602f, 0.089482f, -0.092805f, 0.117779f, 0.158923f, 0.097388f, 0.067702f,
    0.073612f, -0.019021f, -0.162201f, -0.035602f, 0.118334f, 0.108840f, 0.036409f, 0.034036f, 0.004623f, -0.049773f,
    -0.057973f, 0.003224f, 0.030858f, 0.115456f, 0.013558f, 0.152354f, 0.095690f, -0.016271f, -0.041957f, 0.000773f,
    0.157009f, 0.128075f, 0.105513f, 0.029789f, -0.069134f, -0.026843f, -0.066537f, -0.087423f, 0.071931f, 0.079997f,
    0.125425f, 0.061614f, 0.367555f, 0.052320f, -0.110412f, -0.166178f, 0.030411f, -0.116466f, -0.134926f, -0.043001f,
    -0.127542f, -0.153673f, -0.035797f, 0.118436f, -0.199694f, 0.296121f, 0.071491f, 0.301128f, 0.006064f, 0.006857f,
    -0.195134f, 0.238639f, 0.149443f, 0.009449f, 0.098941f, -0.029480f, 0.026558f, -0.132731f, -0.026726f, 0.102811f,
    -0.024687f, -0.053716f, 0.272239f, 0.095580f, 0.253734f, -0.044189f, -0.064147f, -0.023390f, -0.178154f, -0.073450f,
    0.071046f, 0.031863f, 0.002826f, 0.184425f, 0.006857f, 0.132257f, -0.076203f, -0.036781f, -0.209975f, 0.087752f,
    -0.003612f, -0.131839f, 0.026333f, 0.122711f, -0.122251f, -0.130963f, 0.125818f, 0.038177f, 0.089262f, -0.237023f,
    0.032039f, -0.071945f, -0.199578f, -0.002178f, 0.081676f, 0.160064f, 0.070696f, -0.094135f, 0.022785f, 0.155815f,
    -0.002634f, -0.140677f, 0.114300f, -0.012718f, 0.019161f, -0.009394f, -0.107009f, 0.241927f, -0.027246f, -0.069687f,
    -0.021976f, 0.022016f, 0.027116f, -0.127461f, 0.014394f, 0.161236f, -0.045322f, -0.030950f, 0.043258f, -0.008007f,
    -0.024454f, -0.000825f, 0.179906f, 0.014424f, -0.392032f, 0.166470f, -0.073709f, 0.085580f, -0.057217f, 0.023284f,
    -0.110329f, 0.441541f, 0.141817f, -0.191871f, 0.046789f, -0.102739f, -0.134207f, -0.208738f, -0.264089f, 0.205354f,
    -0.189725f, -0.117096f, -0.010381f, 0.047170f, 0.072523f, 0.099890f, -0.118358f, 0.347424f, 0.161911f, 0.103574f,
    -0.047931f, 0.001662f, -0.010102f, 0.093552f, 0.192800f, 0.070877f, 0.009815f, 0.189491f, -0.062719f, 0.114013f,
    -0.122782f, -0.054644f, -0.070073f, 0.165755f, 0.207509f, 0.107733f, 0.065281f, 0.025143f, 0.068700f, -0.153456f,
    -0.026278f, -0.124000f, 0.116206f, 0.086784f, 0.026778f, -0.105988f, -0.125184f, 0.054413f, 0.075624f, -0.111421f,
    0.122273f, 0.237921f, -0.023956f, -0.014154f, -0.055486f, 0.016284f, 0.056851f, -0.026168f, 0.020884f, 0.091751f,
    0.102319f, 0.053711f, 0.169226f, -0.035157f, -0.189534f, -0.028801f, 0.157262f, 0.030148f, -0.057579f, 0.032158f,
    0.068921f, -0.122954f, -0.062448f, -0.033844f, 0.061165f, 0.143283f, 0.068085f, 0.083151f, 0.071238f, -0.073483f,
    -0.003530f, -0.031289f, 0.232534f, 0.160880f, 0.048994f, -0.034749f, -0.031169f, -0.013244f, -0.095276f, -0.148022f,
    -0.004982f, 0.063671f, 0.109754f, 0.164639f, 0.476101f, 0.037856f, -0.166622f, -0.163633f, 0.163603f, -0.114746f,
    -0.119949f, 0.047706f, -0.114988f, -0.152586f, -0.114879f, 0.082978f, -0.174343f, 0.323736f, -0.011780f, 0.288712f,
    0.146348f, 0.020059f, -0.140058f, 0.244920f, 0.273151f, 0.009265f, 0.122310f, 0.023013f, -0.075566f, -0.117273f,
    -0.254382f, 0.077632f, -0.047345f, -0.050225f, 0.018251f, 0.214448f, 0.155892f, -0.229953f, -0.022450f, -0.121183f,
    -0.180119f, -0.038266f, 0.067644f, -0.082866f, 0.153807f, 0.036359f, -0.011641f, 0.060013f, -0.094270f, -0.031229f,
    0.155014f, -0.001487f, 0.327522f, 0.106382f, -0.172491f, 0.034595f, -0.308978f, -0.162352f, 0.060860f, 0.131341f,
    -0.127961f, 0.116693f, 0.097026f, -0.010564f, -0.320198f, 0.107751f, -0.094528f, -0.203016f, 0.056410f, 0.179650f,
    -0.094579f, 0.295740f, -0.208951f, -0.213355f, -0.062157f, 0.160982f, -0.100864f, 0.187046f, -0.139924f, -0.023806f,
    0.027420f, -0.082397f, -0.198465f, 0.090609f, 0.103672f, 0.057164f, -0.045868f, 0.148984f, 0.218781f, -0.021209f,
    -0.109826f, 0.135860f, 0.007754f, -0.141220f, 0.172577f, -0.153606f, -0.247331f, 0.166997f, -0.090532f, 0.224997f,
    -0.132042f, -0.083142f, 0.005220f, 0.356373f, 0.180603f, -0.010869f, 0.009490f, 0.031953f, -0.002225f, -0.282667f,
    -0.244924f, 0.236910f, -0.095873f, 0.007845f, -0.042054f, -0.020438f, 0.008700f, 0.037919f, 0.015978f, 0.142569f,
    0.135099f, 0.175481f, 0.098002f, 0.049917f, -0.068962f, 0.178336f, 0.024117f, 0.076327f, 0.051227f, 0.083937f,
    -0.151481f, 0.229329f, -0.096868f, -0.199648f, -0.219357f, 0.201455f, -0.149722f, 0.130871f, -0.108502f, -0.068779f,
    0.042967f, -0.024465f, -0.242252f, -0.222061f, 0.204737f, 0.051073f, 0.309897f, -0.108899f, 0.222818f, 0.110066f,
    -0.194942f, -0.069217f, 0.111043f, 0.207167f, -0.184775f, 0.070716f, 0.014064f, 0.168593f, -0.168396f, -0.170445f,
    0.047695f, 0.179364f, -0.086999f, -0.194858f, 0.192182f, 0.106079f, -0.009098f, -0.094825f, 0.254699f, 0.026153f,
    0.142060f, 0.243676f, -0.101999f, -0.075920f, 0.029527f, -0.058519f, -0.132098f, 0.240109f, 0.139242f, -0.060742f,
    0.048750f, 0.119552f, 0.036874f, 0.137013f, -0.082695f, 0.125790f, 0.006726f, 0.217428f, -0.010340f, -0.173413f,
    -0.059256f, -0.143390f, 0.051148f, 0.020348f, 0.198003f, 0.116272f, 0.523402f, -0.052546f, -0.195452f, 0.004954f,
    0.015668f, -0.183293f, -0.154995f, -0.093435f, -0.089961f, -0.026936f, -0.284760f, 0.070061f, 0.007973f, 0.237554f,
    -0.002015f, 0.217026f, -0.084505f, -0.144686f, -0.101454f, 0.210984f, 0.184094f, -0.113755f, 0.218916f, 0.062096f,
    0.132539f, -0.014620f, -0.097463f, -0.327200f, 0.074277f, -0.033540f, 0.236954f, -0.214858f, -0.436281f, -0.269048f,
    0.247759f, 0.440787f, -0.018284f, -0.186029f, -0.182524f, 0.127230f, 0.023690f, 0.064502f, 0.051723f, 0.129286f,
    0.009245f, -0.271795f, -0.309601f, -0.219114f, 0.242751f, 0.161438f, -0.319178f, 0.150900f, -0.016216f, 0.226548f,
    0.423997f, -0.100409f, -0.041801f, 0.139190f, -0.558273f, -0.317603f, -0.182370f, -0.582457f, -0.714891f, -0.383773f,
    -0.000347f, 0.175998f, 0.172350f, -0.024620f, 0.348716f, -0.336876f, -0.357316f, -0.354968f, -0.098619f, -0.512386f,
    -0.031240f, 0.332441f, -0.331863f, 0.292896f, -0.003027f, 0.464724f, 0.235691f, -0.006019f, -0.171843f, 0.169459f,
    0.043629f, -0.532191f, -0.414284f, -0.363203f, -0.013932f, 0.031440f, 0.752767f, -0.164075f, -0.186239f, 0.188657f,
    0.235150f, 0.003457f, 0.104078f, 0.008490f, -0.350403f, 0.166483f, -0.093905f, -0.290749f, 0.267067f, 0.133263f,
    0.439809f, -0.106550f, 0.048739f, -0.209858f, -0.036051f, -0.198718f, -0.082716f, 0.026595f, 0.031176f, -0.138625f,
    -0.055093f, -0.148044f, -0.240020f, 0.134300f, 0.226486f, 0.470113f, 0.076184f, -0.068591f, -0.029703f, 0.005043f,
    -0.064905f, -0.025988f, 0.054568f, -0.063466f, 0.012875f, -0.015616f, 0.010294f, -0.050047f, 0.041764f, 0.060601f,
    -0.027308f, -0.005766f, -0.006855f, 0.009629f, -0.023796f, -0.033050f, -0.042519f, -0.019596f, 0.016197f, -0.046000f,
    0.079265f, -0.025171f, 0.028726f, 0.052341f, -0.000384f, -0.010702f, 0.018142f, -0.079204f, -0.037248f, 0.085595f,
    0.052660f, 0.076854f, -0.010795f, -0.098080f, 0.078902f, -0.008672f, -0.008326f, 0.041445f, 0.062218f, -0.080853f,
    -0.000869f, -0.004027f, -0.087925f, 0.012646f, 0.002201f, -0.038852f, 0.125733f, -0.018351f, -0.044271f, -0.055117f,
    -0.055200f, 0.003425f, -0.011676f, -0.016386f, -0.000068f, 0.022663f, 0.038604f, -0.015608f, 0.017871f, 0.006471f};

// Shape: 32
const float PARAMS_HIDDEN_1_BIAS[32] = {
    -0.047409f, -0.000857f, -0.055750f, -0.068085f, 0.024057f, 0.103804f, 0.111145f, -0.061405f, 0.000855f, -0.072303f,
