#ifndef POLICY_WEIGHTS_H
#define POLICY_WEIGHTS_H

// --- Normalization Statistics ---
const float OBS_MEAN[245] = {
    -0.002908f, -0.146838f, -0.081827f, -0.153270f, 0.030401f, -0.092121f, -0.002902f, -0.146836f, -0.081859f, -0.153263f,
    0.030412f, -0.092123f, -0.002910f, -0.146835f, -0.081891f, -0.153262f, 0.030417f, -0.092131f, -0.002896f, -0.146847f,
    -0.081929f, -0.153259f, 0.030423f, -0.092148f, -0.002917f, -0.146855f, -0.081948f, -0.153251f, 0.030424f, -0.092169f,
    -0.002923f, -0.146859f, -0.081957f, -0.153250f, 0.030426f, -0.092190f, -0.002933f, -0.146867f, -0.081958f, -0.153254f,
    0.030420f, -0.092216f, -0.002930f, -0.146866f, -0.081954f, -0.153266f, 0.030407f, -0.092238f, -0.002915f, -0.146863f,
    -0.081959f, -0.153286f, 0.030405f, -0.092259f, -0.002905f, -0.146856f, -0.081957f, -0.153298f, 0.030403f, -0.092266f,
    -0.002903f, -0.146853f, -0.081940f, -0.153314f, 0.030387f, -0.092258f, -0.002897f, -0.146857f, -0.081936f, -0.153331f,
    0.030397f, -0.092223f, -0.002895f, -0.146861f, -0.081922f, -0.153343f, 0.030398f, -0.092181f, -0.002915f, -0.146884f,
    -0.081904f, -0.153342f, 0.030412f, -0.092130f, -0.002923f, -0.146886f, -0.081861f, -0.153321f, 0.030432f, -0.092080f,
    -0.002938f, -0.146898f, -0.081816f, -0.153313f, 0.030441f, -0.092027f, -0.002949f, -0.146900f, -0.081760f, -0.153303f,
    0.030453f, -0.091986f, -0.002958f, -0.146900f, -0.081690f, -0.153301f, 0.030466f, -0.091943f, -0.002946f, -0.146877f,
    -0.081628f, -0.153324f, 0.030479f, -0.091913f, -0.002925f, -0.146859f, -0.081566f, -0.153339f, 0.030487f, -0.091890f,
    -0.002908f, -0.146843f, -0.081551f, -0.153350f, 0.030500f, -0.091859f, -0.002891f, -0.146823f, -0.081545f, -0.153369f,
    0.030512f, -0.091850f, -0.002881f, -0.146826f, -0.081575f, -0.153378f, 0.030518f, -0.091856f, -0.002874f, -0.146834f,
    -0.081640f, -0.153390f, 0.030529f, -0.091881f, -0.002873f, -0.146866f, -0.081713f, -0.153390f, 0.030526f, -0.091910f,
    -0.002875f, -0.146888f, -0.081789f, -0.153403f, 0.030528f, -0.091963f, -0.002872f, -0.146929f, -0.081876f, -0.153411f,
    0.030514f, -0.092044f, -0.002873f, -0.146975f, -0.081968f, -0.153430f, 0.030485f, -0.092162f, -0.002863f, -0.147022f,
    -0.082100f, -0.153462f, 0.030443f, -0.092305f, -0.002855f, -0.147068f, -0.082256f, -0.153494f, 0.030389f, -0.092482f,
    -0.002836f, -0.147122f, -0.082408f, -0.153543f, 0.030338f, -0.092644f, -0.002817f, -0.147161f, -0.082550f, -0.153586f,
    0.030297f, -0.092752f, -0.002827f, -0.147188f, -0.082655f, -0.153616f, 0.030270f, -0.092835f, -0.002817f, -0.147226f,
    -0.082775f, -0.153624f, 0.030253f, -0.092914f, -0.002802f, -0.147258f, -0.082920f, -0.153638f, 0.030236f, -0.093026f,
    -0.002791f, -0.147289f, -0.083102f, -0.153630f, 0.030224f, -0.093175f, -0.002783f, -0.147304f, -0.083305f, -0.153595f,
    0.030197f, -0.093375f, -0.002753f, -0.147302f, -0.083537f, -0.153532f, 0.030158f, -0.093615f, -0.002770f, -0.147297f,
    -0.083792f, -0.153508f, 0.030096f, -0.093883f, -0.002947f, -0.147347f, -0.084055f, -0.153598f, 0.029968f, -0.094150f,
    0.000247f, -0.141835f, -0.875008f, 0.130530f, 0.005553f};

const float OBS_STD[245] = {
    0.481664f, 0.415690f, 0.476551f, 0.453451f, 0.395543f, 0.462686f, 0.481666f, 0.415686f, 0.476545f, 0.453459f,
    0.395544f, 0.462684f, 0.481672f, 0.415688f, 0.476544f, 0.453464f, 0.395541f, 0.462678f, 0.481669f, 0.415683f,
    0.476544f, 0.453464f, 0.395544f, 0.462683f, 0.481674f, 0.415683f, 0.476545f, 0.453465f, 0.395544f, 0.462690f,
    0.481671f, 0.415671f, 0.476549f, 0.453468f, 0.395540f, 0.462686f, 0.481669f, 0.415670f, 0.476541f, 0.453470f,
    0.395551f, 0.462682f, 0.481677f, 0.415677f, 0.476541f, 0.453472f, 0.395547f, 0.462669f, 0.481673f, 0.415679f,
    0.476538f, 0.453467f, 0.395552f, 0.462665f, 0.481669f, 0.415676f, 0.476544f, 0.453467f, 0.395554f, 0.462672f,
    0.481664f, 0.415679f, 0.476548f, 0.453461f, 0.395557f, 0.462670f, 0.481664f, 0.415684f, 0.476543f, 0.453467f,
    0.395553f, 0.462669f, 0.481674f, 0.415675f, 0.476537f, 0.453459f, 0.395556f, 0.462667f, 0.481671f, 0.415673f,
    0.476531f, 0.453466f, 0.395546f, 0.462663f, 0.481669f, 0.415669f, 0.476528f, 0.453462f, 0.395541f, 0.462674f,
    0.481662f, 0.415669f, 0.476537f, 0.453463f, 0.395535f, 0.462690f, 0.481663f, 0.415662f, 0.476541f, 0.453461f,
    0.395534f, 0.462688f, 0.481665f, 0.415665f, 0.476537f, 0.453462f, 0.395526f, 0.462681f, 0.481662f, 0.415670f,
    0.476530f, 0.453452f, 0.395517f, 0.462675f, 0.481656f, 0.415671f, 0.476537f, 0.453440f, 0.395499f, 0.462680f,
    0.481644f, 0.415665f, 0.476546f, 0.453421f, 0.395497f, 0.462689f, 0.481635f, 0.415672f, 0.476558f, 0.453412f,
    0.395487f, 0.462698f, 0.481646f, 0.415675f, 0.476553f, 0.453412f, 0.395482f, 0.462695f, 0.481658f, 0.415671f,
    0.476542f, 0.453415f, 0.395477f, 0.462681f, 0.481666f, 0.415658f, 0.476543f, 0.453419f, 0.395463f, 0.462679f,
    0.481662f, 0.415636f, 0.476545f, 0.453400f, 0.395451f, 0.462684f, 0.481660f, 0.415620f, 0.476554f, 0.453391f,
    0.395449f, 0.462672f, 0.481666f, 0.415599f, 0.476542f, 0.453392f, 0.395451f, 0.462637f, 0.481687f, 0.415579f,
    0.476509f, 0.453395f, 0.395454f, 0.462570f, 0.481699f, 0.415556f, 0.476492f, 0.453388f, 0.395455f, 0.462523f,
    0.481708f, 0.415533f, 0.476499f, 0.453381f, 0.395456f, 0.462517f, 0.481722f, 0.415519f, 0.476531f, 0.453378f,
    0.395460f, 0.462542f, 0.481739f, 0.415520f, 0.476558f, 0.453379f, 0.395479f, 0.462546f, 0.481768f, 0.415508f,
    0.476553f, 0.453404f, 0.395487f, 0.462535f, 0.481796f, 0.415494f, 0.476542f, 0.453421f, 0.395490f, 0.462507f,
    0.481817f, 0.415481f, 0.476550f, 0.453434f, 0.395486f, 0.462500f, 0.481837f, 0.415475f, 0.476568f, 0.453457f,
    0.395498f, 0.462485f, 0.481868f, 0.415505f, 0.476579f, 0.453517f, 0.395526f, 0.462445f, 0.481905f, 0.415525f,
    0.476565f, 0.453574f, 0.395556f, 0.462375f, 0.481942f, 0.415518f, 0.476566f, 0.453584f, 0.395591f, 0.462321f,
    0.189711f, 0.342156f, 0.261922f, 0.694122f, 0.707902f};

// --- Policy Network Weights & Biases ---
// Shape: 32
const float PARAMS_HIDDEN_0_BIAS[32] = {
    -0.000179f, -0.103486f, -0.151468f, 0.164809f, 0.050078f, 0.111337f, 0.019267f, 0.012129f, 0.018663f, 0.168559f,
    0.110225f, 0.069133f, 0.031478f, 0.178893f, 0.155400f, 0.079898f, -0.001566f, 0.031278f, 0.075535f, 0.233851f,
    -0.004414f, 0.025026f, 0.078614f, 0.129096f, -0.088131f, 0.177835f, 0.051253f, 0.118649f, 0.119522f, -0.005609f,
    -0.032947f, -0.028100f};

// Shape: 245x32
const float PARAMS_HIDDEN_0_KERNEL[7840] = {
    -0.075318f, -0.021709f, -0.024396f, 0.011369f, -0.013307f, 0.000526f, -0.064982f, 0.019223f, 0.008404f, 0.027830f,
    -0.000382f, -0.038799f, -0.041205f, -0.019104f, -0.011242f, -0.039038f, 0.125559f, 0.006562f, 0.022712f, 0.026818f,
    0.001069f, 0.014241f, 0.007782f, 0.011006f, 0.056047f, 0.008353f, 0.069698f, 0.004044f, -0.004040f, 0.058330f,
    -0.002586f, -0.008247f, 0.052120f, -0.053286f, 0.016226f, 0.038541f, -0.033399f, -0.014951f, -0.094907f, 0.046321f,
    -0.015311f, 0.040036f, -0.024588f, 0.043697f, -0.015928f, 0.009538f, -0.004541f, 0.001011f, 0.014028f, -0.037229f,
    0.041238f, -0.014002f, 0.002467f, -0.031703f, -0.028823f, -0.058259f, 0.024373f, -0.016782f, -0.017005f, 0.001192f,
    0.050438f, -0.023215f, -0.032690f, 0.042039f, -0.037944f, -0.028315f, -0.020818f, -0.019163f, 0.014677f, -0.034780f,
    -0.003891f, -0.090415f, 0.025802f, -0.059959f, 0.027863f, 0.008326f, 0.004210f, -0.049388f, -0.010293f, 0.026866f,
    0.032700f, 0.014501f, -0.030809f, -0.000019f, -0.003604f, 0.027725f, -0.010786f, -0.047044f, 0.023525f, 0.037403f,
    0.087546f, -0.010027f, -0.055587f, 0.016119f, -0.023293f, -0.020509f, -0.014307f, 0.031513f, 0.047475f, 0.033329f,
    -0.007032f, 0.004501f, 0.005470f, 0.004897f, 0.017447f, -0.028853f, 0.016977f, 0.044092f, 0.006081f, 0.022264f,
    -0.034851f, -0.021628f, 0.005241f, -0.026668f, 0.033505f, 0.024108f, 0.010348f, 0.035919f, 0.022738f, -0.034727f,
    -0.023487f, -0.023326f, -0.042635f, -0.028374f, -0.010140f, 0.001181f, -0.018507f, 0.051933f, 0.037692f, -0.038987f,
    0.025450f, -0.004393f, 0.003658f, -0.001594f, -0.065842f, 0.006210f, 0.026340f, 0.000559f, 0.005020f, -0.025369f,
    0.000597f, 0.011315f, 0.033930f, 0.032668f, -0.070124f, 0.023656f, -0.034346f, -0.010384f, 0.024868f, 0.018324f,
    -0.033731f, 0.004402f, -0.001820f, 0.003167f, -0.044332f, 0.057595f, 0.024033f, -0.022763f, -0.031816f, -0.035261f,
    0.048264f, -0.010661f, 0.009601f, -0.015885f, -0.038102f, -0.042468f, 0.012402f, 0.009243f, -0.013066f, 0.009129f,
    0.024557f, -0.018389f, -0.039533f, 0.006380f, 0.016058f, -0.023490f, -0.047084f, -0.017926f, 0.082113f, -0.016253f,
    0.053130f, -0.018130f, -0.048412f, -0.022063f, 0.014576f, 0.014131f, 0.063469f, 0.020273f, 0.048471f, 0.027631f,
    -0.068806f, 0.011935f, 0.036498f, -0.022794f, -0.030401f, -0.026665f, -0.019028f, 0.001673f, 0.036311f, -0.000342f,
    -0.055907f, -0.055210f, 0.010584f, -0.036784f, 0.006885f, -0.028314f, -0.013543f, 0.013650f, -0.076532f, -0.039690f,
    -0.005657f, 0.003561f, -0.015927f, -0.031316f, 0.003356f, -0.007257f, 0.026238f, -0.024005f, -0.060138f, 0.001903f,
    0.024400f, 0.022104f, 0.057370f, 0.000560f, 0.081197f, 0.046603f, -0.024455f, -0.006111f, 0.007200f, 0.015377f,
    0.023364f, -0.033184f, 0.026920f, -0.010775f, -0.021818f, -0.012245f, 0.006890f, 0.013001f, -0.014953f, -0.002177f,
    -0.031869f, -0.008908f, -0.001377f, -0.066562f, 0.007098f, -0.018522f, -0.000503f, 0.012706f, 0.026442f, -0.007589f,
    -0.031923f, -0.017854f, -0.001551f, 0.029168f, -0.089530f, -0.047714f, -0.026971f, -0.011242f, -0.006404f, 0.029822f,
    -0.033750f, -0.041920f, 0.027238f, -0.017293f, 0.001466f, -0.024953f, -0.043950f, -0.005302f, -0.013574f, -0.021597f,
    0.013031f, -0.005233f, -0.004637f, -0.023259f, -0.021411f, 0.010582f, -0.013238f, -0.017079f, -0.058322f, 0.057708f,
    0.015040f, 0.029104f, -0.020842f, -0.001471f, -0.025179f, 0.026583f, 0.031539f, 0.015546f, 0.003338f, 0.061383f,
    -0.014738f, 0.006819f, 0.017902f, -0.040004f, -0.021571f, -0.017628f, 0.006996f, 0.048235f, -0.000510f, -0.023182f,
    -0.037380f, -0.005575f, -0.008825f, -0.013468f, 0.027534f, 0.040201f, 0.028815f, 0.026964f, 0.006305f, -0.023519f,
    -0.007093f, -0.049568f, -0.032304f, 0.031603f, 0.044247f, -0.022122f, -0.050395f, -0.002299f, -0.034703f, -0.011643f,
    -0.025773f, 0.022637f, 0.020779f, -0.047197f, 0.018301f, -0.006712f, 0.016278f, -0.001976f, -0.015560f, -0.006002f,
    0.008010f, -0.034625f, 0.029702f, -0.024190f, 0.013807f, 0.012542f, 0.047110f, 0.014322f, 0.004623f, 0.033672f,
    0.018370f, -0.003903f, -0.032031f, 0.036830f, 0.018307f, 0.016712f, 0.076524f, 0.054603f, -0.045245f, 0.035960f,
    -0.037749f, 0.022720f, -0.024352f, 0.014894f, 0.002840f, -0.051571f, 0.017719f, 0.011733f, 0.051264f, 0.011716f,
    0.032667f, -0.007527f, -0.035355f, 0.002165f, 0.013267f, 0.010053f, 0.019850f, 0.011804f, -0.061402f, 0.038101f,
    -0.005980f, 0.036004f, 0.006913f, -0.032795f, -0.012957f, 0.002786f, 0.025078f, -0.033354f, 0.027355f, 0.003492f,
    0.011533f, -0.062863f, -0.057067f, -0.035496f, -0.048374f, -0.044089f, 0.051308f, -0.026135f, -0.011110f, -0.019485f,
    -0.008886f, -0.018134f, 0.053700f, -0.049800f, -0.039746f, 0.034805f, -0.056126f, 0.043193f, 0.057368f, 0.032059f,
    -0.016697f, -0.015945f, -0.059060f, 0.031606f, 0.001637f, -0.040251f, -0.011368f, 0.041236f, -0.004709f, 0.043189f,
    -0.016744f, -0.031755f, 0.026300f, -0.027771f, 0.043085f, -0.011688f, 0.042194f, -0.036837f, -0.012960f, 0.035537f,
    -0.027367f, 0.011451f, -0.003455f, 0.012056f, 0.001189f, 0.017234f, -0.036443f, 0.008127f, -0.018543f, 0.004850f,
    0.024686f, -0.030509f, 0.047274f, -0.040558f, -0.017559f, 0.006896f, -0.020366f, -0.059214f, 0.002804f, -0.027568f,
    0.023684f, -0.019977f, -0.026504f, 0.000641f, 0.012470f, -0.024237f, 0.094642f, 0.001526f, 0.056786f, -0.000180f,
    0.041170f, -0.060519f, -0.006793f, -0.023003f, 0.056845f, 0.078500f, 0.045958f, 0.038222f, -0.025970f, 0.017297f,
    -0.016300f, -0.057512f, 0.080110f, -0.016376f, -0.015090f, -0.080223f, -0.016724f, -0.063026f, 0.006877f, 0.003070f,
    0.013999f, -0.033540f, -0.052123f, 0.020833f, 0.016050f, -0.004800f, 0.069871f, 0.017151f, 0.024954f, 0.019803f,
    -0.065153f, 0.025677f, 0.042816f, 0.024410f, -0.013370f, 0.000523f, -0.031530f, -0.015315f, 0.025726f, 0.029309f,
    0.007290f, 0.027678f, -0.009417f, 0.030939f, 0.000517f, -0.010484f, -0.032713f, 0.010787f, -0.034242f, 0.026970f,
    0.000370f, -0.033453f, -0.016724f, 0.034978f, -0.039270f, 0.017271f, 0.015246f, 0.041104f, -0.056399f, 0.020979f,
    0.031461f, 0.032896f, 0.009220f, -0.003826f, 0.005634f, -0.018453f, 0.002668f, 0.008740f, -0.021950f, 0.017854f,
    -0.035199f, 0.026349f, -0.034707f, 0.013626f, -0.044603f, 0.039327f, -0.014529f, -0.022019f, -0.036090f, -0.032280f,
    -0.035359f, 0.019177f, -0.023210f, -0.027527f, 0.005959f, -0.031495f, -0.066433f, 0.009697f, 0.012429f, 0.002901f,
    -0.065597f, 0.008919f, -0.017187f, 0.037629f, 0.037277f, -0.014759f, 0.020231f, 0.032064f, 0.010799f, 0.029236f,
    -0.016621f, -0.050751f, -0.018412f, -0.075413f, -0.033171f, 0.018228f, 0.007216f, 0.000463f, -0.000247f, -0.016846f,
    -0.066117f, 0.018354f, 0.002379f, -0.042683f, -0.045043f, 0.011488f, 0.035246f, -0.044708f, 0.018633f, 0.035288f,
    0.024879f, 0.051524f, -0.001810f, 0.038429f, -0.010883f, -0.013487f, -0.002803f, 0.004826f, 0.058376f, -0.008598f,
    -0.009510f, 0.020311f, 0.076031f, 0.002862f, 0.034678f, 0.035458f, 0.004594f, -0.026801f, 0.010724f, -0.008584f,
    0.035997f, -0.001832f, -0.096458f, -0.023332f, -0.004192f, -0.018195f, 0.013230f, 0.033702f, 0.008132f, 0.043077f,
    0.030098f, 0.013902f, -0.053988f, 0.011532f, -0.054494f, 0.004404f, 0.000961f, 0.020987f, 0.014852f, 0.050116f,
    0.022643f, 0.026337f, 0.006234f, -0.041815f, -0.031984f, -0.054668f, 0.026112f, 0.007563f, 0.020482f, 0.036605f,
    0.050588f, -0.000157f, 0.004942f, 0.022185f, 0.017556f, -0.002275f, 0.020211f, 0.001365f, 0.010803f, 0.001642f,
    -0.007846f, -0.002005f, -0.025455f, -0.001861f, -0.015318f, 0.012498f, -0.024179f, 0.049174f, -0.011171f, 0.015419f,
    0.071766f, -0.019542f, 0.005186f, -0.055965f, 0.005757f, -0.010872f, -0.038140f, 0.007353f, 0.024041f, 0.041168f,
    0.040933f, -0.027049f, -0.001460f, 0.041139f, 0.021482f, 0.004693f, -0.037609f, -0.008453f, -0.067525f, 0.010838f,
    0.015340f, 0.045907f, 0.032158f, -0.066327f, 0.008401f, 0.031440f, -0.010344f, -0.036430f, 0.003147f, -0.038995f,
    -0.011404f, 0.002951f, 0.053298f, 0.002555f, -0.011071f, -0.025678f, 0.050790f, 0.000641f, -0.011760f, -0.024958f,
    0.033548f, -0.034784f, 0.030179f, 0.037985f, 0.062337f, -0.057051f, 0.012546f, 0.072272f, 0.000383f, -0.027842f,
    -0.000391f, -0.063926f, -0.024815f, 0.040987f, 0.006024f, 0.000853f, 0.038827f, 0.002462f, 0.116416f, 0.017592f,
    -0.007634f, -0.007401f, 0.044988f, 0.007173f, 0.045133f, 0.040941f, -0.040602f, -0.046878f, -0.013059f, 0.060049f,
    -0.008453f, -0.069561f, -0.055940f, 0.012902f, -0.009888f, 0.021480f, 0.018079f, -0.055286f, 0.020140f, -0.035284f,
    -0.005070f, -0.013047f, -0.015442f, -0.009756f, -0.034052f, 0.028703f, 0.010682f, 0.055756f, -0.004666f, -0.048601f,
    0.017591f, 0.011684f, -0.044792f, -0.043990f, 0.030750f, 0.009828f, 0.074227f, 0.003567f, 0.070229f, 0.034143f,
    -0.024193f, -0.019060f, -0.018019f, -0.054069f, 0.075781f, -0.029440f, -0.013938f, -0.057696f, -0.009538f, 0.026079f,
    -0.005057f, 0.028973f, 0.102874f, -0.023539f, -0.012061f, -0.022096f, -0.003572f, -0.069002f, -0.002343f, -0.074423f,
    -0.007623f, 0.053489f, -0.008977f, -0.027906f, -0.007786f, 0.026230f, -0.063035f, -0.035239f, 0.038293f, 0.024302f,
    -0.000889f, -0.024286f, 0.028222f, 0.097720f, 0.010113f, -0.007429f, 0.032262f, -0.014834f, 0.032716f, -0.009062f,
    -0.015810f, 0.006263f, 0.009804f, -0.014023f, 0.080481f, -0.027458f, 0.007019f, -0.007119f, 0.038249f, -0.035410f,
    0.003308f, -0.031767f, 0.025999f, 0.018699f, 0.016842f, 0.010301f, -0.039213f, -0.027731f, 0.029009f, -0.005075f,
    0.037424f, -0.042722f, -0.014939f, -0.010188f, 0.004737f, 0.024409f, 0.017950f, -0.022144f, 0.021398f, 0.030327f,
    0.018200f, -0.036547f, -0.020577f, -0.014592f, -0.004833f, -0.042159f, 0.018639f, -0.012393f, 0.017476f, -0.003350f,
    0.058691f, 0.033865f, 0.016174f, 0.016044f, -0.003874f, -0.010497f, -0.059558f, -0.001184f, -0.014786f, 0.024751f,
    -0.029250f, -0.017503f, 0.061764f, -0.028811f, -0.045710f, -0.016080f, -0.037145f, 0.009217f, -0.009869f, -0.014539f,
    0.014761f, 0.002234f, -0.076032f, 0.099399f, 0.018264f, -0.002309f, 0.021803f, 0.062425f, -0.041177f, 0.009314f,
    0.023671f, 0.050969f, -0.028595f, 0.022791f, 0.021509f, -0.067302f, 0.026783f, 0.021576f, -0.078266f, -0.033233f,
    0.043063f, -0.020769f, 0.045208f, 0.002844f, -0.006489f, -0.030937f, 0.022745f, 0.017955f, -0.028464f, -0.018159f,
    -0.035634f, -0.031715f, -0.008063f, 0.064893f, 0.035340f, -0.018186f, -0.007009f, -0.031468f, -0.059644f, -0.001025f,
    0.035520f, 0.002960f, 0.037226f, -0.031946f, -0.007959f, 0.041653f, 0.002805f, -0.066227f, 0.026605f, -0.022655f,
    -0.054108f, -0.028013f, -0.024403f, -0.042384f, 0.019355f, 0.003477f, -0.021890f, -0.049511f, 0.049205f, 0.009262f,
    0.002658f, 0.003597f, -0.009168f, 0.043038f, 0.012362f, -0.004845f, -0.049172f, -0.028332f, -0.055091f, 0.010843f,
    0.076176f, 0.005562f, 0.002007f, 0.006905f, 0.016754f, 0.020614f, -0.042960f, -0.041225f, 0.024248f, 0.007758f,
    0.024051f, 0.003384f, 0.021069f, -0.009143f, 0.033276f, -0.005331f, 0.063293f, 0.031008f, -0.040054f, 0.031445f,
    0.029077f, 0.008772f, 0.000288f, 0.028111f, -0.023873f, 0.015256f, 0.018484f, 0.032153f, -0.012236f, 0.011762f,
    0.004379f, 0.056464f, -0.032753f, 0.003412f, 0.029649f, 0.061745f, -0.027275f, 0.062078f, 0.009996f, -0.012128f,
    0.033054f, -0.060383f, -0.006840f, -0.008791f, 0.002829f, -0.005788f, -0.041662f, 0.011971f, -0.038904f, 0.013747f,
    -0.013499f, 0.002903f, 0.090303f, 0.041751f, 0.011466f, -0.016256f, -0.032560f, -0.010821f, -0.014832f, 0.028855f,
    -0.024933f, 0.044679f, 0.008940f, 0.042819f, -0.005204f, -0.029912f, -0.081663f, 0.000241f, -0.019697f, 0.023938f,
    -0.027779f, -0.002698f, 0.022282f, 0.054737f, -0.063515f, -0.036851f, -0.066304f, 0.057421f, -0.013850f, 0.012832f,
    0.022480f, 0.021860f, -0.109799f, -0.003444f, 0.086615f, -0.004985f, -0.029106f, -0.012795f, -0.008474f, 0.022115f,
    0.006414f, 0.008765f, 0.037178f, -0.076283f, -0.012800f, -0.041627f, -0.009210f, 0.016355f, 0.049410f, 0.053537f,
    -0.013219f, -0.010204f, 0.084066f, 0.026227f, 0.049996f, 0.016407f, 0.035596f, -0.024189f, 0.025727f, -0.028378f,
    -0.012929f, 0.034779f, 0.032616f, -0.055091f, -0.011596f, -0.042143f, -0.042288f, -0.032177f, -0.039835f, 0.031860f,
    0.032385f, 0.037675f, 0.015203f, -0.015524f, 0.034457f, 0.009394f, -0.004200f, -0.011588f, 0.024223f, -0.023463f,
    0.047096f, 0.001981f, -0.057334f, -0.049215f, 0.007278f, 0.062763f, 0.032329f, 0.041678f, -0.046334f, -0.054810f,
    -0.010770f, 0.051644f, 0.022536f, -0.017299f, 0.024685f, -0.021721f, 0.054215f, 0.062748f, -0.026322f, -0.042287f,
    0.022672f, 0.007121f, 0.014570f, -0.013065f, 0.015597f, -0.004924f, 0.056622f, 0.025187f, -0.013410f, -0.016899f,
    -0.044876f, 0.038677f, 0.052840f, -0.014309f, -0.018034f, -0.022796f, 0.042048f, 0.005140f, 0.030743f, -0.025975f,
    -0.023330f, 0.023208f, -0.028624f, -0.017538f, 0.018613f, -0.025008f, -0.012586f, 0.007386f, 0.024810f, 0.011696f,
    -0.012503f, -0.016320f, -0.002103f, -0.005744f, -0.002120f, -0.000828f, 0.010033f, -0.033510f, -0.036283f, 0.030581f,
    -0.012131f, -0.031198f, 0.020501f, 0.001504f, 0.022193f, -0.021612f, -0.011639f, -0.002460f, -0.059034f, -0.032095f,
    -0.003535f, -0.003035f, -0.007469f, -0.003317f, -0.002319f, 0.023425f, 0.027255f, 0.016872f, 0.037988f, -0.055104f,
    -0.026849f, -0.010886f, 0.007438f, 0.002904f, 0.036213f, -0.023225f, -0.046820f, -0.012109f, 0.010460f, 0.007563f,
    0.013550f, 0.017824f, 0.029059f, -0.019982f, -0.020902f, -0.029486f, 0.003714f, 0.015569f, -0.055533f, 0.002630f,
    0.022127f, 0.038016f, -0.028732f, 0.010159f, -0.007204f, 0.035557f, 0.077241f, -0.010653f, -0.021691f, 0.039456f,
    0.027991f, 0.041178f, -0.050509f, -0.001748f, 0.019703f, 0.035261f, 0.002131f, 0.046422f, 0.087269f, -0.090815f,
    -0.037831f, -0.015063f, -0.034781f, -0.063773f, -0.011598f, -0.001879f, 0.027627f, -0.035067f, -0.021035f, -0.036546f,
    0.002543f, -0.029525f, -0.045633f, -0.004438f, 0.022746f, 0.034124f, -0.016074f, 0.019713f, -0.029587f, -0.059517f,
    -0.064337f, 0.012398f, 0.008826f, -0.029654f, -0.001764f, -0.005757f, -0.060066f, 0.001412f, 0.016892f, -0.000325f,
    0.033291f, -0.011123f, 0.007988f, -0.028974f, 0.002499f, 0.013374f, 0.033673f, 0.037116f, -0.004849f, -0.019492f,
    -0.071574f, -0.027069f, -0.014281f, 0.018505f, -0.034917f, -0.041862f, -0.009575f, 0.049421f, -0.032909f, 0.005291f,
    -0.005429f, -0.033531f, -0.003062f, 0.001809f, -0.006244f, -0.024572f, -0.011586f, 0.011013f, -0.022938f, 0.031943f,
    0.017166f, 0.001374f, -0.000976f, -0.032791f, 0.017011f, -0.007333f, 0.022661f, -0.010923f, 0.018391f, -0.037172f,
    0.034066f, -0.024986f, 0.017624f, 0.020827f, -0.008928f, -0.043945f, 0.026353f, 0.009154f, 0.000834f, -0.054024f,
    0.010165f, -0.053729f, 0.044469f, -0.056797f, 0.000307f, -0.008158f, -0.022932f, -0.037348f, -0.002653f, 0.066762f,
    0.043037f, 0.050663f, -0.023052f, 0.019281f, -0.013099f, -0.071174f, -0.066572f, 0.019938f, 0.022449f, 0.032181f,
    -0.022089f, -0.019675f, -0.023447f, 0.002803f, -0.030363f, 0.023959f, 0.001741f, 0.037340f, -0.012023f, 0.000893f,
    0.008547f, -0.017727f, -0.055683f, -0.059868f, -0.019238f, -0.001493f, -0.030530f, 0.029928f, 0.030138f, -0.025031f,
    0.077696f, 0.033558f, -0.043096f, -0.026457f, 0.029884f, -0.014530f, 0.023342f, -0.015558f, 0.043434f, -0.026215f,
    0.034808f, 0.097451f, -0.065023f, 0.035406f, 0.019592f, -0.059371f, -0.050273f, 0.041983f, -0.002062f, 0.011396f,
    0.052356f, 0.017539f, 0.011529f, -0.043967f, -0.024022f, 0.000976f, -0.042355f, -0.005376f, 0.051324f, -0.023002f,
    -0.074575f, -0.048070f, -0.006852f, 0.010173f, 0.032418f, -0.038073f, 0.009127f, -0.040844f, 0.042218f, -0.013831f,
    -0.030925f, 0.009732f, -0.022488f, 0.039401f, -0.069090f, 0.005431f, 0.069932f, 0.006687f, -0.029946f, 0.039530f,
    0.000077f, 0.000575f, -0.050793f, 0.050070f, -0.006600f, -0.046181f, -0.001534f, 0.014163f, -0.000477f, -0.017069f,
    -0.020362f, -0.015783f, 0.084242f, -0.037233f, 0.039284f, -0.048929f, 0.048517f, -0.006055f, -0.028950f, -0.021029f,
    -0.020549f, 0.034930f, -0.006484f, -0.048898f, -0.031047f, 0.030929f, -0.027975f, -0.011997f, 0.030151f, 0.031722f,
    -0.047175f, 0.015375f, -0.006664f, -0.022363f, -0.011717f, 0.022115f, -0.024480f, -0.016507f, -0.022453f, 0.034784f,
    0.041339f, 0.026862f, 0.050603f, 0.024352f, 0.040836f, -0.009518f, -0.032025f, -0.055750f, 0.013985f, -0.014039f,
    0.032116f, 0.003662f, -0.005238f, -0.008963f, -0.031250f, -0.002947f, -0.015047f, 0.007649f, 0.005413f, 0.002016f,
    -0.003444f, 0.015677f, 0.001732f, 0.001600f, -0.011423f, 0.006074f, -0.050218f, 0.008360f, 0.040516f, 0.003754f,
    0.051773f, 0.035952f, -0.024746f, 0.019667f, -0.032651f, 0.043281f, 0.092873f, 0.016716f, -0.022045f, -0.036282f,
    0.033675f, 0.033901f, 0.003032f, -0.045194f, 0.024359f, -0.001861f, -0.000798f, 0.074461f, 0.026080f, -0.067537f,
    0.036119f, -0.029401f, -0.023666f, 0.038865f, 0.064803f, -0.014979f, 0.025986f, -0.008556f, 0.014915f, -0.014343f,
    0.054151f, -0.011288f, 0.037489f, 0.021372f, 0.034593f, 0.005277f, -0.069629f, 0.047453f, -0.054233f, -0.012727f,
    0.032744f, -0.028228f, 0.026312f, 0.040540f, -0.010726f, -0.006564f, 0.038863f, -0.042419f, -0.033379f, -0.032743f,
    0.060610f, 0.015432f, -0.015878f, -0.046393f, 0.020144f, -0.027413f, -0.083767f, -0.020773f, -0.027239f, -0.003901f,
    0.006517f, 0.043401f, 0.019311f, 0.014946f, -0.032968f, -0.004900f, -0.042967f, -0.072907f, -0.031976f, 0.040408f,
    0.009006f, -0.020059f, -0.007887f, -0.003907f, -0.051875f, 0.036190f, -0.028641f, -0.009292f, -0.025530f, 0.083757f,
    -0.007411f, 0.054826f, -0.018184f, -0.002405f, 0.019465f, -0.027195f, 0.001787f, 0.046921f, -0.041331f, 0.020793f,
    0.026831f, -0.007377f, 0.046303f, 0.020714f, -0.051389f, -0.010553f, -0.003918f, 0.029253f, 0.001414f, -0.005707f,
    -0.007118f, 0.029847f, 0.009717f, -0.017334f, 0.024297f, 0.031661f, -0.076418f, -0.010530f, 0.016932f, 0.042343f,
    0.001153f, -0.060519f, -0.043998f, -0.022451f, 0.007452f, 0.091904f, -0.018535f, 0.008914f, 0.044975f, -0.001558f,
    -0.010637f, -0.013370f, 0.026971f, -0.036575f, -0.057469f, -0.052169f, -0.039026f, 0.017988f, 0.004591f, -0.013845f,
    -0.037999f, 0.027960f, -0.024206f, 0.019544f, -0.003645f, -0.010804f, 0.009757f, 0.013305f, 0.001326f, -0.000113f,
    -0.000660f, -0.013930f, -0.010852f, 0.035387f, -0.025269f, 0.005007f, -0.021886f, -0.017407f, 0.047317f, -0.032954f,
    -0.006043f, -0.003647f, 0.001354f, 0.018129f, 0.022874f, -0.028793f, -0.010284f, 0.099513f, -0.007900f, -0.003213f,
    0.005652f, 0.008829f, -0.060778f, 0.033107f, 0.085398f, -0.038164f, -0.014763f, -0.009610f, -0.038867f, -0.066500f,
    -0.034171f, -0.013479f, 0.025396f, -0.042872f, 0.058227f, 0.010358f, -0.029983f, 0.025704f, 0.011782f, -0.015457f,
    -0.013516f, -0.079369f, -0.002893f, -0.032564f, 0.034155f, 0.000320f, -0.056028f, 0.014916f, 0.028382f, -0.021146f,
    -0.004780f, 0.029100f, -0.015405f, 0.029918f, 0.007230f, -0.004899f, 0.021812f, 0.042061f, 0.065529f, 0.011435f,
    -0.040946f, 0.015315f, 0.043301f, -0.008471f, 0.045231f, 0.033806f, 0.052273f, -0.031729f, 0.015508f, -0.005732f,
    0.052800f, 0.064681f, -0.014511f, 0.028368f, -0.003469f, 0.046928f, 0.023709f, -0.051366f, 0.001325f, -0.025431f,
    -0.017532f, 0.053991f, -0.007743f, 0.009396f, 0.009519f, -0.004917f, -0.009972f, 0.000355f, 0.007782f, -0.028544f,
    -0.004354f, -0.052419f, 0.043479f, 0.068784f, -0.007829f, 0.042932f, 0.045761f, 0.023311f, -0.024768f, -0.045816f,
    -0.035871f, -0.012350f, 0.007239f, 0.025795f, -0.003824f, 0.006719f, -0.013547f, 0.040123f, 0.016107f, 0.011057f,
    -0.004152f, 0.031652f, -0.005425f, -0.019598f, -0.031331f, 0.008518f, -0.005210f, -0.020318f, -0.064123f, -0.009197f,
    -0.003022f, -0.058950f, -0.001421f, 0.029199f, 0.037867f, 0.027117f, -0.037848f, 0.027157f, 0.015394f, 0.031733f,
    0.006136f, 0.029046f, -0.011731f, -0.052825f, 0.029503f, -0.041928f, -0.037949f, -0.051202f, -0.034675f, -0.025615f,
    -0.035546f, 0.009042f, -0.002669f, -0.018088f, 0.004959f, -0.036096f, 0.008232f, -0.044911f, -0.014099f, -0.034683f,
    0.027303f, -0.027951f, 0.013832f, -0.047983f, -0.044827f, -0.007531f, 0.005512f, -0.033577f, 0.039002f, 0.035472f,
    0.000164f, -0.038716f, 0.033877f, 0.043313f, 0.020694f, -0.013769f, -0.005827f, 0.028743f, -0.035671f, -0.017949f,
    -0.010066f, 0.001349f, -0.030139f, 0.007041f, -0.014118f, -0.033901f, 0.053524f, 0.049086f, 0.029725f, -0.016570f,
    0.041720f, 0.018935f, 0.000611f, -0.031934f, 0.066819f, -0.031784f, -0.019260f, -0.016755f, 0.012616f, 0.020612f,
    -0.012838f, -0.033818f, -0.008754f, -0.014273f, -0.067374f, -0.014877f, 0.010696f, 0.011595f, 0.018804f, -0.031929f,
    -0.023993f, 0.016653f, 0.012526f, -0.017389f, -0.024454f, -0.066326f, 0.002698f, -0.038269f, 0.022603f, 0.011354f,
    0.011017f, -0.005791f, 0.001676f, 0.018771f, -0.025342f, 0.005634f, -0.029941f, 0.001847f, 0.043959f, -0.012200f,
    -0.035555f, -0.020419f, -0.028882f, 0.001433f, -0.017652f, -0.026839f, -0.032598f, 0.013678f, -0.000028f, -0.013383f,
    -0.022201f, -0.056577f, 0.021801f, 0.015763f, -0.009297f, 0.050887f, -0.082134f, -0.002164f, 0.035436f, -0.002281f,
    -0.053257f, -0.015116f, -0.038792f, 0.014602f, 0.050677f, -0.006155f, -0.044851f, 0.020516f, 0.011138f, -0.048074f,
    0.021017f, 0.033063f, -0.011745f, -0.028185f, 0.002955f, 0.036132f, -0.041020f, -0.024359f, -0.004270f, -0.016248f,
    -0.064878f, -0.004458f, -0.027263f, -0.045785f, -0.041152f, -0.020592f, 0.018620f, 0.030243f, -0.017572f, 0.023939f,
    0.037463f, -0.035872f, 0.056405f, 0.046403f, -0.009948f, 0.042440f, -0.029939f, 0.038240f, -0.056076f, 0.005266f,
    0.020726f, -0.002925f, 0.029384f, 0.013429f, 0.023903f, 0.011639f, -0.021058f, 0.081233f, 0.007065f, -0.082268f,
    0.022901f, -0.043304f, -0.010574f, -0.027503f, -0.008712f, 0.041357f, 0.019031f, 0.025273f, -0.069351f, 0.066428f,
    -0.026991f, 0.014082f, -0.010633f, -0.000092f, -0.006147f, 0.004872f, -0.011643f, -0.014725f, 0.022715f, 0.013547f,
    -0.041559f, -0.022995f, 0.024710f, -0.031305f, -0.009263f, 0.018193f, 0.022381f, -0.033728f, -0.052602f, 0.005705f,
    -0.055441f, -0.008733f, -0.042135f, 0.028067f, -0.076054f, 0.024365f, -0.014634f, -0.029717f, -0.027424f, 0.011491f,
    -0.031612f, -0.011970f, -0.014642f, -0.010743f, 0.059365f, -0.057531f, -0.023840f, 0.023595f, -0.054445f, -0.033038f,
    -0.022440f, 0.033649f, 0.009965f, -0.017264f, 0.035815f, -0.000041f, 0.067160f, -0.028220f, 0.021116f, 0.004473f,
    -0.036934f, -0.030089f, 0.070606f, 0.006718f, 0.011451f, -0.059752f, -0.005953f, 0.025567f, -0.014059f, 0.052282f,
    0.044368f, 0.000612f, -0.003935f, -0.011607f, 0.036786f, 0.042287f, -0.059157f, 0.013380f, -0.048425f, 0.033532f,
    0.034316f, 0.017136f, 0.015361f, -0.031409f, 0.041009f, 0.017631f, -0.020579f, 0.036946f, 0.017571f, 0.016141f,
    -0.031398f, -0.000709f, 0.009434f, -0.043524f, -0.001615f, -0.029422f, 0.032090f, -0.050437f, -0.030603f, -0.024880f,
    -0.049883f, -0.037738f, 0.037280f, 0.024150f, 0.021509f, 0.028626f, 0.028864f, 0.035016f, 0.004055f, 0.006303f,
    -0.034361f, 0.037892f, 0.051716f, -0.008315f, -0.026984f, 0.028865f, 0.016267f, -0.020346f, 0.024845f, -0.036037f,
    -0.028542f, 0.002775f, 0.025833f, -0.029100f, 0.088349f, 0.014554f, -0.061625f, -0.000068f, -0.033583f, 0.048337f,
    0.020135f, -0.048758f, 0.012403f, -0.054789f, -0.018076f, -0.057585f, -0.018658f, 0.031404f, 0.068541f, 0.009880f,
    0.028360f, -0.005176f, 0.032805f, 0.021625f, -0.007031f, -0.060094f, 0.002938f, -0.003318f, -0.060402f, 0.009440f,
    -0.001185f, 0.033386f, 0.076521f, -0.025481f, 0.057825f, -0.035234f, -0.003997f, -0.038196f, -0.022311f, -0.002494f,
    -0.016305f, 0.007365f, 0.005487f, 0.003161f, -0.030848f, 0.041880f, 0.008235f, -0.073182f, 0.034552f, 0.005471f,
    0.056957f, 0.026781f, 0.018018f, 0.043743f, -0.040924f, 0.066847f, 0.017233f, -0.074214f, 0.038664f, -0.008631f,
    0.065691f, 0.000854f, 0.059694f, 0.050088f, -0.056423f, -0.053558f, -0.014490f, 0.000624f, -0.051936f, 0.044099f,
    -0.085750f, -0.007569f, 0.038855f, 0.024529f, -0.036473f, 0.014665f, 0.067453f, 0.003506f, 0.066014f, -0.022187f,
    -0.028700f, -0.011164f, -0.082841f, -0.007088f, 0.017145f, -0.005358f, 0.074403f, 0.000195f, -0.011806f, -0.082705f,
    0.035338f, 0.013905f, 0.056581f, -0.038702f, 0.026266f, -0.001847f, 0.104238f, 0.046170f, -0.001470f, -0.008957f,
    0.040546f, 0.044781f, 0.005744f, 0.030391f, -0.015261f, 0.009690f, 0.019220f, 0.045309f, 0.017839f, -0.000146f,
    0.017416f, -0.012662f, 0.008247f, -0.029898f, 0.024175f, -0.004106f, 0.003144f, -0.001300f, 0.028890f, -0.014956f,
    -0.004109f, 0.028004f, 0.002438f, -0.002143f, -0.054022f, 0.009251f, 0.011048f, -0.009101f, 0.006368f, -0.009983f,
    -0.039991f, -0.039058f, 0.011704f, 0.037094f, -0.021733f, 0.002654f, 0.054906f, 0.016696f, -0.055347f, 0.002682f,
    -0.013219f, -0.026156f, -0.046090f, -0.027612f, -0.017425f, 0.001607f, -0.003003f, -0.003808f, 0.087224f, -0.035953f,
    0.063465f, 0.037338f, 0.003346f, 0.084007f, 0.009440f, -0.034319f, -0.030617f, -0.020633f, -0.020138f, -0.045289f,
    -0.027212f, 0.009059f, -0.004329f, 0.055464f, 0.074780f, 0.030557f, 0.090786f, 0.016300f, 0.052872f, -0.030487f,
    0.052475f, -0.005111f, 0.002837f, 0.016405f, 0.011341f, 0.008199f, -0.005245f, 0.008725f, 0.014623f, -0.019693f,
    0.025723f, 0.060254f, -0.011447f, 0.006091f, 0.008998f, -0.021382f, -0.016510f, -0.006685f, 0.060330f, -0.005783f,
    -0.018622f, 0.006332f, -0.048056f, 0.031132f, -0.046562f, -0.018489f, 0.013144f, -0.040727f, 0.014715f, 0.011088f,
    -0.061504f, -0.017361f, -0.010527f, 0.059872f, 0.030249f, -0.017012f, -0.008098f, -0.018743f, -0.023746f, 0.040388f,
    0.018428f, 0.037660f, -0.055122f, -0.005815f, -0.027886f, -0.007233f, 0.009880f, 0.008038f, 0.030476f, -0.017605f,
    -0.008286f, 0.022293f, -0.063021f, 0.028141f, 0.052358f, -0.011430f, -0.039356f, 0.024836f, 0.007426f, 0.018005f,
    0.035997f, -0.036107f, 0.066792f, 0.067061f, -0.011843f, 0.015186f, 0.054785f, -0.004778f, 0.055840f, 0.045971f,
    -0.030360f, 0.010139f, -0.049185f, -0.002204f, -0.034669f, 0.004326f, -0.015964f, 0.057450f, -0.019863f, -0.023028f,
    -0.042746f, 0.005323f, 0.014800f, 0.012225f, -0.061685f, -0.073970f, -0.033258f, 0.002415f, -0.036103f, -0.038713f,
    -0.002117f, 0.041994f, -0.011774f, -0.023826f, -0.042540f, -0.009284f, -0.017751f, -0.051294f, 0.057134f, 0.011283f,
    0.024823f, -0.011026f, -0.011133f, 0.019497f, -0.013665f, 0.018221f, 0.004852f, -0.029325f, -0.004941f, 0.029448f,
    0.027427f, -0.005136f, -0.016270f, -0.007862f, 0.029958f, 0.015990f, 0.009842f, -0.012199f, -0.013280f, -0.032508f,
    0.026344f, 0.021189f, 0.009056f, -0.058711f, -0.035146f, -0.022810f, -0.005390f, -0.015755f, -0.018987f, -0.071669f,
    -0.007667f, 0.025173f, -0.043434f, -0.061321f, 0.004948f, -0.034718f, 0.116165f, -0.001240f, 0.022515f, 0.043783f,
    -0.005147f, 0.019135f, -0.017970f, 0.019985f, -0.050078f, -0.024165f, 0.043479f, 0.020705f, 0.017821f, 0.007182f,
    0.030881f, 0.000294f, 0.016167f, -0.005146f, 0.034043f, 0.050375f, -0.015791f, -0.045570f, 0.047656f, -0.033755f,
    -0.034972f, -0.034017f, -0.001152f, 0.013716f, -0.019868f, 0.042370f, -0.030666f, 0.031587f, -0.016562f, -0.008782f,
    0.017726f, 0.052595f, 0.030449f, -0.044061f, -0.039492f, -0.046893f, -0.069372f, 0.026225f, -0.003691f, -0.009746f,
    0.011358f, -0.031573f, 0.022252f, 0.022362f, 0.011186f, -0.030267f, 0.000923f, 0.021495f, -0.000349f, -0.043341f,
    0.061708f, -0.035207f, 0.003399f, -0.003625f, 0.009689f, -0.037764f, -0.016830f, -0.007858f, -0.003093f, 0.048657f,
    -0.047851f, -0.025051f, 0.014663f, -0.003513f, -0.008386f, -0.080667f, -0.039258f, 0.031649f, -0.035960f, 0.025361f,
    -0.070108f, -0.036908f, 0.016975f, 0.016909f, -0.027361f, 0.005549f, 0.012249f, 0.013299f, -0.014371f, -0.001052f,
    -0.024570f, -0.025202f, -0.037725f, -0.029742f, 0.009079f, 0.016554f, -0.006142f, -0.028492f, 0.000156f, 0.002597f,
    0.016842f, -0.023387f, 0.020991f, -0.014940f, 0.013616f, -0.004539f, 0.020013f, 0.012297f, 0.012162f, -0.014779f,
    0.009895f, -0.004423f, 0.018068f, -0.005719f, 0.074985f, -0.033765f, 0.022470f, 0.029501f, 0.063921f, -0.063638f,
    -0.033933f, 0.019886f, 0.040728f, -0.008543f, -0.004615f, -0.042855f, 0.016247f, -0.071470f, -0.045350f, 0.042974f,
    0.026010f, 0.042574f, 0.019761f, -0.000012f, -0.016953f, 0.000215f, 0.014520f, -0.004739f, 0.014906f, 0.018633f,
    0.051485f, 0.005767f, 0.004031f, -0.010396f, 0.015116f, 0.012790f, 0.038909f, 0.021681f, -0.023659f, 0.014684f,
    -0.004207f, 0.039548f, 0.028142f, 0.030416f, -0.028580f, -0.013699f, 0.044044f, -0.028026f, 0.003276f, 0.014231f,
    -0.043722f, 0.022701f, 0.005639f, 0.000203f, -0.007771f, 0.010937f, 0.026423f, 0.005718f, -0.014671f, -0.001355f,
    -0.057380f, 0.002270f, -0.001197f, -0.056859f, -0.065998f, -0.004697f, -0.043401f, -0.035611f, 0.010369f, -0.017421f,
    -0.027122f, -0.004884f, -0.007009f, 0.002092f, -0.014502f, 0.059291f, -0.001528f, -0.026338f, -0.043263f, 0.010838f,
    0.033424f, 0.011394f, -0.020310f, -0.031562f, -0.028586f, -0.029801f, -0.018132f, -0.057189f, 0.021305f, 0.001820f,
    -0.011184f, -0.018850f, 0.014658f, -0.075544f, 0.033879f, -0.043631f, -0.016544f, -0.001228f, -0.013719f, 0.011740f,
    0.007325f, 0.011415f, -0.061805f, -0.057794f, 0.015035f, 0.007453f, 0.036763f, -0.014221f, 0.025465f, 0.013354f,
    0.025408f, 0.002023f, 0.008121f, 0.039266f, 0.015466f, 0.056804f, -0.059209f, 0.000714f, 0.016241f, -0.034468f,
    0.063281f, 0.024780f, 0.033056f, 0.003567f, 0.026082f, 0.001765f, 0.006516f, 0.017268f, 0.025180f, -0.042300f,
    0.033213f, 0.025780f, -0.033466f, -0.005250f, -0.039974f, -0.025857f, -0.000046f, 0.013964f, 0.003642f, -0.043994f,
    -0.055169f, -0.022898f, 0.030752f, 0.018241f, 0.027603f, 0.033723f, -0.013562f, -0.007718f, -0.036161f, -0.001931f,
    -0.035554f, -0.022393f, -0.003140f, 0.005105f, -0.035499f, 0.016260f, 0.002960f, 0.027024f, 0.017453f, 0.023506f,
    0.016113f, 0.014897f, -0.000851f, -0.010475f, -0.007699f, 0.016485f, -0.060552f, 0.029935f, -0.017737f, 0.046381f,
    0.036134f, -0.027132f, 0.025129f, -0.023691f, -0.043883f, 0.022624f, 0.006942f, -0.007403f, 0.001101f, -0.056482f,
    0.007161f, -0.017265f, -0.056769f, -0.049312f, 0.042534f, 0.010249f, -0.004019f, -0.009285f, -0.017448f, -0.034346f,
    -0.006018f, -0.033252f, -0.066980f, -0.038078f, -0.004704f, -0.016057f, -0.064979f, -0.003398f, 0.046498f, -0.009178f,
    0.033337f, -0.014635f, 0.058819f, -0.002882f, 0.055780f, -0.035648f, 0.020177f, -0.044615f, 0.038515f, -0.057803f,
    0.022666f, -0.030851f, -0.047995f, -0.032060f, 0.014297f, -0.017700f, 0.082905f, 0.028737f, -0.010454f, -0.031028f,
    0.035178f, 0.020648f, -0.058847f, -0.075516f, 0.031745f, 0.024570f, -0.048207f, -0.055975f, -0.012507f, 0.019761f,
    -0.037888f, -0.003921f, 0.009932f, -0.020018f, -0.011854f, -0.019973f, 0.006308f, 0.036605f, 0.007416f, 0.014447f,
    0.009417f, -0.003739f, 0.061980f, -0.012503f, 0.028734f, -0.012320f, -0.021958f, 0.019450f, -0.063497f, -0.004540f,
    -0.054216f, -0.026001f, 0.015515f, -0.056994f, -0.004758f, -0.024529f, -0.042109f, 0.001577f, -0.019361f, 0.003784f,
    0.024019f, -0.004973f, -0.005518f, -0.000851f, -0.006012f, 0.012619f, 0.025221f, 0.009679f, -0.002683f, 0.027955f,
    -0.019839f, 0.016802f, 0.012314f, -0.024657f, -0.020355f, -0.001257f, -0.015649f, 0.017702f, 0.054608f, -0.041769f,
    -0.015253f, -0.019167f, 0.010693f, 0.048065f, -0.042021f, 0.006099f, 0.020217f, 0.005243f, -0.014717f, -0.015671f,
    0.052649f, 0.034572f, -0.030408f, 0.010431f, 0.023096f, 0.007769f, 0.050680f, 0.004450f, 0.039406f, 0.003216f,
    0.029262f, -0.050043f, 0.067490f, 0.007907f, 0.008761f, 0.013732f, -0.043188f, 0.067396f, -0.008967f, 0.065155f,
    0.013110f, 0.014795f, 0.013073f, 0.015536f, 0.026840f, -0.032045f, 0.005900f, 0.009441f, -0.001607f, -0.069859f,
    -0.041715f, 0.050130f, -0.041143f, 0.019685f, 0.009955f, 0.036427f, -0.040522f, 0.004119f, 0.022539f, 0.029603f,
    -0.021272f, -0.044196f, 0.040502f, 0.002641f, -0.000057f, 0.004834f, -0.028121f, -0.037659f, -0.080395f, -0.019575f,
    0.012198f, 0.029567f, 0.072714f, 0.023679f, -0.009973f, -0.006753f, 0.001730f, 0.000750f, -0.037131f, -0.005584f,
    -0.012550f, 0.016587f, 0.031891f, 0.033104f, -0.069780f, -0.006329f, 0.011266f, -0.032422f, -0.017524f, 0.026078f,
    0.039148f, 0.030447f, -0.036091f, -0.037348f, -0.021067f, -0.002955f, 0.001076f, -0.055359f, -0.044708f, 0.008632f,
    0.041347f, 0.014861f, 0.004858f, 0.033887f, -0.007670f, 0.005688f, -0.047247f, -0.023906f, 0.028349f, -0.010436f,
    0.034887f, -0.010346f, 0.027094f, 0.004446f, 0.014545f, 0.005674f, -0.003040f, 0.019735f, 0.006448f, -0.031366f,
    0.022092f, 0.013068f, 0.003165f, 0.016484f, -0.028186f, 0.014876f, 0.038488f, 0.029104f, 0.011332f, -0.034438f,
    0.024122f, 0.014885f, 0.006030f, -0.001400f, -0.009373f, 0.043356f, -0.018269f, 0.009124f, 0.057297f, -0.031598f,
    0.006253f, 0.074635f, -0.020898f, -0.021206f, -0.020264f, 0.019345f, 0.002558f, -0.019330f, 0.053449f, -0.039792f,
    -0.052218f, 0.009174f, -0.063101f, 0.017407f, -0.033833f, -0.005616f, 0.045667f, 0.029863f, -0.010213f, 0.018875f,
    -0.002560f, -0.014967f, -0.030744f, -0.009268f, -0.000077f, 0.020997f, -0.038033f, 0.052028f, -0.021572f, 0.017237f,
    0.005031f, -0.010633f, -0.025082f, 0.029255f, -0.024957f, 0.019433f, 0.019364f, 0.089421f, -0.088528f, -0.010371f,
    0.048276f, 0.005178f, -0.052873f, -0.034239f, -0.003787f, 0.080552f, -0.022938f, -0.034987f, -0.033001f, -0.005063f,
    0.069022f, -0.010696f, -0.081813f, -0.011484f, 0.037313f, 0.036990f, 0.035081f, 0.016936f, 0.014765f, 0.029030f,
    0.003658f, -0.043356f, 0.022903f, 0.001474f, -0.035450f, -0.045390f, -0.018812f, -0.012255f, 0.015223f, 0.012448f,
    0.021277f, -0.010950f, 0.015057f, -0.009032f, -0.025933f, -0.041873f, 0.007840f, -0.053924f, -0.019436f, -0.078061f,
    -0.012257f, 0.012431f, 0.042862f, 0.031762f, 0.049541f, 0.004914f, -0.039934f, 0.043318f, 0.028028f, -0.009384f,
    -0.009230f, -0.041722f, -0.031890f, 0.084207f, -0.006501f, 0.022873f, 0.015409f, -0.052033f, -0.019433f, 0.056745f,
    -0.009480f, 0.004009f, 0.007848f, 0.002017f, 0.025203f, 0.001997f, -0.026133f, -0.038953f, 0.030097f, 0.000167f,
    -0.054207f, -0.017851f, 0.019696f, 0.039836f, 0.026635f, -0.033127f, 0.092874f, -0.032043f, -0.021895f, -0.031522f,
    0.016796f, -0.007211f, -0.013931f, -0.040652f, -0.007941f, 0.021714f, -0.017264f, -0.006855f, 0.011984f, 0.014592f,
    -0.002511f, -0.041044f, 0.014883f, -0.003742f, 0.040552f, 0.032693f, 0.005641f, -0.052412f, -0.013920f, -0.002318f,
    0.000702f, -0.001806f, -0.062129f, 0.020588f, 0.035266f, 0.014309f, -0.008917f, -0.004346f, -0.017343f, 0.037408f,
    -0.015267f, 0.015609f, 0.027390f, 0.021654f, -0.031290f, -0.022835f, -0.056099f, 0.069215f, 0.021171f, 0.022660f,
    -0.004032f, -0.005967f, -0.017382f, 0.045545f, 0.004836f, -0.004364f, -0.030279f, -0.001954f, 0.023553f, -0.028335f,
    0.016839f, -0.014730f, 0.057918f, 0.007644f, -0.000603f, -0.010130f, -0.047861f, 0.028050f, 0.042233f, -0.025945f,
    0.021527f, -0.118901f, 0.045174f, 0.021433f, -0.011478f, -0.000029f, -0.021216f, 0.035431f, 0.009507f, -0.009737f,
    0.028330f, 0.009677f, 0.011561f, -0.028162f, 0.019446f, 0.068222f, 0.029859f, -0.050732f, 0.000443f, 0.019182f,
    -0.010893f, 0.009748f, -0.054036f, -0.007845f, -0.005622f, -0.050193f, -0.014818f, 0.001546f, 0.037179f, 0.009842f,
    0.001760f, -0.022084f, -0.027846f, -0.013829f, 0.028364f, -0.015286f, -0.034304f, 0.045077f, -0.057248f, -0.005073f,
    0.017738f, 0.002845f, 0.042908f, 0.035620f, 0.015991f, -0.013989f, 0.013869f, -0.018608f, -0.061843f, -0.042117f,
    -0.014027f, 0.013838f, -0.038933f, -0.006140f, 0.019670f, 0.018254f, 0.032268f, -0.012476f, 0.077851f, 0.058247f,
    0.048177f, 0.003471f, 0.062330f, 0.011097f, 0.020556f, 0.020337f, -0.024493f, -0.033896f, 0.029914f, 0.065540f,
    -0.047946f, -0.002065f, 0.006515f, -0.007944f, -0.034487f, 0.030190f, -0.007764f, 0.008745f, 0.046776f, -0.010377f,
    -0.027609f, -0.014037f, 0.003853f, 0.023186f, 0.024453f, -0.024133f, 0.024823f, -0.010209f, -0.026658f, 0.001657f,
    -0.075735f, -0.006489f, 0.053411f, 0.062618f, 0.051900f, -0.062146f, -0.038298f, 0.010480f, 0.006826f, -0.047360f,
    -0.028061f, -0.032212f, -0.031501f, 0.030364f, -0.020544f, 0.013568f, -0.009128f, -0.037636f, 0.046402f, 0.031179f,
    -0.006526f, -0.051952f, -0.040397f, -0.000326f, -0.036078f, 0.028642f, 0.072253f, -0.010296f, -0.016172f, 0.029691f,
    -0.053576f, 0.048832f, 0.079504f, 0.004274f, 0.026764f, -0.069213f, 0.020198f, 0.006743f, 0.003251f, -0.041757f,
    -0.007873f, -0.004614f, 0.000713f, 0.083563f, -0.013148f, 0.000993f, -0.002839f, -0.002162f, -0.004251f, -0.029865f,
    -0.021256f, -0.010533f, -0.063193f, 0.050202f, -0.015677f, -0.020532f, -0.019578f, 0.018872f, 0.044805f, 0.059138f,
    -0.000059f, -0.006983f, 0.000287f, 0.000749f, 0.022003f, -0.010914f, -0.002164f, 0.029251f, -0.038110f, -0.052669f,
    0.010488f, -0.051785f, -0.064725f, -0.034906f, 0.026189f, -0.005262f, 0.019492f, 0.035125f, -0.018063f, 0.018147f,
    -0.048579f, -0.010747f, -0.022401f, -0.016868f, -0.002230f, -0.018509f, 0.016056f, -0.010565f, 0.044890f, 0.020301f,
    0.027169f, 0.024129f, 0.029878f, -0.025671f, 0.025130f, 0.038028f, -0.024272f, -0.026017f, -0.032907f, -0.019832f,
    0.016516f, -0.090639f, 0.053537f, 0.050050f, 0.027386f, -0.000251f, -0.048649f, -0.003997f, 0.039771f, 0.006289f,
    -0.020915f, 0.028095f, -0.110641f, -0.013449f, 0.011117f, 0.001467f, 0.015701f, 0.069934f, -0.017409f, -0.020621f,
    -0.071208f, 0.002572f, 0.050769f, -0.049776f, -0.008228f, -0.012913f, 0.015078f, 0.022241f, 0.013692f, -0.007923f,
    0.002525f, -0.057718f, 0.011045f, -0.034789f, -0.044649f, 0.039448f, 0.027919f, 0.021826f, 0.004949f, -0.057120f,
    -0.019641f, -0.027788f, 0.003277f, -0.005688f, -0.069616f, -0.000298f, -0.000321f, -0.035079f, -0.002448f, 0.037999f,
    0.003868f, 0.002302f, 0.011994f, -0.003931f, 0.065629f, -0.028793f, 0.008055f, 0.011369f, -0.049348f, 0.028953f,
    -0.020396f, 0.010118f, -0.020468f, 0.029671f, -0.078867f, -0.012875f, 0.066371f, -0.031899f, 0.036535f, 0.062547f,
    0.017212f, 0.004636f, -0.010722f, -0.002089f, -0.005649f, -0.031733f, 0.009494f, -0.022589f, 0.030690f, -0.008831f,
    0.029004f, 0.095111f, 0.009420f, -0.043589f, -0.001226f, 0.018257f, 0.021399f, -0.009576f, -0.002284f, -0.010793f,
    0.015198f, -0.003379f, -0.001727f, -0.035736f, 0.003690f, -0.025910f, 0.003098f, 0.012564f, -0.030050f, 0.029232f,
    -0.053383f, -0.001706f, -0.071262f, 0.000893f, 0.006025f, 0.043536f, 0.044555f, -0.028177f, 0.024836f, 0.009802f,
    0.056160f, -0.018738f, 0.005697f, 0.027263f, 0.000148f, -0.032299f, 0.042084f, -0.000616f, 0.039217f, 0.059579f,
    -0.000682f, -0.039353f, 0.111234f, -0.027838f, -0.027576f, 0.001332f, -0.032612f, 0.022919f, -0.006514f, 0.009963f,
    -0.017928f, 0.047210f, -0.038372f, -0.006932f, 0.001520f, -0.006964f, -0.033129f, 0.011828f, -0.038495f, -0.018071f,
    -0.053608f, 0.017654f, -0.016459f, 0.078177f, 0.012246f, -0.003689f, -0.041535f, 0.028945f, 0.002904f, 0.005137f,
    -0.082259f, -0.004213f, 0.022053f, -0.010897f, 0.032240f, 0.048039f, 0.025142f, -0.007531f, -0.054967f, 0.020414f,
    -0.002797f, -0.013172f, -0.024829f, 0.033895f, -0.057121f, -0.017097f, 0.064927f, 0.028723f, -0.012966f, -0.079669f,
    -0.033996f, 0.024447f, 0.062466f, -0.020129f, 0.015119f, 0.020808f, 0.037848f, 0.077972f, -0.033101f, 0.014156f,
    0.006000f, -0.025781f, -0.052429f, -0.006967f, 0.041525f, -0.025416f, 0.058702f, 0.007178f, 0.025039f, -0.060618f,
    -0.019738f, 0.010364f, -0.009729f, -0.012487f, 0.000317f, 0.030990f, 0.021092f, 0.009766f, 0.002603f, 0.023361f,
    0.001570f, -0.041166f, 0.000082f, -0.017768f, -0.028345f, -0.026611f, -0.028341f, 0.001774f, -0.016466f, 0.011692f,
    -0.001926f, -0.080407f, 0.001296f, 0.019596f, -0.033760f, 0.003810f, 0.001524f, 0.025882f, -0.018423f, 0.007424f,
    0.033377f, -0.003824f, 0.019352f, 0.004152f, 0.002372f, -0.065577f, -0.020732f, 0.008087f, 0.011119f, -0.003447f,
    0.026493f, 0.026048f, 0.001303f, -0.068902f, 0.013948f, 0.034238f, 0.016943f, 0.005250f, 0.031945f, -0.012676f,
    0.001442f, 0.022677f, 0.002939f, -0.008657f, -0.060674f, -0.016052f, -0.029214f, -0.004770f, 0.024569f, -0.057231f,
    0.001572f, -0.000073f, -0.015993f, -0.034562f, -0.023309f, 0.025067f, -0.056342f, -0.010380f, -0.032904f, -0.053323f,
    -0.057658f, 0.048779f, 0.036827f, -0.079274f, 0.022337f, -0.037250f, -0.008515f, 0.003109f, 0.020864f, -0.001496f,
    0.025588f, -0.027860f, -0.023703f, -0.009110f, 0.009690f, -0.021720f, 0.095178f, 0.009891f, 0.064428f, 0.022252f,
    -0.026063f, 0.015418f, 0.027869f, 0.004505f, -0.038088f, -0.040132f, -0.044579f, -0.025769f, 0.025657f, -0.004610f,
    0.037932f, -0.029368f, -0.007033f, -0.020537f, 0.040372f, 0.049220f, -0.043356f, 0.002664f, -0.029452f, 0.045015f,
    0.054114f, -0.006484f, -0.010091f, 0.005999f, 0.037391f, 0.027748f, -0.039480f, 0.055736f, -0.039514f, -0.054019f,
    -0.032730f, 0.022170f, 0.021265f, 0.016856f, 0.037884f, -0.019708f, -0.038375f, 0.000458f, 0.018062f, 0.040986f,
    -0.003129f, -0.016262f, -0.002977f, -0.028135f, -0.025650f, -0.011132f, -0.008997f, 0.002724f, -0.007480f, 0.048298f,
    0.032618f, -0.009111f, 0.000539f, -0.026252f, -0.022857f, -0.028561f, 0.012753f, 0.026384f, 0.018756f, 0.054085f,
    -0.018148f, 0.020387f, 0.048742f, -0.030392f, -0.015092f, -0.040431f, -0.011938f, -0.046781f, -0.025620f, -0.009386f,
    -0.002740f, 0.009971f, 0.025931f, -0.028983f, -0.078208f, 0.017780f, 0.030159f, -0.042788f, -0.025413f, 0.076486f,
    0.023363f, -0.004159f, 0.011603f, 0.037037f, 0.060833f, -0.001144f, 0.023087f, -0.044000f, 0.036506f, -0.003891f,
    -0.041508f, 0.000434f, -0.005594f, -0.005401f, 0.042696f, 0.030642f, 0.017096f, 0.006017f, 0.018721f, -0.027396f,
    0.049427f, -0.029118f, -0.016358f, -0.042821f, 0.030489f, -0.025969f, 0.015678f, -0.060619f, 0.013914f, 0.026417f,
    0.018411f, 0.005659f, -0.010854f, 0.040224f, 0.011263f, -0.025403f, 0.004352f, 0.000701f, 0.004521f, -0.015196f,
    0.044179f, -0.007781f, -0.030294f, 0.005635f, 0.020918f, 0.001858f, 0.012088f, 0.074411f, 0.012426f, 0.053267f,
    0.089685f, -0.030780f, -0.036153f, 0.022239f, 0.046284f, -0.000373f, -0.007961f, 0.010520f, -0.016689f, 0.016246f,
    -0.008575f, -0.011080f, -0.050282f, 0.009712f, -0.066464f, 0.029474f, 0.040101f, 0.029213f, -0.021867f, 0.004378f,
    -0.006684f, 0.029115f, -0.001898f, -0.016876f, -0.023887f, -0.025910f, -0.019210f, 0.002904f, -0.010149f, 0.035909f,
    0.041607f, -0.032345f, 0.036161f, 0.018175f, 0.013935f, 0.037591f, -0.001848f, -0.057398f, -0.036287f, -0.043643f,
    -0.008382f, -0.010648f, -0.026661f, 0.001694f, 0.009686f, -0.044208f, 0.029852f, -0.027229f, 0.002791f, -0.001245f,
    0.003677f, 0.011579f, 0.069916f, 0.004812f, 0.026386f, 0.037265f, -0.000813f, -0.046066f, -0.022012f, -0.032909f,
    0.016665f, 0.012908f, 0.022099f, -0.010953f, 0.021251f, -0.017067f, 0.067852f, 0.015531f, -0.024666f, 0.023577f,
    0.039653f, 0.005178f, 0.027331f, -0.035016f, 0.000297f, -0.016388f, 0.028089f, -0.045130f, -0.014236f, 0.031437f,
    -0.003384f, 0.006615f, -0.067041f, -0.039209f, -0.049693f, -0.024017f, -0.004580f, 0.029699f, -0.019169f, 0.088900f,
    -0.046322f, -0.031645f, -0.054679f, 0.020135f, -0.047749f, 0.028824f, -0.005989f, -0.007604f, -0.020680f, 0.001527f,
    -0.006975f, 0.044062f, -0.020494f, 0.021486f, -0.020078f, -0.052115f, -0.027443f, 0.001668f, 0.034732f, -0.023322f,
    -0.011340f, 0.035807f, -0.028130f, 0.001949f, -0.054554f, 0.006621f, 0.009748f, -0.001797f, 0.024534f, -0.033725f,
    -0.026478f, -0.015843f, -0.020400f, 0.023328f, -0.017592f, -0.033416f, -0.004907f, -0.068989f, 0.019309f, -0.008967f,
    0.031871f, -0.023178f, -0.010289f, 0.013771f, -0.042413f, -0.029172f, -0.045759f, -0.001380f, -0.002158f, 0.022766f,
    0.012271f, 0.005958f, 0.019260f, -0.019999f, -0.028549f, 0.009471f, 0.012456f, -0.041323f, -0.002446f, 0.031499f,
    -0.041866f, 0.013284f, -0.001271f, 0.020889f, -0.008953f, -0.005995f, -0.032190f, -0.028642f, -0.030911f, -0.003403f,
    -0.042032f, 0.030410f, 0.012830f, -0.022501f, 0.016797f, -0.049491f, 0.059262f, -0.043805f, 0.056943f, -0.027658f,
    -0.000476f, 0.023485f, 0.005675f, 0.036431f, -0.009877f, -0.007445f, 0.068065f, -0.015572f, -0.027809f, -0.064848f,
    -0.019954f, -0.025582f, 0.051970f, 0.059464f, -0.007293f, 0.033251f, 0.013110f, -0.000768f, 0.003804f, 0.032437f,
    0.042507f, -0.005574f, 0.039524f, 0.027830f, -0.048004f, 0.081088f, 0.002591f, 0.038602f, -0.049309f, 0.024886f,
    -0.062061f, 0.000438f, -0.024084f, 0.048544f, -0.008447f, -0.021394f, 0.003319f, -0.026864f, -0.017874f, -0.039520f,
    0.028957f, 0.028494f, -0.002972f, 0.044315f, 0.005004f, 0.025438f, 0.017273f, 0.000319f, -0.012019f, -0.057928f,
    -0.057778f, -0.019886f, 0.034131f, 0.006547f, 0.007757f, -0.010899f, 0.031505f, 0.008447f, 0.002423f, -0.016284f,
    0.033242f, -0.013257f, -0.036934f, 0.003206f, -0.031174f, -0.003283f, 0.025824f, 0.033639f, -0.024384f, -0.036465f,
    -0.034916f, 0.004719f, 0.055334f, -0.018192f, -0.028947f, 0.025801f, -0.048537f, -0.029863f, -0.002670f, -0.010123f,
    0.020349f, -0.008694f, 0.035828f, -0.014843f, 0.057571f, -0.011096f, 0.002066f, 0.014228f, -0.015558f, -0.058475f,
    -0.062938f, 0.002326f, 0.034181f, 0.015582f, 0.003968f, -0.042831f, -0.000786f, -0.030358f, -0.018776f, -0.001705f,
    -0.022896f, 0.008476f, -0.009145f, 0.014638f, 0.000484f, 0.029306f, 0.005753f, -0.012381f, 0.027961f, 0.000606f,
    0.034256f, -0.035023f, -0.005933f, -0.014822f, -0.105536f, 0.058383f, 0.041299f, -0.014640f, -0.010230f, -0.041672f,
    -0.011898f, -0.022435f, -0.049815f, 0.037278f, -0.065065f, 0.003521f, 0.026963f, -0.000011f, -0.006593f, 0.002901f,
    -0.010668f, 0.003986f, -0.013207f, 0.036641f, -0.036637f, -0.012394f, -0.013515f, -0.003544f, 0.008878f, -0.023640f,
    0.021048f, 0.007070f, 0.002917f, -0.054244f, -0.042364f, -0.005321f, -0.007872f, 0.002714f, 0.021156f, 0.005718f,
    0.008837f, -0.017909f, -0.072394f, -0.045373f, 0.031213f, 0.009201f, -0.026474f, -0.056806f, -0.006312f, 0.028688f,
    -0.060928f, 0.011182f, 0.035100f, -0.018106f, -0.038587f, -0.017263f, -0.015765f, -0.012462f, 0.012627f, -0.012782f,
    -0.001822f, 0.010318f, 0.022967f, 0.015277f, -0.023680f, -0.008051f, 0.048506f, 0.012977f, -0.041516f, 0.005249f,
    0.067897f, 0.033357f, -0.004238f, 0.036503f, -0.036882f, -0.021379f, 0.009787f, 0.019542f, -0.014179f, 0.003173f,
    -0.046874f, -0.089559f, -0.002628f, -0.025027f, -0.015560f, 0.028621f, -0.056824f, 0.016497f, 0.048436f, 0.011498f,
    0.054333f, -0.030870f, -0.031250f, -0.030077f, 0.061455f, 0.049823f, 0.044550f, -0.023175f, -0.001825f, -0.032830f,
    -0.094886f, 0.002921f, 0.049721f, -0.009063f, 0.012813f, -0.035124f, 0.038441f, 0.002417f, 0.031554f, -0.037945f,
    -0.007171f, -0.002367f, 0.000275f, 0.038759f, -0.009755f, -0.030846f, -0.002654f, -0.029485f, -0.015342f, -0.009593f,
    -0.023952f, -0.039604f, -0.085197f, 0.000167f, -0.055652f, -0.026379f, 0.066247f, 0.009561f, -0.006596f, 0.043198f,
    0.031150f, 0.005223f, 0.024465f, -0.003372f, -0.024992f, -0.027757f, -0.003572f, 0.019236f, -0.051389f, -0.028465f,
    0.004215f, 0.030962f, 0.043065f, -0.002693f, 0.014365f, -0.077523f, -0.055430f, 0.063307f, 0.027142f, -0.020028f,
    0.033733f, 0.028084f, 0.029474f, -0.012393f, -0.018627f, 0.003706f, 0.016989f, -0.040748f, -0.037654f, 0.011876f,
    0.009318f, 0.024278f, 0.096719f, -0.027205f, -0.011251f, -0.007073f, -0.032908f, 0.015262f, -0.005820f, 0.026391f,
    -0.010083f, -0.042712f, 0.005703f, -0.009492f, -0.032959f, -0.037230f, 0.072085f, 0.056386f, -0.049303f, 0.031060f,
    0.003281f, -0.012377f, -0.020242f, 0.018666f, 0.026827f, 0.051062f, 0.016724f, 0.018370f, 0.006740f, 0.060308f,
    0.038069f, 0.016982f, -0.013299f, -0.032919f, 0.025182f, 0.005147f, 0.042442f, -0.038370f, -0.004363f, 0.059939f,
    -0.020051f, 0.046275f, 0.037246f, 0.007220f, -0.012153f, -0.035920f, -0.053694f, -0.014272f, -0.003274f, 0.002381f,
    -0.038324f, -0.018745f, -0.026904f, 0.009501f, -0.047686f, 0.010685f, 0.041858f, -0.059330f, -0.010211f, -0.027306f,
    -0.015370f, 0.007105f, -0.024830f, 0.006097f, -0.013519f, -0.001096f, -0.009573f, 0.007878f, 0.017471f, 0.045082f,
    0.073742f, 0.038317f, 0.015899f, -0.008842f, -0.052635f, 0.029819f, -0.016621f, 0.005331f, 0.042988f, -0.012062f,
    0.007031f, 0.021569f, -0.020438f, 0.043330f, 0.059956f, 0.028522f, 0.024161f, 0.000755f, -0.016841f, -0.035275f,
    0.051539f, -0.010131f, 0.017826f, -0.057721f, 0.007002f, -0.018148f, 0.020372f, -0.035291f, -0.040011f, -0.039692f,
    -0.006946f, -0.054994f, -0.040715f, 0.023408f, -0.029161f, 0.009815f, -0.071906f, -0.043830f, -0.012609f, -0.005258f,
    -0.008557f, 0.030936f, -0.053436f, -0.054365f, -0.024696f, 0.058369f, -0.005637f, 0.009740f, 0.000111f, 0.021847f,
    -0.017323f, -0.028520f, 0.094318f, 0.024928f, 0.018997f, 0.047343f, 0.035635f, 0.063592f, -0.005521f, -0.038236f,
    -0.007828f, -0.012565f, -0.038721f, 0.030595f, -0.075973f, 0.025584f, 0.039323f, 0.004278f, 0.047965f, -0.016664f,
    -0.025708f, -0.015378f, -0.039485f, 0.028977f, -0.008717f, 0.035903f, 0.036321f, -0.028470f, -0.009085f, -0.008946f,
    0.006114f, -0.053516f, -0.005111f, 0.001070f, -0.048960f, 0.025867f, 0.021250f, -0.022965f, 0.015551f, 0.052209f,
    0.017824f, -0.019491f, -0.034396f, 0.004216f, 0.007270f, -0.005967f, -0.002161f, -0.012951f, 0.001426f, 0.017285f,
    -0.009894f, -0.009079f, -0.012530f, -0.051698f, 0.007562f, 0.004512f, -0.049835f, -0.005411f, -0.051079f, 0.051344f,
    0.020709f, -0.033014f, 0.005391f, 0.044843f, -0.021972f, 0.013100f, -0.035941f, 0.009599f, -0.053685f, 0.008077f,
    0.013266f, -0.085206f, 0.027967f, 0.033950f, -0.042756f, -0.004739f, 0.039820f, -0.016393f, -0.051271f, -0.016124f,
    0.012751f, -0.009836f, 0.038073f, -0.000141f, 0.001270f, -0.007839f, 0.025917f, -0.063092f, -0.033487f, -0.061416f,
    -0.020461f, -0.025245f, -0.022112f, 0.010414f, -0.001708f, 0.015487f, 0.071685f, -0.019293f, 0.033799f, -0.009075f,
    -0.014044f, 0.002541f, 0.053939f, 0.058245f, -0.017188f, -0.043287f, 0.019430f, -0.023262f, 0.068871f, 0.048220f,
    0.020764f, 0.052781f, 0.057688f, 0.001904f, -0.003743f, -0.004122f, -0.044177f, 0.061201f, 0.060043f, 0.009874f,
    0.007197f, -0.010264f, -0.005224f, -0.019832f, 0.011571f, 0.012873f, 0.014586f, -0.042297f, 0.006924f, -0.015653f,
    -0.057516f, 0.034988f, -0.014545f, 0.019611f, 0.047208f, 0.000919f, -0.062027f, 0.007148f, 0.016512f, -0.007638f,
    -0.008313f, -0.040092f, 0.027519f, 0.028869f, -0.013990f, 0.012872f, 0.019893f, 0.004857f, 0.000925f, -0.072689f,
    0.020729f, -0.023949f, -0.011767f, -0.005787f, 0.008053f, -0.006385f, 0.022415f, 0.018237f, 0.020156f, 0.039266f,
    -0.038098f, -0.028986f, -0.044862f, 0.024833f, 0.010886f, -0.008886f, 0.033710f, 0.011628f, -0.006452f, -0.015169f,
    -0.010932f, -0.000224f, 0.091379f, 0.097408f, 0.015901f, -0.037936f, 0.021004f, 0.001229f, 0.060780f, -0.043985f,
    -0.040705f, 0.050758f, 0.016958f, -0.017622f, 0.029082f, 0.006339f, 0.002213f, -0.051479f, 0.003951f, 0.038667f,
    -0.055622f, -0.053177f, 0.051804f, 0.024551f, -0.071123f, 0.003018f, 0.057877f, -0.003915f, 0.064882f, 0.011903f,
    -0.041840f, -0.037391f, -0.005578f, -0.006446f, -0.005644f, -0.004413f, 0.012935f, -0.000345f, -0.009259f, 0.005923f,
    -0.007081f, -0.030786f, 0.006547f, 0.043301f, -0.040737f, 0.012230f, -0.033393f, -0.009670f, -0.013506f, -0.007442f,
    -0.033403f, 0.033955f, -0.013933f, 0.020534f, -0.001589f, -0.023829f, 0.008662f, 0.039432f, -0.055781f, 0.062648f,
    -0.059881f, 0.042426f, 0.056917f, -0.023012f, 0.011748f, -0.021989f, -0.009811f, 0.028795f, 0.006422f, 0.029211f,
    -0.024420f, 0.056563f, -0.064038f, -0.012557f, -0.004513f, 0.084167f, -0.008048f, 0.019167f, 0.003984f, 0.009117f,
    -0.030177f, 0.017736f, -0.043257f, -0.030329f, -0.052151f, 0.001088f, -0.016665f, -0.026558f, -0.034528f, 0.014308f,
    -0.049272f, -0.039694f, -0.011069f, 0.020527f, 0.032807f, -0.007315f, -0.002982f, 0.023988f, 0.024579f, 0.028139f,
    -0.047231f, 0.051110f, 0.082336f, -0.009845f, 0.028525f, -0.033117f, -0.029286f, 0.031117f, 0.050415f, 0.017218f,
    0.002122f, -0.028428f, -0.018935f, 0.017749f, 0.014245f, 0.062212f, 0.001119f, 0.021245f, 0.001410f, 0.023271f,
    -0.052311f, 0.004611f, -0.020609f, -0.043868f, -0.010742f, 0.025882f, 0.014990f, -0.044840f, -0.002463f, -0.040821f,
    0.021569f, -0.005516f, -0.046358f, -0.019521f, -0.055570f, 0.012346f, 0.014832f, 0.010244f, -0.012198f, -0.039461f,
    0.009674f, 0.051757f, -0.012877f, 0.038681f, -0.001212f, 0.042853f, -0.009687f, -0.028048f, 0.000363f, -0.068619f,
    -0.044675f, 0.042193f, 0.018850f, -0.014194f, 0.066514f, 0.020983f, 0.010241f, -0.012003f, 0.018693f, -0.089036f,
    0.009974f, -0.011019f, -0.013299f, -0.038121f, 0.015231f, 0.003693f, 0.025707f, 0.027612f, -0.057084f, -0.011464f,
    -0.015709f, -0.016531f, 0.045387f, 0.021284f, -0.034239f, 0.022546f, 0.019821f, 0.021472f, -0.008257f, -0.057154f,
    0.012006f, -0.022268f, 0.015542f, -0.049016f, 0.043441f, -0.018252f, 0.042196f, -0.050817f, -0.012123f, 0.028923f,
    -0.032250f, 0.001351f, 0.026662f, -0.008938f, -0.001941f, 0.013730f, 0.027583f, -0.025757f, -0.007685f, 0.017655f,
    -0.001809f, 0.014731f, -0.034763f, 0.092554f, -0.041514f, -0.009994f, 0.051542f, -0.022133f, 0.040894f, -0.061959f,
    0.077923f, 0.067188f, 0.009964f, -0.001552f, -0.000188f, 0.003301f, -0.009226f, -0.009661f, 0.029754f, 0.025472f,
    0.078995f, 0.037056f, -0.049480f, 0.029788f, -0.010420f, -0.071878f, -0.009989f, 0.035212f, -0.005894f, -0.042107f,
    -0.082477f, -0.036462f, -0.044449f, 0.076233f, 0.051980f, 0.041120f, 0.005979f, -0.046579f, 0.022292f, 0.027595f,
    0.048618f, 0.010035f, -0.039102f, 0.024813f, 0.023803f, 0.050231f, -0.011522f, 0.003222f, -0.040675f, -0.015356f,
    -0.001493f, 0.001511f, 0.030711f, -0.044270f, 0.022175f, -0.006443f, 0.036221f, 0.033727f, -0.017223f, -0.013709f,
    -0.029128f, 0.032204f, -0.022256f, 0.015664f, 0.098822f, 0.008314f, 0.040852f, 0.005277f, -0.003963f, 0.018428f,
    0.027953f, -0.010321f, 0.071740f, -0.013388f, 0.010380f, 0.037675f, 0.016558f, -0.008709f, -0.036301f, 0.003024f,
    0.038820f, -0.033960f, -0.012874f, 0.040983f, 0.020036f, 0.018679f, 0.040850f, -0.088864f, 0.010069f, 0.011346f,
    0.024730f, -0.037022f, -0.000180f, 0.021404f, -0.065380f, 0.017993f, -0.026776f, -0.007737f, -0.051302f, -0.011648f,
    0.031627f, -0.032167f, -0.018157f, 0.013066f, 0.009219f, 0.000756f, 0.001038f, 0.051559f, 0.011240f, -0.012055f,
    -0.006296f, -0.013885f, 0.059747f, 0.000754f, -0.045000f, 0.026663f, 0.043987f, 0.035783f, 0.025674f, -0.055602f,
    0.022336f, -0.011619f, -0.008819f, 0.005139f, 0.043531f, 0.008269f, -0.041109f, 0.001981f, 0.019686f, -0.045137f,
    0.005189f, 0.019356f, 0.009925f, -0.045392f, 0.028582f, -0.005950f, -0.028445f, -0.015098f, -0.042525f, 0.004063f,
    -0.000183f, -0.011452f, 0.003157f, 0.011187f, 0.059190f, 0.005523f, 0.026303f, -0.017481f, -0.049056f, -0.004635f,
    -0.016767f, 0.010644f, 0.028069f, -0.008087f, -0.047104f, -0.025327f, 0.048985f, 0.010314f, 0.026874f, -0.003751f,
    0.012648f, -0.016106f, -0.018399f, -0.020878f, -0.029841f, -0.042277f, -0.087058f, 0.032822f, 0.050933f, 0.021621f,
    0.038104f, -0.072581f, 0.007661f, -0.063181f, 0.022573f, 0.029012f, -0.031570f, -0.026355f, -0.017489f, -0.071548f,
    0.007053f, -0.029371f, -0.037242f, 0.009710f, -0.065620f, 0.006615f, -0.013179f, 0.013244f, 0.058970f, -0.016456f,
    0.031885f, 0.000265f, -0.011262f, 0.010441f, -0.030832f, 0.027301f, 0.052558f, -0.015982f, -0.018050f, -0.092488f,
    0.011803f, -0.036838f, 0.045614f, 0.049517f, -0.020164f, -0.036882f, 0.021379f, 0.014936f, 0.018523f, 0.042033f,
    0.009322f, 0.031479f, -0.045422f, 0.016835f, -0.026422f, -0.061820f, -0.019896f, 0.039617f, -0.051015f, 0.050795f,
    0.022726f, 0.052867f, 0.023420f, -0.008467f, 0.043533f, 0.020529f, -0.005335f, -0.030798f, -0.031605f, -0.006515f,
    -0.049500f, 0.025913f, -0.048112f, 0.036702f, -0.006182f, -0.022243f, -0.037478f, -0.053411f, -0.012379f, 0.006708f,
    -0.071359f, -0.009008f, -0.017640f, -0.032874f, -0.072748f, 0.016656f, 0.017161f, 0.020115f, -0.033514f, -0.023699f,
    -0.045449f, 0.021747f, -0.042909f, -0.006793f, -0.029121f, 0.025847f, -0.010278f, 0.009497f, 0.038476f, 0.024770f,
    -0.033379f, -0.003538f, 0.021406f, -0.064132f, -0.034867f, -0.035604f, 0.008934f, 0.039635f, 0.035741f, 0.019637f,
    -0.050872f, 0.054155f, -0.016458f, -0.013569f, -0.012059f, 0.030643f, -0.034319f, -0.021798f, -0.042749f, 0.025887f,
    0.052226f, 0.019411f, -0.061373f, 0.023757f, 0.033173f, -0.037734f, 0.033608f, -0.004289f, 0.033879f, 0.018286f,
    -0.024339f, -0.033780f, 0.065236f, 0.007956f, 0.012497f, 0.030892f, -0.007320f, 0.016738f, 0.007810f, 0.081295f,
    -0.005139f, 0.005818f, -0.006789f, 0.026096f, 0.055968f, -0.012181f, -0.019092f, 0.049413f, 0.018771f, 0.007449f,
    -0.022295f, 0.038272f, 0.002744f, -0.019556f, 0.010418f, -0.001862f, -0.033866f, -0.014953f, -0.002711f, -0.002314f,
    0.008367f, -0.005190f, -0.018897f, -0.027402f, -0.062340f, 0.005746f, 0.049442f, -0.019161f, 0.029134f, -0.049394f,
    -0.034028f, 0.003220f, -0.044094f, -0.044814f, 0.051490f, -0.026743f, -0.029967f, 0.007315f, 0.002331f, -0.001407f,
    0.030988f, 0.022002f, 0.053684f, -0.053703f, 0.003926f, -0.024873f, 0.007749f, 0.010793f, -0.005110f, -0.028819f,
    -0.043902f, -0.020494f, -0.024369f, -0.021960f, 0.002133f, 0.003284f, 0.008087f, 0.046519f, -0.028438f, -0.029411f,
    0.048242f, -0.013457f, 0.016093f, -0.013301f, -0.013987f, 0.037420f, 0.044455f, 0.010231f, -0.051701f, -0.009037f,
    0.024042f, -0.047355f, 0.004263f, -0.018311f, -0.010911f, 0.021644f, 0.007023f, -0.012309f, -0.078707f, 0.053533f,
    -0.075251f, -0.017292f, -0.028979f, -0.022148f, 0.015147f, 0.021917f, -0.074812f, 0.036938f, -0.045592f, -0.117442f,
    0.017085f, 0.053564f, 0.006719f, -0.055470f, 0.035388f, -0.012397f, -0.025253f, 0.018152f, 0.020699f, 0.002687f,
    -0.032526f, -0.062417f, -0.027626f, 0.054876f, -0.001866f, -0.045185f, -0.000902f, 0.010005f, 0.011751f, -0.037938f,
    -0.055290f, 0.014923f, -0.003812f, -0.051906f, -0.057513f, 0.000166f, -0.019099f, 0.032568f, -0.005722f, 0.056100f,
    0.011505f, -0.008706f, 0.011467f, -0.001375f, 0.041122f, -0.023188f, 0.091740f, 0.047245f, 0.000981f, -0.014403f,
    -0.035592f, 0.020579f, 0.049958f, -0.001975f, -0.025703f, 0.019123f, -0.032245f, 0.017975f, 0.005894f, -0.008503f,
    0.019615f, 0.006087f, -0.031155f, -0.006847f, -0.009846f, -0.004201f, 0.043679f, 0.012037f, 0.051331f, 0.072419f,
    -0.003736f, -0.012657f, 0.014531f, 0.018741f, 0.001260f, 0.006944f, -0.045121f, 0.000321f, 0.016792f, 0.006628f,
    -0.014670f, 0.018827f, -0.033748f, -0.009318f, 0.019623f, 0.006856f, -0.044909f, -0.002035f, -0.024606f, 0.020989f,
    -0.028397f, -0.005531f, 0.004822f, -0.001745f, 0.023059f, -0.056098f, -0.042438f, 0.016399f, -0.027831f, -0.005506f,
    -0.016528f, -0.007783f, 0.003031f, -0.083059f, -0.048170f, 0.025874f, 0.088688f, -0.043421f, -0.057056f, -0.006221f,
    0.062427f, 0.035761f, -0.029026f, 0.016557f, -0.002023f, -0.054248f, -0.016890f, -0.042480f, -0.021934f, -0.001715f,
    -0.061714f, -0.001740f, 0.050117f, -0.017597f, 0.048280f, -0.052310f, -0.042930f, 0.044817f, 0.006363f, -0.053479f,
    -0.043857f, 0.011976f, 0.002273f, -0.032468f, -0.028312f, -0.030959f, -0.027021f, 0.001883f, 0.036652f, 0.048080f,
    0.001170f, 0.040896f, -0.001205f, 0.043060f, 0.059596f, -0.000622f, 0.005463f, 0.040468f, 0.035988f, 0.010469f,
    -0.000377f, 0.025762f, -0.009032f, -0.050492f, -0.056566f, -0.030058f, 0.024202f, 0.003698f, 0.008246f, -0.018515f,
    0.068053f, -0.010358f, -0.075829f, 0.037974f, 0.024209f, -0.027321f, 0.002286f, -0.012557f, -0.013997f, -0.009774f,
    -0.016388f, 0.036412f, -0.005098f, 0.025035f, -0.045391f, 0.037378f, 0.005686f, -0.041281f, -0.005777f, 0.047452f,
    0.023115f, 0.007347f, 0.038614f, -0.018921f, 0.048369f, 0.053945f, 0.009665f, -0.012009f, 0.003618f, 0.000473f,
    0.021740f, -0.037926f, 0.040603f, -0.021536f, -0.023607f, 0.038199f, -0.010895f, -0.056111f, 0.029557f, 0.014786f,
    -0.030964f, -0.036571f, -0.035061f, -0.041130f, -0.025199f, -0.010709f, 0.028015f, -0.078110f, -0.031309f, -0.030935f,
    0.019381f, -0.037262f, -0.052072f, -0.080482f, 0.010129f, -0.013919f, -0.032849f, 0.014349f, 0.001547f, -0.013007f,
    -0.002612f, 0.002994f, -0.058195f, -0.007004f, 0.019106f, -0.027449f, 0.014426f, -0.018965f, -0.040885f, 0.010358f,
    0.010264f, -0.003737f, -0.018433f, 0.013296f, 0.012840f, 0.048938f, -0.006603f, -0.019659f, 0.000469f, 0.023816f,
    -0.015157f, -0.081573f, 0.039539f, 0.023716f, -0.044455f, 0.018231f, 0.025260f, -0.016853f, -0.026279f, -0.005433f,
    -0.030575f, -0.011490f, -0.080994f, -0.005768f, -0.050380f, -0.008058f, 0.018418f, -0.004540f, 0.101028f, 0.016830f,
    -0.006679f, -0.016532f, 0.043953f, -0.038312f, 0.050317f, -0.031752f, 0.043572f, 0.015064f, -0.008177f, -0.021795f,
    0.015974f, 0.032786f, -0.045919f, 0.001719f, 0.013339f, 0.016123f, 0.025702f, -0.014912f, -0.039049f, 0.102063f,
    -0.023912f, -0.028815f, 0.022694f, 0.030098f, -0.017476f, 0.003351f, 0.007685f, -0.049740f, -0.038254f, -0.026842f,
    0.001025f, 0.036642f, -0.040615f, 0.038411f, 0.093036f, 0.041497f, -0.020580f, -0.028373f, -0.018897f, -0.009545f,
    -0.067131f, 0.063781f, 0.015876f, 0.069776f, 0.027544f, -0.046885f, -0.050105f, 0.016495f, 0.055665f, 0.016550f,
    0.004159f, 0.031983f, -0.060794f, -0.001137f, 0.008033f, -0.063996f, -0.013804f, 0.005585f, 0.012668f, -0.012555f,
    -0.010842f, 0.012904f, 0.016074f, -0.022676f, -0.001396f, 0.018939f, -0.076289f, -0.040601f, -0.008541f, 0.002228f,
    0.030413f, -0.002997f, 0.019776f, 0.009415f, -0.018343f, -0.001669f, 0.016709f, -0.061591f, -0.023472f, -0.007561f,
    0.030711f, 0.008147f, 0.012606f, 0.038046f, 0.025909f, 0.004344f, 0.009766f, -0.008478f, -0.026984f, -0.036902f,
    -0.063078f, 0.000963f, 0.003701f, 0.011527f, 0.013238f, -0.014486f, -0.010604f, -0.020368f, -0.013189f, -0.016174f,
    0.017555f, -0.022548f, -0.064005f, -0.021641f, 0.040927f, 0.066777f, 0.004805f, 0.015084f, -0.031745f, 0.023189f,
    0.041074f, -0.031465f, -0.006898f, -0.010388f, -0.000798f, -0.049750f, 0.017755f, -0.003272f, -0.001452f, -0.004568f,
    0.019833f, -0.028050f, -0.032864f, -0.023973f, -0.010986f, 0.013070f, 0.012734f, 0.022474f, 0.000742f, -0.032528f,
    0.016410f, -0.011133f, -0.032824f, -0.074374f, -0.065439f, -0.070700f, -0.008019f, 0.008295f, -0.010485f, 0.045245f,
    -0.005540f, -0.011218f, 0.035791f, -0.027693f, 0.027432f, -0.029668f, -0.019760f, -0.056065f, -0.030581f, 0.010274f,
    -0.024368f, 0.001320f, 0.025605f, 0.055467f, 0.000666f, -0.035110f, -0.037344f, 0.051006f, 0.067404f, -0.070514f,
    -0.031835f, -0.008463f, 0.023446f, 0.002787f, 0.024895f, -0.031148f, 0.031362f, -0.016300f, -0.037326f, -0.074531f,
    -0.038873f, -0.016885f, -0.003783f, 0.005672f, -0.012481f, 0.026042f, -0.013334f, -0.036819f, -0.028249f, -0.014777f,
    -0.038471f, -0.005205f, 0.017092f, -0.003340f, 0.065192f, 0.017669f, -0.002569f, 0.006311f, 0.000803f, 0.047690f,
    0.024492f, -0.008492f, 0.012793f, -0.021358f, -0.018923f, 0.029631f, 0.046028f, -0.014121f, 0.000975f, -0.011015f,
    -0.022506f, -0.038941f, -0.022153f, -0.034289f, 0.036132f, -0.010495f, -0.044640f, -0.022831f, 0.018421f, 0.042277f,
    -0.023486f, 0.005563f, 0.030438f, 0.052745f, 0.007402f, -0.025329f, 0.016267f, 0.010667f, 0.008236f, 0.013821f,
    -0.022889f, -0.021155f, -0.016896f, 0.031808f, 0.026609f, -0.014327f, 0.013477f, 0.014389f, -0.044339f, -0.067065f,
    -0.032392f, 0.084617f, -0.037983f, 0.006291f, 0.043666f, 0.006879f, -0.008191f, 0.039433f, -0.058510f, -0.032372f,
    -0.066889f, -0.034860f, 0.021653f, -0.023562f, 0.000401f, 0.013914f, -0.045725f, 0.015437f, 0.014367f, 0.079185f,
    0.007973f, 0.045641f, -0.022564f, -0.028689f, 0.011448f, -0.029566f, -0.039022f, -0.029598f, 0.072334f, 0.061468f,
    0.034593f, 0.040702f, -0.002246f, -0.037067f, 0.026682f, 0.015533f, -0.011844f, 0.007696f, -0.011724f, 0.019016f,
    0.035402f, 0.035005f, 0.005814f, -0.042231f, 0.074508f, -0.034987f, -0.043599f, -0.017100f, 0.037880f, 0.025245f,
    -0.004312f, 0.018355f, -0.033307f, -0.065505f, -0.002525f, -0.043966f, 0.011607f, -0.035572f, -0.059819f, -0.020964f,
    -0.032921f, -0.015446f, -0.013760f, 0.005363f, 0.043695f, 0.022169f, 0.059423f, -0.011269f, 0.069276f, -0.050408f,
    -0.007769f, 0.000077f, 0.023405f, 0.061393f, 0.002255f, 0.006052f, -0.028386f, 0.024104f, -0.014638f, -0.005684f,
    0.014554f, 0.034989f, 0.049196f, -0.035445f, -0.047742f, -0.012935f, -0.010196f, -0.026571f, -0.020741f, 0.013867f,
    0.040307f, 0.027272f, -0.055235f, -0.012992f, 0.019958f, 0.005431f, -0.027807f, 0.025985f, -0.072317f, 0.024408f,
    0.010307f, 0.014905f, -0.022345f, 0.040798f, 0.048251f, -0.011565f, 0.008180f, -0.064305f, 0.011148f, -0.030230f,
    -0.074511f, -0.009127f, -0.016434f, -0.028582f, 0.016208f, -0.012335f, -0.072851f, -0.035618f, 0.030670f, -0.079079f,
    -0.106098f, -0.107062f, -0.040951f, -0.052018f, -0.042869f, -0.042372f, -0.016568f, 0.007946f, 0.044220f, 0.038990f,
    -0.011812f, -0.007028f, 0.042089f, -0.051549f, -0.002806f, -0.034829f, -0.015326f, 0.000211f, -0.102995f, 0.017593f,
    -0.004204f, -0.029785f, 0.074565f, -0.037438f, 0.037324f, 0.058781f, 0.003357f, -0.024703f, -0.008159f, -0.000765f,
    -0.075630f, -0.037584f, -0.054852f, 0.045495f, -0.041857f, -0.005525f, -0.093889f, -0.021973f, 0.003512f, 0.028725f,
    -0.044572f, -0.008944f, -0.008353f, 0.034618f, -0.035819f, 0.060583f, -0.032368f, 0.029221f, 0.014757f, 0.006207f,
    0.041780f, -0.003565f, 0.000664f, 0.060511f, -0.020673f, -0.036785f, 0.009619f, -0.019084f, 0.022648f, -0.021630f,
    -0.032185f, 0.004846f, 0.020291f, -0.043106f, 0.044670f, 0.005053f, 0.056158f, 0.056596f, 0.016860f, 0.008550f,
    0.027990f, 0.016162f, -0.027527f, -0.015281f, -0.093175f, -0.041902f, 0.011268f, 0.034316f, -0.006338f, 0.017919f,
    -0.062623f, -0.012601f, -0.079103f, 0.004985f, -0.041087f, 0.073649f, -0.077287f, -0.024427f, -0.017783f, 0.024358f,
    -0.000534f, -0.020487f, -0.083276f, -0.020933f, -0.044022f, -0.049844f, -0.032258f, -0.023221f, 0.008021f, 0.004212f,
    -0.014777f, 0.028630f, -0.024697f, 0.020570f, 0.015289f, -0.029222f, 0.047171f, 0.004894f, 0.017154f, -0.041970f,
    0.026533f, 0.026550f, 0.034082f, -0.020241f, -0.099140f, -0.000125f, -0.027259f, 0.042788f, 0.039167f, -0.006742f,
    0.020660f, 0.002198f, 0.012389f, -0.013632f, -0.034999f, -0.032736f, 0.028699f, -0.014820f, 0.034843f, -0.012973f,
    -0.013963f, 0.040376f, 0.065797f, 0.062562f, -0.042503f, -0.048991f, -0.021250f, -0.000763f, -0.031262f, -0.019839f,
    0.030246f, 0.033197f, -0.026999f, 0.001242f, -0.019132f, -0.018231f, 0.069325f, 0.013129f, 0.050044f, 0.060194f,
    -0.024505f, -0.036700f, 0.033790f, -0.052875f, -0.000229f, -0.025672f, -0.011971f, -0.042601f, 0.023249f, -0.024422f,
    -0.027252f, -0.008586f, -0.041998f, 0.006803f, -0.048273f, 0.002568f, -0.007004f, 0.020840f, -0.056030f, -0.014888f,
    -0.080539f, -0.008231f, 0.068965f, 0.078588f, -0.074795f, 0.035456f, -0.001901f, -0.078583f, 0.015234f, -0.024505f,
    0.068898f, -0.031912f, -0.010442f, 0.055180f, -0.025721f, 0.003190f, -0.004233f, -0.008848f, -0.002409f, 0.058913f,
    -0.084958f, -0.016945f, 0.025403f, -0.073180f, -0.040924f, 0.060343f, 0.012620f, 0.027471f, 0.061224f, -0.021158f,
    0.005866f, 0.031934f, 0.025618f, -0.032009f, 0.023522f, 0.016434f, 0.049366f, -0.049801f, 0.008291f, 0.039997f,
    -0.041344f, -0.014073f, 0.013766f, -0.021506f, -0.011271f, 0.007201f, 0.005186f, 0.028649f, 0.004490f, -0.012443f,
    -0.049331f, 0.027052f, 0.013533f, 0.009105f, 0.002767f, 0.046692f, -0.048507f, -0.003720f, 0.002526f, 0.019544f,
    -0.010989f, -0.033649f, 0.006379f, 0.034057f, -0.037696f, 0.016396f, -0.003242f, -0.028302f, 0.065969f, -0.011767f,
    -0.092525f, -0.036017f, -0.001203f, 0.013152f, -0.035850f, -0.015009f, 0.023895f, 0.029731f, 0.034870f, 0.010794f,
    0.059884f, -0.017344f, 0.009793f, 0.025273f, -0.024161f, -0.027278f, -0.065758f, -0.009776f, -0.045841f, -0.039250f,
    0.004465f, -0.019495f, 0.017498f, -0.003622f, 0.025039f, -0.033196f, -0.093864f, 0.002522f, 0.123315f, 0.026617f,
    0.060191f, 0.008386f, -0.045444f, -0.004675f, -0.006558f, -0.038900f, -0.045784f, 0.065354f, -0.085772f, -0.012833f,
    0.022183f, 0.005372f, 0.067460f, 0.060756f, -0.052954f, 0.064250f, -0.001956f, -0.072377f, -0.106887f, -0.060128f,
    -0.039467f, 0.040473f, 0.056935f, 0.043143f, 0.016858f, 0.043447f, -0.026040f, 0.002116f, -0.000058f, -0.002993f,
    0.017438f, -0.002749f, -0.037893f, 0.020447f, -0.005310f, -0.016161f, 0.039278f, 0.019139f, 0.026986f, 0.017895f,
    -0.064722f, -0.019129f, 0.027520f, -0.083389f, 0.016125f, -0.040498f, 0.014985f, -0.027736f, -0.011672f, 0.010260f,
    -0.022340f, -0.012056f, 0.015125f, -0.027531f, 0.007093f, -0.040708f, 0.010621f, -0.075164f, -0.032876f, -0.016522f,
    -0.011855f, -0.000022f, -0.022726f, 0.013421f, 0.032882f, -0.036658f, -0.035316f, 0.079329f, 0.072667f, 0.008030f,
    0.013131f, -0.049060f, -0.028254f, -0.056836f, 0.011360f, -0.060786f, 0.037385f, 0.018340f, -0.010018f, 0.026782f,
    -0.062372f, 0.008521f, -0.013690f, -0.014880f, -0.054287f, 0.034736f, 0.065806f, 0.044375f, 0.043012f, -0.032983f,
    -0.026600f, 0.052916f, -0.037885f, -0.034934f, 0.091075f, 0.005702f, -0.035394f, -0.027654f, -0.027600f, 0.006805f,
    0.055186f, -0.077438f, -0.009980f, 0.051962f, -0.058325f, 0.033579f, 0.024517f, 0.053364f, 0.018599f, 0.012791f,
    -0.008520f, 0.068924f, -0.032487f, -0.079283f, -0.001923f, -0.035099f, -0.036895f, -0.039269f, 0.055503f, 0.019821f,
    -0.033355f, -0.045230f, 0.002045f, 0.026493f, -0.034005f, 0.013789f, -0.040362f, 0.057223f, -0.006517f, -0.010274f,
    0.022069f, -0.007722f, 0.042365f, 0.044194f, -0.016981f, -0.023490f, 0.047637f, 0.056567f, -0.011531f, -0.018078f,
    -0.004128f, 0.008793f, 0.034685f, 0.058764f, 0.040900f, -0.055636f, 0.088862f, 0.052095f, -0.046998f, -0.041956f,
    -0.025647f, -0.049737f, 0.023784f, -0.027131f, 0.022087f, -0.074389f, -0.018924f, 0.017589f, -0.020342f, 0.005625f,
    0.071261f, 0.045839f, -0.033965f, -0.007094f, -0.092148f, 0.010948f, -0.051161f, -0.052781f, -0.067113f, -0.041595f,
    0.009396f, -0.034341f, -0.054122f, 0.015224f, 0.025784f, -0.007788f, 0.001409f, 0.015277f, -0.049894f, 0.006733f,
    0.037586f, 0.074581f, -0.007527f, 0.062867f, 0.060275f, 0.020526f, -0.089474f, 0.048837f, -0.060355f, -0.018784f,
    0.149064f, 0.045925f, 0.011298f, -0.019592f, -0.066603f, 0.011121f, -0.114039f, -0.040149f, 0.011833f, -0.053773f,
    0.001651f, -0.057101f, 0.008367f, -0.006077f, 0.010033f, 0.016484f, 0.032499f, 0.045609f, -0.025852f, -0.037822f,
    -0.009178f, -0.094611f, -0.028568f, 0.015288f, 0.005842f, -0.027255f, 0.011256f, -0.048472f, -0.063528f, 0.038629f,
    0.035645f, -0.056198f, -0.011927f, -0.021231f, 0.046312f, 0.068016f, -0.010605f, 0.000217f, 0.027991f, -0.015138f,
    0.027380f, -0.019750f, 0.029234f, -0.005587f, 0.001978f, -0.053834f, 0.027526f, 0.019200f, 0.014372f, -0.025200f,
    0.008891f, -0.013867f, 0.000836f, 0.028326f, -0.012495f, 0.038300f, 0.007683f, -0.007073f, -0.004182f, -0.033597f,
    0.017811f, 0.024228f, 0.025228f, 0.045640f, -0.006751f, -0.035601f, -0.000691f, 0.053149f, 0.031140f, -0.027469f,
    -0.052330f, -0.011072f, 0.004211f, 0.092285f, 0.010282f, 0.011420f, -0.058042f, -0.024544f, -0.031580f, -0.006543f,
    -0.010359f, -0.041539f, -0.040384f, -0.003005f, 0.005940f, 0.009401f, -0.116464f, 0.036342f, -0.033552f, 0.038570f,
    0.029170f, -0.054146f, -0.127093f, 0.063400f, 0.027556f, 0.044266f, 0.122867f, -0.030625f, 0.054537f, 0.031941f,
    -0.004527f, 0.028763f, -0.027581f, -0.015460f, -0.051677f, -0.013859f, -0.020744f, 0.006337f, 0.020377f, 0.064543f,
    -0.000686f, 0.087295f, -0.021698f, 0.025564f, -0.046870f, -0.051531f, 0.016922f, -0.051359f, -0.033509f, -0.016038f,
    -0.019560f, -0.050228f, -0.016530f, -0.025838f, 0.008829f, 0.030985f, -0.042691f, 0.059786f, -0.013817f, 0.095511f,
    0.050138f, 0.022261f, -0.009657f, -0.049979f, -0.017091f, 0.008208f, -0.103796f, -0.019398f, 0.037199f, 0.052674f,
    0.054294f, 0.019296f, -0.081737f, 0.015378f, 0.077917f, 0.057494f, -0.000853f, 0.001895f, 0.012975f, 0.010564f,
    -0.024368f, 0.024909f, 0.010257f, 0.013020f, -0.017978f, -0.049554f, 0.029270f, 0.045054f, 0.010154f, 0.002142f,
    -0.020549f, 0.002733f, 0.035381f, 0.051199f, 0.075889f, 0.011786f, -0.010093f, -0.004527f, -0.015911f, -0.016735f,
    0.029563f, -0.040941f, -0.005145f, -0.031883f, -0.028511f, 0.055847f, 0.036952f, 0.032057f, 0.062088f, -0.032870f,
    -0.002497f, -0.053595f, -0.080341f, 0.058903f, -0.003591f, 0.022782f, -0.071232f, -0.023562f, 0.019259f, 0.092643f,
    -0.104868f, -0.037356f, 0.101729f, -0.004945f, 0.000949f, -0.039676f, -0.066190f, 0.002731f, -0.112915f, -0.034240f,
    0.007192f, 0.004984f, -0.085557f, 0.037271f, 0.054281f, 0.032289f, 0.023557f, 0.030329f, -0.029655f, 0.002614f,
    0.026110f, -0.067006f, 0.037015f, -0.044205f, 0.045450f, 0.000936f, -0.005829f, -0.014169f, 0.039182f, 0.014803f,
    -0.019254f, -0.063443f, 0.028896f, -0.043578f, 0.020223f, -0.072209f, -0.003632f, 0.048659f, 0.025379f, -0.055407f,
    0.069969f, 0.000293f, 0.107684f, -0.013712f, 0.069391f, -0.018727f, -0.004613f, -0.074240f, 0.035306f, -0.010829f,
    0.033761f, -0.023548f, 0.047564f, -0.030346f, -0.015547f, 0.003614f, 0.003966f, 0.037145f, -0.007183f, 0.081850f,
    0.020793f, 0.022334f, -0.009297f, -0.018384f, 0.018751f, -0.033230f, 0.042153f, -0.006872f, 0.056169f, -0.016194f,
    -0.012663f, 0.021942f, -0.014162f, 0.016105f, 0.045785f, -0.007151f, -0.050452f, 0.017151f, -0.004663f, -0.044920f,
    0.008087f, -0.062775f, -0.012288f, -0.024975f, -0.012133f, -0.029556f, 0.046296f, -0.020222f, -0.064074f, 0.097375f,
    0.008463f, 0.008078f, -0.028475f, 0.012109f, -0.093410f, -0.011734f, -0.020203f, 0.004237f, 0.135789f, 0.029742f,
    -0.063918f, 0.003994f, -0.024869f, -0.026553f, 0.047630f, -0.091979f, 0.030187f, 0.018534f, -0.091114f, 0.054802f,
    -0.047772f, 0.081043f, 0.000926f, 0.086539f, -0.118174f, -0.020905f, -0.010185f, -0.060350f, 0.010237f, -0.058448f,
    -0.010417f, -0.030095f, 0.018963f, 0.002635f, -0.047164f, 0.018639f, 0.041592f, -0.033262f, -0.102252f, 0.025309f,
    0.044911f, 0.057383f, -0.006976f, -0.025622f, -0.023906f, 0.026219f, 0.083414f, -0.015261f, -0.144387f, 0.001176f,
    0.080002f, 0.013506f, 0.078154f, 0.037445f, 0.012572f, -0.028010f, 0.005446f, 0.076990f, 0.010162f, 0.006383f,
    -0.001111f, -0.060342f, 0.018791f, -0.010823f, 0.039127f, 0.005810f, -0.030360f, -0.011684f, 0.060923f, -0.021578f,
    -0.043401f, 0.026449f, 0.000203f, 0.070913f, -0.035823f, -0.011466f, 0.000154f, 0.000374f, -0.011303f, -0.006451f,
    -0.060599f, -0.023114f, -0.046021f, 0.010722f, 0.113010f, 0.015116f, -0.027932f, 0.026467f, -0.009372f, -0.016081f,
    0.003887f, 0.000627f, -0.091820f, 0.002443f, 0.021314f, 0.116099f, -0.002906f, 0.026785f, -0.076351f, -0.102262f,
    -0.055273f, 0.064598f, 0.009145f, 0.010504f, 0.090254f, 0.056341f, 0.009049f, -0.037767f, -0.061145f, -0.038195f,
    -0.044754f, -0.034541f, 0.067352f, -0.021806f, -0.033210f, -0.043994f, -0.015321f, 0.036131f, -0.000740f, 0.095695f,
    0.075820f, -0.023409f, 0.015540f, -0.043304f, -0.054305f, -0.057638f, 0.033695f, 0.009306f, -0.046077f, -0.047816f,
    0.069407f, 0.012917f, -0.036681f, -0.031905f, 0.051905f, 0.009864f, 0.017371f, -0.053289f, 0.004058f, 0.033471f,
    -0.071744f, -0.002137f, 0.005508f, 0.024686f, 0.059318f, -0.013634f, -0.033151f, 0.004264f, 0.040940f, -0.019458f,
    0.041435f, -0.008585f, 0.064739f, -0.020654f, -0.010124f, -0.013942f, 0.096280f, -0.004760f, -0.009254f, 0.008999f,
    -0.014561f, -0.027461f, -0.006919f, 0.029016f, -0.013498f, -0.057110f, 0.033537f, -0.024154f, -0.035439f, -0.017354f,
    -0.025347f, 0.012327f, 0.017978f, -0.032044f, 0.005408f, -0.046825f, -0.025941f, 0.046926f, -0.002684f, 0.059383f,
    0.068057f, 0.061314f, 0.032617f, 0.015555f, 0.069972f, -0.070964f, -0.048500f, -0.041476f, 0.088188f, -0.042966f,
    -0.065604f, 0.069709f, -0.021282f, -0.021236f, 0.006839f, 0.034713f, -0.067691f, 0.044405f, 0.037989f, -0.035278f,
    0.130033f, 0.007868f, 0.031584f, 0.001671f, -0.112990f, -0.077170f, 0.083569f, -0.007937f, -0.013521f, 0.011043f,
    -0.090576f, 0.087991f, 0.001049f, 0.085658f, 0.064876f, 0.100098f, -0.033802f, -0.014524f, -0.011921f, -0.104728f,
    0.071404f, -0.015027f, -0.010800f, -0.022145f, 0.030601f, 0.062620f, -0.017627f, -0.029033f, -0.071844f, 0.077241f,
    -0.060629f, 0.030589f, 0.045219f, 0.032604f, 0.044120f, -0.070258f, -0.048449f, 0.069873f, -0.001458f, -0.028181f,
    -0.062167f, 0.005261f, -0.013576f, 0.033982f, -0.046521f, 0.017366f, -0.044603f, 0.015000f, 0.075870f, 0.030444f,
    -0.071857f, 0.017672f, 0.019807f, -0.038799f, 0.035825f, 0.036125f, 0.088354f, 0.056352f, 0.039142f, -0.018638f,
    -0.019017f, 0.001323f, -0.039071f, 0.014272f, -0.008473f, 0.042445f, -0.003746f, -0.057608f, 0.020838f, -0.012152f,
    -0.038595f, 0.027601f, -0.065924f, 0.027894f, 0.028028f, 0.003751f, 0.041918f, 0.042160f, 0.039513f, 0.011126f,
    0.024512f, -0.043197f, 0.031415f, 0.015585f, -0.015266f, 0.001208f, -0.059194f, 0.041119f, 0.101295f, -0.019405f,
    -0.039037f, 0.048033f, -0.051583f, 0.024516f, -0.016057f, 0.033319f, 0.095754f, 0.046910f, -0.002115f, -0.112464f,
    -0.026575f, -0.107603f, -0.013795f, -0.033120f, 0.008675f, -0.059529f, -0.082237f, -0.059510f, 0.049716f, 0.128794f,
    -0.021089f, 0.168032f, -0.019378f, -0.035345f, 0.048226f, -0.087023f, -0.057522f, -0.164593f, -0.039729f, 0.050306f,
    -0.020846f, -0.059120f, 0.079299f, -0.032496f, 0.070765f, -0.058558f, -0.011866f, -0.025658f, 0.009728f, 0.049220f,
    -0.029656f, -0.060030f, 0.016275f, 0.012857f, 0.049227f, 0.072036f, -0.005020f, 0.043931f, -0.007953f, -0.049801f,
    0.039316f, 0.021540f, -0.056307f, -0.027461f, -0.020057f, -0.013638f, 0.049696f, 0.022554f, -0.019893f, 0.010542f,
    0.068305f, 0.019515f, -0.088688f, -0.007728f, 0.035039f, -0.045290f, 0.014272f, -0.029747f, 0.010186f, 0.007898f,
    0.014374f, 0.044186f, 0.032715f, 0.000076f, -0.033983f, 0.018944f, -0.007542f, 0.008995f, 0.054864f, -0.008286f,
    0.050078f, 0.057386f, 0.058525f, -0.012875f, 0.012528f, 0.005311f, -0.009057f, -0.007725f, -0.067859f, 0.006044f,
    0.022236f, -0.024515f, -0.004648f, 0.046738f, -0.044920f, -0.039133f, 0.005255f, -0.044890f, -0.110400f, -0.041441f,
    0.002335f, -0.060975f, -0.014959f, 0.053195f, 0.012988f, 0.018104f, -0.104920f, -0.171400f, -0.004851f, -0.005401f,
    0.004969f, 0.047491f, -0.112272f, 0.046617f, 0.030702f, 0.038804f, -0.012079f, 0.072670f, -0.126392f, -0.048251f,
    0.018773f, -0.183270f, -0.046265f, 0.013445f, -0.016924f, -0.009128f, 0.084104f, 0.033054f, -0.075883f, 0.022409f,
    -0.068126f, -0.034276f, 0.014215f, -0.018018f, 0.004461f, -0.011913f, -0.001939f, 0.030405f, 0.024476f, -0.013023f,
    -0.117477f, -0.035525f, -0.031533f, 0.008781f, -0.017688f, -0.027113f, -0.016671f, -0.032268f, -0.011935f, 0.008019f,
    -0.041866f, 0.037437f, 0.016233f, -0.022015f, 0.032963f, -0.020778f, 0.030366f, 0.005207f, 0.005124f, 0.086956f,
    -0.040018f, 0.016370f, 0.024436f, 0.057759f, 0.036064f, -0.009428f, -0.033962f, 0.027755f, 0.016458f, -0.062721f,
    -0.032422f, 0.020868f, 0.040613f, 0.015637f, -0.038050f, 0.082724f, -0.007463f, 0.055587f, 0.037896f, -0.034083f,
    -0.004265f, 0.033543f, -0.003925f, -0.017781f, 0.071375f, 0.027826f, -0.029939f, -0.011667f, -0.056615f, 0.037567f,
    0.027704f, -0.060492f, -0.097766f, -0.091930f, -0.098365f, 0.058296f, -0.084891f, -0.019858f, 0.045572f, 0.050664f,
    -0.019014f, -0.079148f, -0.009259f, -0.034649f, -0.072974f, -0.039931f, -0.029053f, -0.091329f, -0.124963f, -0.095483f,
    0.052387f, 0.160948f, 0.050656f, 0.179845f, 0.106799f, -0.013227f, 0.032131f, -0.067256f, -0.037469f, -0.174726f,
    0.045325f, -0.057921f, -0.031024f, -0.029849f, 0.095207f, -0.113671f, 0.002456f, 0.009845f, 0.001016f, 0.009138f,
    -0.044348f, 0.101803f, 0.019500f, -0.077184f, -0.039822f, -0.016117f, 0.010785f, 0.043557f, -0.028985f, -0.025699f,
    -0.033484f, -0.001116f, 0.016335f, -0.016569f, -0.001303f, 0.003155f, 0.118806f, 0.064004f, 0.004177f, 0.051939f,
    -0.028237f, 0.000915f, 0.017717f, 0.012989f, -0.102683f, -0.104573f, 0.058909f, -0.038289f, -0.075292f, 0.059155f,
    -0.044134f, 0.004940f, 0.058388f, 0.110910f, -0.016679f, -0.012288f, -0.006365f, 0.000046f, 0.066772f, 0.024591f,
    -0.008922f, -0.012530f, -0.017714f, 0.062366f, 0.046139f, 0.036350f, -0.056461f, -0.043179f, 0.035474f, 0.039112f,
    -0.010482f, -0.051076f, 0.081777f, -0.024502f, 0.002973f, 0.030879f, 0.041174f, -0.149623f, -0.010003f, -0.016085f,
    -0.081863f, 0.003968f, -0.018220f, 0.018416f, 0.027824f, -0.049276f, -0.036935f, 0.001147f, -0.077429f, -0.203117f,
    0.083975f, -0.038071f, 0.105896f, 0.018066f, -0.124457f, 0.011642f, 0.010119f, 0.026736f, 0.030936f, 0.157546f,
    -0.139705f, -0.074302f, -0.003111f, -0.130864f, -0.000688f, -0.020191f, -0.115831f, -0.003664f, 0.058501f, -0.011192f,
    -0.055458f, 0.004468f, -0.015937f, -0.020139f, -0.044088f, -0.016840f, 0.035389f, -0.070707f, 0.034201f, 0.018280f,
    -0.018974f, 0.000595f, 0.034541f, -0.044691f, 0.023631f, 0.029043f, -0.027358f, -0.009657f, -0.071189f, -0.022390f,
    0.032279f, 0.003053f, 0.015662f, -0.040427f, -0.005468f, 0.029811f, -0.003807f, -0.008020f, -0.061350f, 0.014723f,
    -0.011520f, -0.020808f, -0.075505f, 0.001451f, -0.053830f, -0.012878f, -0.066134f, -0.034188f, -0.009284f, 0.065204f,
    0.043203f, 0.047918f, -0.007790f, -0.006359f, 0.028766f, 0.041062f, -0.066917f, 0.049929f, -0.056811f, -0.074339f,
    -0.005206f, -0.002801f, 0.076951f, -0.034843f, -0.018443f, 0.039824f, -0.010003f, 0.006752f, -0.008418f, -0.051905f,
    0.016258f, 0.136069f, 0.034628f, -0.065304f, -0.107216f, -0.032862f, -0.046264f, 0.069618f, -0.093967f, 0.003427f,
    0.014452f, 0.025885f, -0.073674f, -0.019993f, -0.064351f, -0.067997f, -0.034156f, -0.025086f, -0.006624f, -0.131337f,
    -0.183471f, -0.078354f, 0.048896f, 0.092389f, 0.011040f, 0.171718f, 0.066134f, 0.016791f, -0.040296f, -0.047539f,
    -0.069631f, -0.125511f, 0.021401f, -0.082739f, 0.031332f, 0.029065f, 0.004694f, -0.091378f, 0.127278f, 0.062824f,
    -0.012510f, 0.077556f, 0.009841f, 0.138685f, 0.017101f, -0.110937f, 0.080366f, -0.017624f, -0.039664f, 0.012641f,
    -0.058723f, -0.015994f, 0.011895f, -0.062689f, -0.004226f, 0.030511f, -0.026203f, 0.028010f, 0.112642f, 0.044795f,
    -0.065450f, -0.074230f, -0.029145f, 0.052946f, -0.036999f, -0.005121f, 0.005292f, 0.111755f, 0.069688f, -0.013735f,
    -0.018038f, 0.053421f, -0.038013f, 0.066247f, 0.039191f, 0.179053f, -0.040378f, -0.002846f, -0.019391f, 0.017123f,
    0.012464f, 0.017054f, 0.004265f, 0.022525f, -0.073710f, 0.006341f, -0.078219f, 0.003316f, -0.066297f, -0.069982f,
    0.017164f, 0.076981f, 0.030567f, -0.054913f, 0.000084f, 0.037828f, 0.011149f, -0.058367f, 0.035697f, -0.121985f,
    -0.103319f, -0.021216f, -0.062927f, 0.009883f, 0.070474f, -0.079991f, -0.089939f, -0.047490f, -0.003341f, -0.049765f,
    -0.055499f, -0.202974f, -0.035244f, 0.002630f, 0.095231f, 0.009995f, -0.199393f, -0.100546f, 0.039131f, 0.164536f,
    0.077146f, 0.245936f, -0.086903f, -0.058927f, -0.007061f, -0.188683f, 0.042192f, -0.007946f, -0.133767f, -0.019017f,
    0.058777f, -0.066651f, -0.007998f, 0.043226f, -0.109069f, -0.005418f, 0.039233f, -0.104365f, 0.049850f, -0.098625f,
    0.014383f, 0.052122f, -0.041602f, -0.018027f, 0.034051f, -0.055304f, 0.127335f, -0.046875f, -0.027703f, 0.042982f,
    0.093867f, -0.036269f, 0.091257f, -0.031420f, -0.082725f, -0.033586f, 0.107824f, 0.090496f, 0.052844f, -0.039349f,
    0.041520f, 0.011834f, -0.016016f, 0.035468f, -0.036518f, -0.011930f, -0.025685f, -0.019180f, -0.022002f, -0.086579f,
    0.037414f, -0.024508f, 0.027516f, 0.035019f, -0.037851f, -0.065473f, -0.115269f, -0.056664f, 0.031718f, -0.008739f,
    -0.077777f, 0.094341f, -0.016524f, 0.018425f, 0.036452f, -0.048297f, -0.052050f, -0.036333f, 0.057022f, -0.003992f,
    0.038439f, -0.028436f, 0.028255f, 0.019501f, 0.060961f, -0.107247f, -0.083850f, -0.116504f, -0.104025f, 0.112849f,
    -0.085584f, -0.030728f, -0.120760f, 0.088177f, -0.071689f, -0.093857f, -0.089007f, -0.074704f, 0.096315f, -0.113266f,
    0.043816f, -0.042999f, -0.168998f, 0.013093f, 0.064209f, 0.246628f, 0.006972f, 0.211057f, -0.048530f, -0.066842f,
    -0.013310f, -0.036942f, -0.034343f, -0.196076f, 0.034242f, -0.023247f, 0.009172f, 0.117291f, -0.071394f, -0.052126f,
    0.109428f, 0.077335f, -0.006185f, 0.175438f, 0.009188f, 0.112960f, 0.017752f, -0.116558f, 0.059490f, -0.029782f,
    0.010663f, 0.033106f, -0.099212f, 0.044566f, -0.015176f, -0.139574f, -0.105734f, -0.057057f, -0.076179f, -0.074992f,
    -0.001533f, 0.157846f, -0.018568f, -0.121133f, -0.015797f, 0.078880f, -0.075041f, 0.023694f, 0.047079f, 0.097653f,
    0.032318f, -0.027767f, 0.071975f, -0.048916f, -0.110891f, 0.136127f, 0.064053f, 0.162252f, 0.067643f, -0.046765f,
    0.001979f, -0.011587f, 0.070391f, -0.006032f, -0.011560f, -0.023146f, -0.089445f, 0.051564f, -0.097804f, -0.078560f,
    -0.021811f, -0.023201f, -0.011087f, 0.056078f, 0.065804f, -0.076811f, -0.043063f, 0.021982f, -0.019685f, -0.047387f,
    0.026058f, -0.027750f, -0.112062f, 0.024887f, -0.009995f, -0.020170f, 0.105271f, -0.015944f, -0.033662f, -0.072352f,
    0.018177f, -0.134988f, -0.000046f, -0.141904f, 0.077105f, -0.011009f, 0.033238f, -0.007684f, -0.070151f, -0.073078f,
    0.095047f, 0.086383f, -0.024794f, 0.165571f, -0.069948f, -0.093058f, 0.055736f, -0.139565f, -0.008836f, -0.009580f,
    -0.056207f, 0.025422f, 0.026866f, -0.155759f, 0.055287f, 0.056481f, -0.069733f, -0.015622f, 0.003415f, -0.172112f,
    -0.034983f, -0.172142f, -0.001847f, 0.155965f, -0.020261f, 0.059675f, -0.125441f, -0.069660f, 0.144335f, -0.131740f,
    -0.010400f, 0.029909f, 0.069271f, -0.063123f, 0.064296f, 0.003828f, 0.007502f, -0.080499f, 0.002112f, 0.040879f,
    0.107029f, -0.058824f, 0.003935f, -0.049091f, 0.010327f, -0.025691f, 0.075891f, 0.063811f, -0.105262f, -0.052939f,
    -0.009608f, -0.041453f, 0.056511f, -0.144970f, 0.021641f, 0.138657f, -0.060537f, -0.039527f, -0.048657f, -0.002956f,
    0.010929f, -0.071791f, 0.009323f, 0.055638f, 0.032911f, 0.018785f, 0.047794f, 0.020470f, -0.025949f, -0.006927f,
    0.067489f, 0.005326f, 0.096872f, -0.089625f, -0.018708f, 0.087202f, -0.038606f, -0.109180f, -0.018681f, -0.041785f,
    -0.076803f, 0.059534f, -0.045365f, -0.004629f, -0.136303f, 0.006612f, -0.024407f, -0.127964f, -0.066889f, -0.051405f,
    -0.034381f, -0.042933f, 0.085627f, 0.013197f, -0.140200f, 0.075557f, 0.095580f, 0.299700f, -0.077389f, 0.171788f,
    -0.131146f, 0.085150f, -0.060745f, -0.023295f, 0.020137f, -0.002558f, 0.099456f, -0.135623f, 0.030287f, 0.227212f,
    -0.215274f, -0.026041f, 0.139641f, 0.043268f, -0.028571f, 0.135126f, -0.008787f, 0.069523f, 0.066692f, -0.079273f,
    0.095597f, -0.029010f, 0.004738f, 0.000342f, -0.145818f, 0.070316f, 0.030636f, -0.071802f, -0.174043f, -0.061871f,
    -0.029833f, -0.092620f, -0.123795f, 0.184878f, -0.162763f, -0.100905f, -0.038755f, 0.071351f, -0.039299f, -0.067494f,
    0.032715f, 0.088463f, -0.085209f, -0.034261f, 0.072670f, -0.017072f, -0.094892f, 0.040621f, 0.086575f, -0.012855f,
    0.131184f, -0.045562f, 0.014648f, -0.027964f, -0.036842f, 0.045618f, -0.117803f, 0.086470f, -0.015626f, -0.046434f,
    -0.197429f, -0.172953f, 0.019737f, 0.017219f, 0.104394f, 0.029400f, 0.018472f, -0.049747f, -0.102083f, 0.028929f,
    -0.051475f, 0.061034f, 0.031206f, -0.022959f, -0.239480f, 0.187143f, -0.077545f, -0.039236f, 0.085189f, -0.018903f,
    0.004023f, 0.128714f, 0.109180f, 0.026236f, -0.026916f, 0.055820f, -0.036955f, -0.103739f, 0.001626f, -0.068395f,
    0.072781f, -0.060987f, 0.138726f, 0.155350f, -0.043605f, 0.146624f, -0.117069f, -0.130036f, 0.010358f, 0.047235f,
    -0.088915f, -0.054710f, -0.107679f, 0.102535f, 0.019017f, -0.164606f, 0.231899f, 0.073848f, -0.041634f, 0.025239f,
    -0.039013f, -0.168175f, 0.028826f, -0.108845f, -0.003003f, 0.136108f, -0.071325f, 0.107916f, -0.018431f, 0.018827f,
    0.138403f, -0.072030f, 0.081070f, 0.108735f, 0.018769f, -0.015081f, 0.099995f, -0.016217f, 0.048701f, -0.076750f,
    0.042390f, 0.097727f, 0.027118f, -0.034322f, -0.046840f, -0.076191f, -0.028444f, -0.129734f, 0.055086f, 0.053465f,
    -0.096750f, -0.037517f, 0.019207f, -0.090738f, 0.075764f, -0.175364f, -0.012426f, 0.084874f, 0.003064f, 0.087524f,
    -0.004694f, 0.031839f, 0.092071f, -0.048074f, 0.014528f, -0.011296f, 0.019218f, -0.032458f, 0.153033f, 0.035819f,
    0.133263f, -0.096785f, -0.040143f, -0.030702f, 0.085955f, -0.029358f, 0.157286f, 0.065673f, -0.087469f, -0.174256f,
    -0.084189f, -0.109340f, 0.070390f, 0.010124f, 0.085052f, -0.059353f, -0.237854f, 0.099577f, 0.023354f, -0.136855f,
    -0.106905f, -0.043781f, 0.082501f, 0.219169f, -0.005216f, 0.082353f, 0.056910f, 0.039120f, 0.019126f, 0.241403f,
    -0.123737f, 0.176495f, 0.047140f, 0.086071f, -0.070881f, -0.069655f, 0.072554f, 0.237205f, -0.052738f, -0.120244f,
    -0.131060f, 0.454802f, -0.401631f, 0.079386f, -0.035018f, 0.275419f, -0.327026f, -0.059905f, 0.004734f, 0.093326f,
    -0.006471f, -0.075634f, 0.401451f, 0.090755f, 0.267367f, -0.253051f, -0.297633f, -0.055207f, 0.107821f, -0.179553f,
    0.188127f, -0.217329f, 0.239358f, 0.116968f, -0.277821f, 0.264937f, -0.346178f, 0.006115f, -0.110929f, 0.224116f,
    -0.244704f, 0.191318f, 0.069130f, 0.137200f, -0.285734f, 0.216894f, -0.219719f, -0.270146f, -0.054112f, 0.257744f,
    0.083496f, -0.015555f, -0.217309f, -0.158221f, -0.104891f, 0.175637f, -0.194667f, 0.198692f, -0.181020f, -0.168380f,
    0.043801f, -0.117190f, -0.298076f, -0.105264f, 0.237450f, 0.130492f, 0.186854f, 0.098310f, 0.278782f, -0.124221f,
    -0.227427f, -0.123659f, -0.124241f, 0.219737f, 0.321406f, -0.034730f, -0.189985f, 0.618403f, -0.303375f, 0.308813f,
    -0.204142f, -0.197346f, -0.014123f, 0.140333f, 0.414697f, 0.339618f, 0.020558f, 0.317928f, 0.053649f, -0.255624f,
    0.026555f, -0.329882f, 0.249511f, 0.142073f, 0.013602f, 0.012654f, -0.121305f, 0.334220f, 0.153046f, -0.405596f,
    0.209357f, 0.426994f, 0.101201f, 0.008721f, -0.154887f, 0.111754f, -0.160070f, -0.003951f, 0.487522f, -0.006982f,
    0.101464f, 0.245004f, -0.056672f, -0.354497f, -0.144126f, 0.153804f, -0.363769f, 0.132612f, -0.253459f, -0.016124f,
    -0.174095f, 0.350146f, 0.046432f, -0.291352f, 0.182032f, 0.119124f, 0.208815f, -0.078608f, 0.376288f, -0.026589f,
    -0.094602f, -0.054513f, 0.007555f, 0.068264f, 0.167992f, 0.142460f, -0.065628f, 0.110066f, -0.298095f, -0.375012f,
    -0.018284f, 0.144353f, -0.205758f, -0.410138f, 0.211691f, 0.017803f, 0.041750f, -0.177373f, -0.020178f, -0.099744f,
    0.166994f, 0.308607f, 0.030349f, 0.168882f, 0.064917f, 0.063100f, -0.310597f, 0.224301f, 0.171348f, -0.131097f,
    -0.177071f, 0.127576f, 0.139733f, 0.104899f, -0.202153f, 0.032174f, 0.069228f, 0.237566f, 0.527159f, -0.234686f,
    0.201784f, 0.038111f, -0.174757f, -0.053787f, 0.416087f, -0.117016f, 0.221142f, 0.105748f, -0.451085f, 0.214064f,
    -0.042684f, -0.454871f, -0.188843f, -0.166353f, 0.316501f, 0.749292f, -0.220354f, 0.159919f, 0.172026f, -0.224061f,
    -0.111735f, 0.066667f, -0.339148f, 0.088131f, -0.016904f, -0.057683f, -0.430547f, -0.330122f, 0.403291f, 0.594648f,
    0.091525f, 0.418228f, -0.075223f, -0.015468f, 0.133201f, 0.321144f, 0.391624f, 0.128897f, 0.366456f, -0.089500f,
    -0.081019f, -0.487938f, -0.084048f, -0.211893f, -0.010391f, 0.074579f, 0.133291f, 0.055557f, 0.148379f, -0.213217f,
    -0.063335f, 0.151020f, -0.055569f, -0.349665f, 0.289853f, 0.013037f, 0.061813f, 0.440384f, -0.032120f, -0.042457f,
    0.193160f, -0.353312f, -0.190978f, 0.312246f, -0.173176f, -0.281027f, -0.149236f, -0.112345f, -0.078946f, -0.073190f,
    -0.060539f, -0.333684f, -0.123386f, 0.237200f, -0.204494f, -0.502200f, -0.195862f, -0.646863f, 0.004896f, -0.230421f,
    0.038848f, -0.181294f, -0.671011f, -0.192389f, 0.128990f, 0.399511f, 0.005061f, 0.311780f, 0.094935f, -0.148048f,
    -0.092232f, 0.008419f, -0.413131f, -0.177558f, 0.021617f, 0.077088f, 0.561392f, 0.222156f, 0.222078f, -0.040130f,
    -0.031240f, -0.196536f, 0.087899f, -0.039735f, -0.785187f, -0.387402f, 0.020615f, -0.394026f, 0.056385f, 0.305283f,
    0.147405f, 0.101358f, -0.193272f, -0.483514f, 0.231261f, -0.064766f, -0.274337f, -0.127807f, 0.091106f, -0.559255f,
    0.373906f, -0.483153f, 0.096440f, -0.007220f, 0.308515f, 0.704531f, 0.120545f, 0.052319f, -0.104878f, 0.098515f,
    0.009982f, 0.129331f, 0.037094f, -0.012926f, -0.038370f, 0.082913f, 0.360541f, 0.058782f, 0.092556f, 0.044266f,
    -0.268824f, 0.025984f, 0.102504f, -0.019795f, -0.100169f, 0.095231f, -0.066646f, -0.174920f, 0.124510f, -0.123942f,
    0.035748f, 0.043254f, -0.107523f, 0.092338f, 0.133087f, -0.042803f, -0.017706f, -0.093284f, -0.086017f, 0.357172f,
    -0.172301f, 0.027068f, -0.030293f, -0.194673f, -0.249337f, -0.081109f, -0.021186f, 0.018451f, 0.487024f, 0.057591f,
    -0.057989f, -0.108745f, -0.150138f, -0.201814f, -0.242566f, -0.198241f, -0.000770f, -0.069908f, -0.162207f, 0.114515f,
    0.168806f, 0.162894f, 0.234979f, 0.246756f, -0.039479f, 0.220702f, 0.044267f, -0.141928f, -0.094381f, -0.122869f};

// Shape: 32
const float PARAMS_HIDDEN_1_BIAS[32] = {
