#ifndef POLICY_WEIGHTS_H
#define POLICY_WEIGHTS_H

// --- Normalization Statistics ---
const float OBS_MEAN[245] = {
    -0.021140f, 0.028559f, -0.054156f, 0.022591f, -0.034544f, -0.021718f, -0.021135f, 0.028554f, -0.054165f, 0.022592f,
    -0.034543f, -0.021719f, -0.021126f, 0.028550f, -0.054167f, 0.022594f, -0.034551f, -0.021727f, -0.021135f, 0.028554f,
    -0.054167f, 0.022590f, -0.034555f, -0.021729f, -0.021138f, 0.028552f, -0.054173f, 0.022587f, -0.034546f, -0.021718f,
    -0.021138f, 0.028544f, -0.054171f, 0.022591f, -0.034549f, -0.021723f, -0.021135f, 0.028555f, -0.054173f, 0.022596f,
    -0.034554f, -0.021722f, -0.021135f, 0.028550f, -0.054173f, 0.022593f, -0.034555f, -0.021725f, -0.021141f, 0.028549f,
    -0.054174f, 0.022588f, -0.034557f, -0.021726f, -0.021141f, 0.028547f, -0.054166f, 0.022595f, -0.034552f, -0.021721f,
    -0.021143f, 0.028560f, -0.054163f, 0.022585f, -0.034559f, -0.021716f, -0.021138f, 0.028559f, -0.054158f, 0.022588f,
    -0.034554f, -0.021709f, -0.021143f, 0.028561f, -0.054149f, 0.022589f, -0.034549f, -0.021703f, -0.021147f, 0.028562f,
    -0.054136f, 0.022587f, -0.034550f, -0.021691f, -0.021146f, 0.028567f, -0.054127f, 0.022586f, -0.034549f, -0.021684f,
    -0.021151f, 0.028576f, -0.054113f, 0.022585f, -0.034545f, -0.021663f, -0.021154f, 0.028575f, -0.054109f, 0.022587f,
    -0.034541f, -0.021650f, -0.021150f, 0.028582f, -0.054087f, 0.022590f, -0.034532f, -0.021639f, -0.021153f, 0.028592f,
    -0.054079f, 0.022594f, -0.034532f, -0.021627f, -0.021151f, 0.028601f, -0.054074f, 0.022591f, -0.034528f, -0.021620f,
    -0.021146f, 0.028598f, -0.054071f, 0.022592f, -0.034528f, -0.021619f, -0.021143f, 0.028602f, -0.054069f, 0.022590f,
    -0.034529f, -0.021613f, -0.021151f, 0.028601f, -0.054071f, 0.022594f, -0.034530f, -0.021617f, -0.021146f, 0.028601f,
    -0.054088f, 0.022599f, -0.034542f, -0.021632f, -0.021144f, 0.028593f, -0.054110f, 0.022593f, -0.034558f, -0.021654f,
    -0.021148f, 0.028580f, -0.054140f, 0.022598f, -0.034566f, -0.021670f, -0.021156f, 0.028570f, -0.054170f, 0.022597f,
    -0.034587f, -0.021701f, -0.021146f, 0.028551f, -0.054212f, 0.022597f, -0.034607f, -0.021730f, -0.021146f, 0.028550f,
    -0.054232f, 0.022602f, -0.034626f, -0.021759f, -0.021144f, 0.028547f, -0.054267f, 0.022594f, -0.034636f, -0.021784f,
    -0.021147f, 0.028542f, -0.054303f, 0.022607f, -0.034648f, -0.021812f, -0.021136f, 0.028545f, -0.054319f, 0.022615f,
    -0.034657f, -0.021823f, -0.021132f, 0.028549f, -0.054334f, 0.022622f, -0.034670f, -0.021828f, -0.021121f, 0.028558f,
    -0.054348f, 0.022623f, -0.034673f, -0.021832f, -0.021122f, 0.028562f, -0.054366f, 0.022636f, -0.034692f, -0.021850f,
    -0.021124f, 0.028566f, -0.054397f, 0.022633f, -0.034691f, -0.021867f, -0.021130f, 0.028571f, -0.054430f, 0.022627f,
    -0.034707f, -0.021889f, -0.021137f, 0.028558f, -0.054477f, 0.022615f, -0.034716f, -0.021916f, -0.021125f, 0.028561f,
    -0.054534f, 0.022632f, -0.034715f, -0.021945f, -0.021088f, 0.028552f, -0.054590f, 0.022685f, -0.034720f, -0.021978f,
    0.000382f, -0.087543f, -0.930464f, 0.059232f, -0.002527f};

const float OBS_STD[245] = {
    0.336250f, 0.340229f, 0.339286f, 0.344629f, 0.342671f, 0.341662f, 0.336251f, 0.340230f, 0.339282f, 0.344626f,
    0.342670f, 0.341659f, 0.336247f, 0.340225f, 0.339284f, 0.344628f, 0.342666f, 0.341660f, 0.336252f, 0.340221f,
    0.339283f, 0.344632f, 0.342670f, 0.341659f, 0.336247f, 0.340226f, 0.339284f, 0.344624f, 0.342669f, 0.341660f,
    0.336252f, 0.340229f, 0.339286f, 0.344626f, 0.342665f, 0.341662f, 0.336255f, 0.340226f, 0.339285f, 0.344632f,
    0.342671f, 0.341662f, 0.336246f, 0.340228f, 0.339281f, 0.344623f, 0.342669f, 0.341662f, 0.336250f, 0.340226f,
    0.339282f, 0.344625f, 0.342670f, 0.341656f, 0.336247f, 0.340222f, 0.339285f, 0.344629f, 0.342666f, 0.341660f,
    0.336247f, 0.340220f, 0.339284f, 0.344625f, 0.342668f, 0.341656f, 0.336241f, 0.340222f, 0.339284f, 0.344627f,
    0.342671f, 0.341652f, 0.336247f, 0.340220f, 0.339285f, 0.344628f, 0.342667f, 0.341653f, 0.336245f, 0.340217f,
    0.339279f, 0.344626f, 0.342669f, 0.341655f, 0.336242f, 0.340221f, 0.339278f, 0.344626f, 0.342672f, 0.341651f,
    0.336245f, 0.340213f, 0.339276f, 0.344627f, 0.342665f, 0.341648f, 0.336243f, 0.340216f, 0.339273f, 0.344623f,
    0.342668f, 0.341645f, 0.336241f, 0.340211f, 0.339269f, 0.344623f, 0.342663f, 0.341638f, 0.336244f, 0.340211f,
    0.339267f, 0.344623f, 0.342667f, 0.341645f, 0.336240f, 0.340211f, 0.339266f, 0.344622f, 0.342662f, 0.341632f,
    0.336245f, 0.340213f, 0.339259f, 0.344621f, 0.342664f, 0.341630f, 0.336246f, 0.340213f, 0.339257f, 0.344621f,
    0.342662f, 0.341621f, 0.336247f, 0.340211f, 0.339259f, 0.344622f, 0.342663f, 0.341626f, 0.336245f, 0.340208f,
    0.339254f, 0.344628f, 0.342663f, 0.341629f, 0.336246f, 0.340210f, 0.339255f, 0.344624f, 0.342663f, 0.341629f,
    0.336246f, 0.340218f, 0.339259f, 0.344621f, 0.342664f, 0.341630f, 0.336248f, 0.340216f, 0.339256f, 0.344627f,
    0.342665f, 0.341637f, 0.336253f, 0.340219f, 0.339258f, 0.344630f, 0.342661f, 0.341637f, 0.336254f, 0.340218f,
    0.339258f, 0.344634f, 0.342664f, 0.341631f, 0.336254f, 0.340220f, 0.339254f, 0.344637f, 0.342662f, 0.341633f,
    0.336254f, 0.340217f, 0.339253f, 0.344640f, 0.342664f, 0.341633f, 0.336262f, 0.340215f, 0.339258f, 0.344642f,
    0.342668f, 0.341634f, 0.336271f, 0.340214f, 0.339259f, 0.344651f, 0.342666f, 0.341631f, 0.336276f, 0.340215f,
    0.339257f, 0.344655f, 0.342665f, 0.341634f, 0.336277f, 0.340208f, 0.339249f, 0.344666f, 0.342661f, 0.341629f,
    0.336281f, 0.340207f, 0.339245f, 0.344678f, 0.342664f, 0.341626f, 0.336284f, 0.340200f, 0.339242f, 0.344686f,
    0.342668f, 0.341618f, 0.336289f, 0.340197f, 0.339239f, 0.344695f, 0.342665f, 0.341622f, 0.336294f, 0.340201f,
    0.339248f, 0.344705f, 0.342676f, 0.341630f, 0.336298f, 0.340201f, 0.339245f, 0.344716f, 0.342689f, 0.341637f,
    0.133768f, 0.290887f, 0.177535f, 0.703635f, 0.708084f};

// --- Policy Network Weights & Biases ---
// Shape: 32
const float PARAMS_HIDDEN_0_BIAS[32] = {
    0.054199f, -0.096304f, -0.110997f, 0.196496f, 0.076874f, 0.091258f, 0.045366f, 0.045542f, 0.022999f, 0.077365f,
    0.171110f, 0.052128f, 0.086067f, 0.204000f, 0.023979f, 0.043925f, 0.054956f, 0.173024f, 0.095068f, 0.127292f,
    0.041747f, 0.030131f, 0.055798f, 0.157464f, -0.039429f, 0.089753f, 0.099448f, 0.116601f, 0.225307f, -0.010382f,
    -0.043541f, 0.106586f};

// Shape: 245x32
const float PARAMS_HIDDEN_0_KERNEL[7840] = {
    0.002708f, -0.046109f, -0.006963f, 0.013365f, -0.004219f, 0.059549f, 0.006463f, -0.065731f, -0.020487f, -0.023759f,
    -0.029036f, -0.021704f, -0.061535f, -0.038228f, -0.019699f, -0.073425f, 0.087639f, -0.004741f, 0.063318f, -0.014237f,
    -0.016803f, 0.002255f, 0.053199f, 0.026058f, 0.025678f, 0.016474f, 0.068041f, 0.016380f, -0.030687f, 0.021655f,
    -0.000622f, -0.003637f, 0.100716f, -0.005956f, -0.035050f, -0.012468f, 0.004339f, -0.045203f, -0.045643f, 0.054608f,
    0.022849f, 0.008770f, -0.035346f, -0.001832f, -0.017875f, -0.004047f, -0.002481f, 0.005786f, 0.077085f, -0.009856f,
    0.030118f, 0.030862f, -0.024658f, 0.025695f, -0.009064f, -0.013106f, 0.036579f, -0.007673f, 0.030175f, -0.023563f,
    0.070936f, 0.012882f, 0.071468f, -0.006561f, -0.066165f, 0.032519f, 0.026849f, -0.027645f, 0.063808f, 0.031312f,
    0.046524f, -0.033600f, 0.000183f, 0.003220f, 0.032543f, -0.034173f, 0.023125f, -0.042800f, -0.007187f, -0.004735f,
    0.034027f, 0.003242f, -0.055517f, 0.005003f, 0.001408f, 0.037627f, -0.076230f, -0.016637f, -0.044739f, 0.006304f,
    0.025998f, 0.008268f, -0.014756f, -0.000393f, -0.004402f, 0.030597f, -0.039113f, -0.015112f, 0.013289f, 0.051907f,
    0.005082f, 0.026301f, -0.015255f, -0.019035f, 0.001343f, 0.010869f, -0.032070f, 0.036609f, 0.013290f, 0.029843f,
    -0.005766f, 0.022663f, -0.051451f, -0.011477f, 0.008389f, 0.005089f, -0.038594f, -0.019545f, -0.035105f, -0.092863f,
    0.024521f, -0.080166f, 0.049141f, 0.022703f, 0.019867f, -0.029068f, -0.021770f, -0.015870f, 0.045261f, -0.023601f,
    0.010204f, -0.029914f, 0.031666f, -0.016592f, -0.021181f, 0.021977f, -0.023456f, 0.044408f, -0.058532f, -0.004868f,
    -0.012237f, 0.026494f, 0.016398f, 0.053305f, -0.004794f, -0.002004f, -0.014738f, 0.022705f, -0.012965f, -0.011822f,
    0.012959f, 0.012066f, -0.011611f, 0.035775f, -0.003381f, -0.012335f, 0.007914f, -0.001706f, 0.003534f, -0.047771f,
    0.049036f, 0.053991f, -0.018040f, 0.022800f, -0.009374f, -0.001476f, 0.037345f, 0.038043f, 0.002381f, 0.008925f,
    0.030912f, -0.010928f, 0.008762f, -0.017317f, -0.025865f, -0.027015f, -0.035648f, -0.030310f, 0.028036f, -0.000278f,
    0.024596f, 0.027476f, -0.059334f, -0.015564f, 0.042767f, -0.026362f, 0.006235f, 0.037201f, 0.025191f, 0.034369f,
    0.017197f, 0.007037f, 0.010742f, -0.000176f, -0.030361f, -0.019760f, -0.018536f, 0.040664f, -0.002435f, 0.026323f,
    -0.022334f, -0.013220f, -0.008381f, -0.018325f, -0.023609f, 0.020390f, -0.037980f, 0.084195f, -0.044751f, -0.048052f,
    -0.014752f, 0.008380f, -0.027704f, 0.000294f, -0.014565f, -0.042890f, -0.048722f, -0.055441f, -0.056595f, -0.006162f,
    0.005642f, 0.011964f, -0.039480f, -0.036164f, 0.070772f, -0.033494f, -0.057147f, 0.034485f, -0.005959f, -0.002730f,
    -0.039596f, -0.054028f, 0.007045f, -0.035599f, -0.012315f, -0.010970f, 0.032152f, -0.001111f, 0.022730f, 0.013962f,
    0.050717f, -0.005158f, 0.015428f, -0.027627f, 0.016207f, 0.019624f, 0.023337f, -0.023629f, -0.000107f, -0.047424f,
    0.025709f, -0.007865f, -0.005240f, 0.031567f, 0.015003f, -0.058585f, 0.023148f, 0.060428f, 0.014216f, 0.019977f,
    0.019047f, 0.021460f, -0.010254f, 0.034459f, 0.011604f, 0.016377f, -0.070986f, -0.001359f, -0.009016f, -0.009402f,
    -0.034115f, -0.057500f, 0.026355f, -0.002019f, 0.023567f, 0.045765f, -0.006816f, -0.013706f, -0.021500f, 0.070053f,
    0.034471f, 0.014798f, 0.022548f, -0.025268f, -0.032002f, -0.007586f, 0.033138f, 0.022788f, -0.022653f, -0.045637f,
    0.002230f, 0.005108f, 0.051171f, 0.021007f, -0.015641f, 0.050932f, 0.049582f, 0.063759f, -0.039495f, -0.047356f,
    0.012522f, -0.003706f, -0.021499f, -0.015792f, 0.085356f, 0.033422f, 0.070858f, -0.043698f, -0.027531f, -0.003616f,
    -0.039636f, 0.010942f, -0.000654f, 0.027388f, 0.035941f, 0.018508f, 0.000817f, -0.024893f, 0.005953f, -0.022583f,
    -0.052677f, 0.007783f, 0.017026f, -0.036043f, -0.001651f, -0.010447f, -0.000518f, 0.063605f, -0.011405f, -0.009324f,
    0.047807f, 0.017021f, 0.025729f, -0.007320f, -0.019903f, 0.012179f, -0.000700f, 0.010474f, -0.018098f, 0.010354f,
    0.049358f, 0.009509f, -0.025971f, 0.007072f, 0.007509f, 0.044109f, 0.009511f, -0.006000f, -0.013113f, 0.025397f,
    -0.036786f, 0.027211f, 0.024091f, -0.011207f, -0.047490f, 0.024980f, 0.052759f, 0.008490f, -0.016800f, 0.026117f,
    0.009258f, 0.029754f, -0.058923f, 0.031360f, 0.028671f, -0.011602f, -0.025509f, 0.052447f, 0.004791f, -0.013507f,
    0.042063f, 0.038647f, 0.034448f, -0.007796f, -0.042167f, 0.006882f, 0.066559f, -0.000788f, -0.053509f, -0.014965f,
    -0.013853f, -0.024985f, -0.041498f, -0.024329f, 0.026275f, -0.050579f, -0.055103f, -0.039817f, -0.014804f, -0.011840f,
    -0.054114f, 0.030837f, -0.003900f, -0.025690f, 0.024209f, -0.004744f, 0.009696f, 0.021212f, 0.061277f, 0.028577f,
    -0.007241f, 0.020404f, -0.014280f, -0.005388f, 0.026962f, -0.004408f, -0.030929f, 0.026284f, -0.084848f, 0.039355f,
    -0.073962f, -0.011354f, 0.019351f, -0.015374f, -0.033889f, -0.044103f, -0.033753f, -0.045031f, -0.033684f, -0.028183f,
    -0.043438f, 0.007496f, -0.052304f, 0.036872f, -0.003980f, 0.050999f, -0.016168f, 0.071881f, -0.019198f, 0.021811f,
    0.015398f, 0.014405f, 0.028570f, 0.014531f, -0.005387f, -0.005511f, 0.009668f, 0.007299f, 0.025152f, -0.006793f,
    0.012701f, -0.031295f, -0.009317f, 0.005236f, -0.018282f, -0.010196f, 0.016041f, -0.020725f, 0.003939f, 0.004417f,
    -0.011281f, -0.027935f, 0.059062f, 0.009707f, -0.005965f, 0.035645f, 0.025289f, 0.035346f, -0.025036f, -0.012973f,
    -0.017621f, -0.010731f, 0.021589f, -0.075227f, 0.007915f, -0.022796f, 0.028600f, -0.008276f, -0.007262f, 0.036889f,
    -0.056996f, 0.001901f, 0.031323f, 0.010146f, 0.003173f, -0.004395f, 0.021215f, -0.027502f, -0.019799f, 0.037288f,
    -0.086019f, 0.025345f, 0.010590f, 0.012181f, -0.012924f, -0.006747f, -0.040303f, 0.021274f, 0.010018f, -0.025577f,
    -0.040995f, 0.022828f, 0.035912f, 0.015126f, 0.014798f, -0.014839f, 0.043505f, 0.034107f, 0.015640f, -0.013271f,
    0.005872f, -0.053111f, -0.044878f, 0.001408f, -0.052898f, 0.062467f, 0.005586f, 0.031765f, -0.041324f, 0.031431f,
    -0.013347f, 0.043250f, 0.025188f, -0.011444f, -0.000023f, -0.006320f, 0.000706f, 0.064668f, 0.014898f, -0.050395f,
    -0.001414f, -0.014101f, 0.016715f, 0.000989f, -0.026549f, 0.000699f, -0.032480f, -0.014111f, -0.028599f, -0.010468f,
    -0.014023f, 0.040330f, -0.015041f, 0.004047f, -0.030208f, 0.013373f, 0.009449f, 0.030558f, -0.020615f, -0.058179f,
    0.006102f, -0.008882f, 0.028687f, 0.049256f, 0.088415f, 0.001781f, -0.010414f, 0.041676f, -0.015606f, 0.017153f,
    -0.039955f, -0.003030f, 0.034081f, 0.018751f, -0.034670f, -0.006850f, -0.008332f, 0.004698f, -0.039471f, -0.006835f,
    -0.003612f, 0.028965f, -0.028013f, 0.033504f, -0.040393f, 0.029105f, -0.023328f, 0.009169f, 0.026244f, -0.050374f,
    -0.019068f, 0.019364f, -0.021987f, -0.004449f, -0.041151f, 0.010428f, 0.130152f, 0.024061f, -0.007038f, 0.008406f,
    -0.024915f, -0.016925f, 0.060943f, -0.000190f, 0.007555f, 0.018225f, 0.019954f, 0.009543f, -0.004094f, -0.005388f,
    0.047448f, -0.034962f, -0.035071f, -0.014457f, -0.009984f, -0.018678f, 0.099231f, 0.005554f, -0.013986f, 0.027249f,
    0.053089f, 0.048135f, -0.016722f, 0.023031f, -0.022780f, 0.065607f, -0.076163f, 0.028430f, 0.024956f, 0.052338f,
    0.004823f, -0.002378f, -0.012657f, 0.022304f, 0.010533f, 0.036808f, 0.068729f, 0.007874f, 0.050375f, 0.059527f,
    0.013697f, -0.012848f, 0.000209f, -0.025964f, -0.040253f, -0.027436f, 0.008983f, -0.001751f, -0.054880f, 0.002904f,
    -0.069645f, 0.004171f, -0.000657f, 0.035075f, -0.031982f, -0.036129f, -0.006289f, -0.005197f, -0.023052f, 0.039888f,
    0.011844f, -0.052694f, -0.019322f, -0.063033f, 0.005250f, -0.058936f, -0.031900f, -0.003315f, -0.001908f, 0.011705f,
    -0.040530f, -0.031160f, 0.018503f, -0.006477f, 0.040994f, -0.013702f, 0.002935f, 0.002437f, -0.021783f, 0.015264f,
    0.022464f, 0.050665f, 0.052043f, 0.024667f, 0.013847f, 0.014537f, -0.023323f, -0.026070f, 0.033711f, -0.063998f,
    -0.009695f, 0.033445f, 0.078049f, 0.044387f, 0.013213f, 0.012357f, 0.030700f, 0.006772f, -0.002492f, 0.005043f,
    0.009138f, -0.000051f, 0.003168f, 0.011435f, 0.009697f, -0.020152f, 0.022847f, 0.001538f, 0.007970f, -0.008146f,
    -0.027824f, -0.023155f, -0.062319f, 0.004992f, -0.043531f, -0.077920f, 0.036372f, 0.028729f, 0.085613f, 0.033130f,
    0.038303f, 0.005701f, -0.012187f, -0.007612f, 0.052354f, 0.058075f, -0.019991f, -0.028044f, 0.018919f, 0.015977f,
    -0.072762f, -0.057534f, -0.005481f, -0.067997f, 0.028966f, -0.005441f, 0.025083f, -0.011517f, 0.000301f, -0.008569f,
    -0.004153f, -0.018336f, -0.049034f, -0.014741f, 0.002751f, -0.004536f, -0.015993f, 0.009991f, -0.031786f, -0.056697f,
    -0.010768f, -0.023951f, -0.009284f, 0.039685f, -0.083844f, 0.028600f, 0.093234f, -0.019724f, 0.022984f, 0.011159f,
    0.049157f, 0.017264f, -0.014914f, 0.020213f, 0.044388f, 0.019059f, -0.021003f, -0.026499f, -0.013587f, -0.025044f,
    -0.019458f, 0.030180f, 0.030460f, 0.003996f, -0.036837f, 0.029183f, 0.013934f, -0.060360f, -0.028497f, -0.018473f,
    0.013340f, -0.002325f, -0.062698f, -0.035086f, 0.013210f, -0.015268f, 0.014187f, -0.017461f, 0.048758f, 0.072259f,
    -0.055415f, -0.026687f, 0.007899f, 0.080060f, -0.059254f, 0.000003f, -0.003041f, -0.044235f, 0.047511f, -0.015426f,
    0.014569f, -0.052398f, 0.029709f, 0.013087f, 0.081661f, -0.007868f, -0.028605f, -0.039684f, 0.026673f, -0.027521f,
    -0.005386f, -0.003070f, 0.028567f, 0.046265f, 0.006770f, -0.039209f, -0.015604f, -0.034571f, 0.031811f, -0.054617f,
    0.078579f, -0.064284f, 0.012542f, 0.067142f, 0.007239f, -0.010780f, -0.012677f, -0.020088f, 0.011178f, -0.024169f,
    0.018715f, -0.043509f, -0.007429f, -0.013217f, 0.045952f, -0.003732f, 0.011034f, 0.021593f, -0.005692f, -0.017697f,
    0.047494f, -0.005179f, -0.000749f, 0.042369f, -0.023303f, 0.048599f, -0.070162f, -0.015241f, -0.040963f, 0.050908f,
    -0.016891f, -0.030557f, 0.028730f, 0.019392f, 0.012008f, 0.011984f, 0.021591f, 0.067486f, -0.060776f, 0.002995f,
    0.032304f, -0.015815f, -0.010422f, 0.001934f, -0.006971f, -0.000030f, 0.004931f, -0.063870f, 0.040980f, -0.016533f,
    -0.003099f, -0.010032f, -0.005544f, 0.006088f, -0.089056f, -0.049659f, 0.018724f, 0.011577f, -0.032818f, -0.000078f,
    0.005064f, -0.023234f, 0.058090f, -0.047019f, -0.031996f, -0.032814f, -0.027009f, 0.017248f, -0.056586f, -0.044325f,
    -0.040933f, 0.044308f, -0.000932f, 0.019431f, 0.023834f, 0.011363f, -0.005305f, 0.049164f, -0.048239f, -0.027562f,
    -0.047606f, 0.020458f, 0.028553f, 0.002090f, -0.001723f, 0.017896f, 0.051886f, 0.045439f, -0.010367f, 0.022544f,
    0.000892f, -0.042330f, 0.004621f, -0.020947f, 0.047912f, -0.039910f, 0.001276f, -0.028919f, 0.034916f, -0.008162f,
    0.083170f, -0.055268f, -0.033236f, 0.017445f, 0.010391f, 0.014938f, 0.004012f, -0.024868f, 0.005403f, -0.020313f,
    0.004954f, -0.023472f, -0.028937f, 0.012284f, -0.008533f, 0.025480f, -0.016579f, 0.007020f, -0.002902f, -0.005947f,
    0.027627f, 0.012261f, -0.006399f, -0.008503f, 0.007656f, -0.018618f, 0.002316f, 0.022757f, 0.004085f, 0.062463f,
    0.027198f, -0.067777f, -0.024515f, 0.038669f, 0.008752f, 0.018030f, -0.016293f, 0.054176f, 0.010877f, 0.059720f,
    0.032609f, -0.015252f, -0.029474f, -0.009637f, 0.060624f, 0.036395f, -0.055287f, 0.006599f, 0.016303f, 0.049499f,
    0.050361f, -0.001995f, -0.077013f, -0.055185f, -0.046148f, 0.001729f, -0.010393f, -0.021586f, 0.012805f, 0.026221f,
    -0.033119f, 0.000773f, -0.005158f, 0.009915f, -0.016930f, 0.023749f, -0.014645f, 0.008186f, -0.010027f, 0.008267f,
    0.005262f, 0.020452f, -0.002085f, -0.009792f, -0.004297f, -0.005023f, -0.048538f, 0.040000f, -0.036397f, 0.006031f,
    -0.043595f, 0.032990f, -0.029064f, 0.043348f, 0.004078f, 0.000288f, -0.030281f, 0.025470f, -0.033161f, -0.066876f,
    0.028329f, 0.041636f, -0.064681f, -0.053510f, -0.021167f, 0.044288f, -0.044663f, -0.013564f, 0.042073f, -0.031059f,
    -0.024850f, 0.001374f, 0.045180f, -0.068094f, 0.006201f, -0.009143f, -0.016986f, -0.007772f, 0.046349f, 0.010982f,
    0.023598f, -0.013340f, -0.027950f, 0.007901f, 0.018781f, -0.007059f, 0.005455f, -0.001051f, 0.038855f, 0.010293f,
    -0.003133f, 0.044508f, 0.017963f, 0.013555f, 0.011954f, -0.051348f, 0.034090f, -0.012740f, -0.005091f, 0.041115f,
    -0.052062f, -0.024707f, -0.021661f, 0.051329f, 0.023581f, 0.047651f, -0.029114f, 0.017262f, -0.010158f, -0.023850f,
    0.025607f, 0.016096f, -0.000312f, -0.039491f, 0.026091f, 0.037052f, 0.020461f, -0.009116f, -0.020311f, -0.055804f,
    -0.031912f, 0.045604f, 0.014733f, 0.052205f, 0.096632f, -0.057674f, 0.069939f, 0.025645f, 0.002225f, -0.024681f,
    0.006473f, -0.005767f, 0.008549f, -0.046130f, -0.015873f, -0.043021f, -0.004939f, -0.018241f, 0.013606f, 0.025553f,
    0.012175f, -0.013739f, 0.050298f, -0.018309f, 0.014956f, -0.039788f, 0.030510f, -0.020114f, 0.016587f, -0.044329f,
    -0.033935f, -0.009494f, -0.028755f, 0.036734f, 0.006689f, 0.037421f, -0.053463f, 0.061765f, 0.010799f, -0.007410f,
    -0.010084f, -0.010198f, 0.029408f, -0.011401f, -0.013357f, -0.024917f, -0.015900f, -0.039904f, 0.016317f, -0.018249f,
    0.022968f, -0.030029f, 0.013659f, -0.010421f, -0.017784f, -0.007648f, -0.015319f, -0.021956f, -0.014294f, -0.010292f,
    0.018149f, 0.020281f, -0.001786f, -0.003758f, -0.033173f, 0.021041f, -0.015950f, -0.007665f, 0.013210f, -0.034550f,
    0.023616f, -0.035421f, 0.000442f, -0.000408f, 0.003919f, 0.006367f, -0.071946f, -0.016846f, 0.017082f, -0.009839f,
    0.012759f, 0.013808f, -0.029167f, -0.016234f, -0.024616f, -0.061264f, -0.043556f, 0.003327f, 0.015011f, -0.013873f,
    0.019923f, -0.012875f, 0.011099f, 0.014795f, -0.018584f, 0.031497f, 0.042119f, 0.016488f, 0.006349f, 0.035169f,
    -0.025088f, 0.017627f, -0.022755f, -0.047790f, 0.044562f, -0.000217f, -0.030539f, -0.008495f, -0.004087f, -0.075595f,
    -0.009735f, -0.041985f, 0.058789f, -0.037538f, -0.006365f, -0.024222f, 0.005318f, -0.017473f, 0.008424f, -0.021911f,
    -0.032206f, 0.014562f, 0.013253f, -0.053043f, 0.053976f, 0.044030f, 0.052970f, 0.045795f, -0.007887f, -0.031846f,
    -0.053688f, 0.002761f, -0.068041f, -0.011611f, -0.011327f, 0.017920f, -0.047921f, 0.024498f, 0.022798f, -0.005872f,
    0.017909f, -0.018430f, -0.011289f, 0.029762f, 0.022335f, -0.030758f, -0.000817f, 0.003698f, -0.016393f, 0.062627f,
    -0.065903f, 0.003655f, -0.047853f, 0.014274f, -0.014095f, -0.030361f, -0.001415f, 0.039010f, -0.010033f, -0.040757f,
    -0.014671f, -0.008864f, -0.006574f, 0.014512f, -0.033205f, -0.041788f, -0.048493f, -0.006176f, -0.001517f, 0.065748f,
    0.035036f, -0.032516f, 0.026475f, -0.013028f, 0.028909f, -0.016835f, 0.037570f, 0.026973f, 0.030170f, 0.002334f,
    -0.019608f, 0.033049f, 0.040776f, -0.029286f, -0.002916f, -0.036145f, 0.003521f, 0.016200f, -0.039646f, -0.046038f,
    0.019905f, -0.039619f, -0.015228f, -0.017693f, 0.014616f, -0.019220f, -0.036058f, -0.025793f, -0.042817f, -0.037251f,
    -0.024877f, -0.002823f, 0.014348f, 0.026183f, 0.040475f, -0.024387f, 0.015273f, 0.022034f, 0.007485f, -0.047106f,
    -0.024608f, 0.026309f, -0.008291f, -0.036131f, -0.004826f, -0.024041f, 0.001141f, -0.002929f, 0.046750f, -0.024184f,
    0.011110f, -0.011260f, -0.026409f, -0.006699f, -0.032293f, -0.020814f, -0.005373f, 0.036473f, -0.001581f, -0.019250f,
    0.067428f, 0.079046f, -0.022571f, 0.077434f, -0.001934f, 0.007782f, -0.024225f, 0.005484f, 0.023219f, -0.032408f,
    0.033512f, 0.019227f, 0.028630f, 0.011927f, 0.040859f, -0.010747f, -0.028278f, 0.020596f, 0.008311f, 0.015084f,
    0.013174f, 0.005629f, 0.028533f, 0.017668f, 0.045149f, -0.092764f, -0.051113f, -0.052687f, 0.065149f, -0.006161f,
    -0.073519f, 0.009591f, 0.037900f, -0.009752f, 0.014943f, -0.045842f, -0.008174f, 0.021898f, -0.003114f, 0.004690f,
    -0.004248f, 0.001011f, -0.055039f, -0.008920f, -0.016324f, -0.013549f, 0.004688f, -0.027664f, 0.035780f, 0.009964f,
    -0.023980f, 0.002025f, -0.016111f, 0.011490f, 0.033064f, -0.013040f, -0.056606f, 0.059324f, 0.035817f, 0.022455f,
    0.000768f, -0.063798f, 0.032007f, -0.064272f, 0.007661f, -0.027050f, 0.040943f, -0.029191f, -0.017968f, -0.052817f,
    -0.027050f, 0.071154f, -0.001722f, -0.029346f, -0.020656f, 0.000308f, -0.017264f, -0.048100f, 0.023514f, -0.014225f,
    -0.106520f, 0.016978f, 0.031238f, -0.026767f, 0.045688f, 0.021427f, 0.050886f, 0.048518f, -0.072182f, 0.065150f,
    -0.012428f, 0.035680f, 0.014875f, 0.000380f, -0.040064f, -0.013913f, -0.036911f, -0.041812f, 0.036338f, 0.022257f,
    0.038933f, 0.012972f, 0.032614f, -0.074145f, -0.008370f, 0.007391f, 0.015239f, 0.045263f, 0.010205f, -0.010250f,
    -0.018728f, -0.011062f, -0.090481f, -0.001391f, -0.034737f, 0.020443f, 0.020058f, -0.007695f, 0.088236f, 0.034496f,
    0.006394f, 0.046859f, 0.027816f, -0.011410f, -0.004832f, 0.036179f, 0.053715f, 0.009128f, 0.043771f, -0.053736f,
    0.065988f, -0.034110f, -0.023459f, -0.048788f, -0.024399f, -0.014900f, -0.003774f, 0.029744f, -0.042810f, 0.014065f,
    -0.009617f, -0.068358f, -0.023960f, 0.040936f, 0.048847f, -0.007129f, 0.030672f, -0.013393f, 0.026622f, 0.014250f,
    0.047635f, -0.040843f, 0.017493f, 0.037231f, 0.013159f, 0.011880f, 0.015359f, -0.000548f, 0.013910f, -0.041233f,
    0.009656f, -0.028464f, -0.013170f, 0.034626f, -0.009576f, -0.020186f, 0.018955f, -0.020745f, -0.030024f, 0.019316f,
    0.064013f, 0.000670f, -0.010046f, 0.014045f, 0.034447f, -0.025348f, -0.034533f, -0.020672f, 0.007592f, -0.002408f,
    0.051803f, 0.052523f, -0.057379f, 0.017148f, 0.028204f, -0.025913f, -0.034472f, -0.019659f, -0.006444f, 0.030825f,
    -0.049785f, 0.065856f, 0.003662f, -0.030230f, -0.051083f, 0.036712f, 0.019292f, -0.039474f, 0.026698f, 0.071504f,
    0.009878f, 0.011989f, 0.004653f, 0.007173f, 0.010986f, 0.001585f, -0.010678f, 0.011197f, 0.007858f, -0.006207f,
    0.020199f, 0.046668f, 0.050840f, 0.056253f, -0.053055f, -0.033716f, 0.030020f, 0.025423f, 0.016295f, -0.015909f,
    0.030982f, -0.018511f, -0.007142f, -0.025239f, 0.078361f, 0.057569f, -0.026545f, -0.023577f, 0.012402f, 0.017137f,
    0.019083f, 0.018009f, -0.018930f, -0.029846f, -0.058811f, -0.011544f, -0.039608f, 0.027733f, -0.003550f, -0.013602f,
    0.019138f, -0.012061f, 0.047686f, -0.020311f, -0.029161f, -0.033876f, -0.011249f, -0.008046f, -0.004864f, 0.011462f,
    0.005763f, 0.045167f, -0.007718f, 0.023312f, -0.058747f, -0.045663f, 0.013110f, 0.010763f, 0.012816f, -0.037889f,
    -0.035654f, 0.007561f, -0.008753f, 0.065181f, 0.025058f, 0.057632f, -0.006537f, -0.028096f, 0.015010f, -0.004885f,
    -0.001888f, 0.045147f, 0.078909f, 0.015105f, 0.010510f, -0.038268f, -0.014473f, 0.042018f, -0.017950f, -0.096214f,
    -0.036831f, -0.053235f, 0.000612f, 0.050982f, 0.050322f, -0.003329f, -0.024027f, -0.021520f, -0.059233f, -0.087380f,
    -0.015188f, 0.047341f, 0.002394f, -0.039237f, -0.008117f, -0.003848f, -0.063185f, -0.031398f, -0.030686f, -0.027293f,
    0.009811f, -0.023998f, 0.004870f, 0.058766f, -0.017780f, -0.022728f, -0.018616f, 0.003249f, 0.033564f, -0.001212f,
    0.053403f, 0.007038f, -0.086323f, -0.093596f, 0.010279f, -0.000647f, 0.005405f, -0.002029f, -0.020036f, -0.009911f,
    -0.038705f, 0.058449f, 0.076434f, -0.035087f, 0.002170f, 0.019504f, 0.055330f, -0.005176f, -0.014068f, 0.008791f,
    0.038833f, 0.033411f, -0.028825f, 0.019601f, -0.015863f, 0.026400f, 0.007078f, 0.002421f, -0.036294f, 0.021042f,
    -0.025089f, 0.002267f, -0.010219f, -0.023989f, 0.009551f, 0.000842f, -0.016176f, 0.040894f, 0.011939f, 0.030211f,
    0.045859f, -0.067438f, 0.057725f, 0.034555f, 0.007976f, 0.024945f, 0.029530f, 0.086137f, 0.008324f, -0.012914f,
    0.008214f, -0.039333f, 0.020957f, -0.012760f, -0.033075f, 0.024191f, -0.019957f, -0.011728f, 0.009776f, 0.003794f,
    -0.008598f, 0.012598f, 0.002648f, 0.023448f, -0.020910f, 0.012188f, -0.038339f, -0.076068f, -0.044738f, -0.007160f,
    -0.020342f, -0.014112f, 0.000722f, -0.018630f, 0.003547f, 0.044153f, 0.010849f, -0.003980f, 0.008184f, 0.033468f,
    0.014071f, -0.010104f, -0.005958f, -0.010648f, -0.014757f, -0.015918f, -0.000131f, 0.014319f, 0.008586f, 0.016480f,
    0.006553f, 0.002265f, -0.009883f, -0.000298f, -0.006301f, 0.015353f, 0.013687f, -0.026250f, -0.046249f, -0.015209f,
    -0.064352f, -0.027731f, 0.007958f, 0.058277f, -0.042685f, -0.011960f, 0.004803f, -0.010630f, 0.041512f, 0.027820f,
    0.023580f, -0.021111f, 0.069824f, 0.006848f, -0.024491f, 0.020074f, -0.051069f, 0.007189f, 0.018010f, -0.028329f,
    -0.019982f, 0.029017f, -0.024469f, -0.000173f, 0.040140f, -0.009802f, 0.002821f, 0.014762f, -0.012310f, -0.007179f,
    0.019232f, -0.011119f, -0.035857f, -0.005155f, 0.014826f, -0.027583f, -0.058140f, -0.011672f, 0.018872f, 0.054435f,
    -0.018631f, -0.058638f, -0.019217f, 0.005156f, -0.046385f, 0.007996f, 0.038494f, -0.019228f, 0.035883f, 0.013974f,
    -0.011928f, 0.013766f, -0.018687f, -0.043229f, 0.104123f, 0.025369f, -0.067192f, -0.006284f, -0.009062f, -0.001149f,
    -0.007221f, 0.039408f, -0.011140f, -0.051016f, -0.009308f, -0.030967f, 0.023914f, -0.046466f, 0.056982f, 0.019056f,
    0.003571f, 0.008238f, 0.026138f, -0.018387f, 0.001941f, 0.005305f, -0.028245f, 0.006354f, 0.032309f, -0.000059f,
    -0.036531f, 0.027650f, 0.011188f, 0.027656f, 0.051165f, 0.016925f, -0.017602f, 0.006911f, -0.003469f, -0.023288f,
    -0.002236f, 0.001010f, 0.027878f, 0.026301f, -0.012040f, 0.019713f, -0.060449f, -0.026186f, 0.001714f, -0.025047f,
    -0.011600f, -0.003755f, -0.064065f, -0.016313f, 0.065730f, 0.005061f, 0.040633f, -0.025130f, 0.002582f, 0.017605f,
    -0.010967f, -0.029117f, 0.023255f, 0.010903f, -0.009102f, -0.003047f, 0.029250f, -0.046332f, -0.110093f, -0.003641f,
    0.043323f, 0.029542f, -0.018227f, 0.036253f, -0.003272f, 0.001697f, -0.044385f, 0.074553f, -0.004017f, 0.017641f,
    -0.011301f, 0.005816f, 0.056192f, -0.037202f, 0.036240f, -0.020245f, 0.042211f, 0.014385f, 0.017500f, -0.052967f,
    0.020693f, -0.000830f, 0.013956f, -0.042654f, -0.007236f, 0.028520f, 0.032829f, 0.023040f, -0.037713f, 0.023073f,
    0.018629f, -0.025343f, 0.005421f, 0.039805f, 0.044887f, 0.000846f, -0.035774f, -0.042842f, 0.019011f, 0.028106f,
    -0.027948f, 0.003126f, -0.026412f, -0.014565f, 0.002725f, -0.026066f, 0.007500f, 0.036026f, -0.008185f, -0.007443f,
    -0.036080f, -0.027351f, -0.028706f, 0.010300f, -0.023790f, -0.023828f, 0.012421f, 0.038223f, -0.037509f, -0.000867f,
    -0.016643f, -0.025472f, 0.020077f, -0.007199f, 0.048276f, 0.016380f, -0.001795f, 0.027954f, -0.013562f, -0.008557f,
    -0.054147f, -0.015413f, 0.042429f, -0.002317f, -0.010503f, 0.003143f, 0.021275f, 0.063830f, 0.030051f, 0.009595f,
    0.037826f, 0.011406f, 0.063428f, 0.024527f, 0.038409f, -0.006408f, -0.008943f, 0.006381f, -0.115069f, 0.009482f,
    0.005888f, 0.006568f, 0.002897f, -0.015615f, -0.001754f, 0.029385f, -0.028692f, 0.003295f, -0.052762f, 0.005035f,
    -0.035406f, -0.006426f, 0.035876f, 0.011071f, 0.056882f, 0.046055f, -0.038805f, 0.012048f, 0.011426f, -0.043186f,
    -0.016761f, -0.014525f, -0.008506f, -0.082752f, 0.025989f, -0.034092f, -0.000386f, -0.000461f, 0.001094f, -0.034746f,
    0.009436f, -0.019658f, 0.008992f, -0.043446f, 0.006892f, -0.035095f, -0.005895f, -0.012178f, -0.040077f, 0.039203f,
    0.015038f, -0.010022f, 0.006251f, 0.021409f, 0.001052f, 0.043122f, 0.029475f, 0.013085f, 0.019109f, -0.007090f,
    -0.006518f, 0.069822f, 0.018529f, -0.048613f, 0.073473f, -0.035219f, -0.026177f, -0.006872f, -0.047642f, 0.062670f,
    0.024320f, 0.011563f, 0.039080f, -0.016393f, -0.008243f, -0.030157f, -0.030879f, 0.056004f, 0.042372f, 0.009409f,
    0.028868f, -0.018520f, 0.107435f, -0.008351f, -0.021347f, -0.034178f, -0.064654f, 0.006877f, -0.059104f, -0.047992f,
    0.049008f, -0.058802f, 0.016565f, -0.028757f, 0.022273f, -0.012386f, 0.000129f, 0.019486f, 0.019159f, -0.006093f,
    -0.024188f, -0.044160f, -0.027416f, 0.036984f, -0.087263f, -0.027958f, 0.008404f, 0.003268f, 0.006360f, 0.022484f,
    0.069598f, 0.020209f, -0.011000f, -0.013154f, -0.026029f, 0.014880f, -0.003867f, -0.075387f, 0.033607f, -0.019092f,
    0.055582f, 0.039295f, 0.013415f, -0.011182f, -0.007589f, 0.002606f, -0.007748f, -0.033539f, -0.000454f, -0.000421f,
    0.005144f, 0.010163f, -0.053663f, -0.008707f, -0.001523f, 0.003191f, 0.057872f, 0.011888f, -0.015405f, 0.000963f,
    -0.081071f, -0.008263f, -0.052057f, -0.013202f, 0.051586f, 0.031941f, 0.074590f, -0.000556f, 0.022071f, 0.018410f,
    0.009401f, -0.051187f, 0.000014f, -0.028486f, 0.014399f, 0.022904f, 0.065202f, 0.017142f, -0.066229f, -0.004031f,
    -0.042704f, -0.013538f, 0.066024f, 0.014339f, 0.030127f, 0.044393f, 0.035924f, 0.030523f, 0.007245f, 0.029951f,
    0.004051f, -0.001350f, 0.008204f, 0.007211f, 0.008201f, 0.019770f, -0.005278f, -0.003370f, 0.003139f, -0.013787f,
    -0.042815f, 0.023710f, 0.024395f, 0.012624f, -0.040773f, 0.004328f, -0.013953f, -0.037359f, -0.038001f, 0.043945f,
    -0.053022f, -0.086579f, -0.048863f, 0.019700f, -0.018924f, -0.014727f, -0.001760f, 0.010839f, -0.043679f, 0.010280f,
    -0.001861f, -0.018179f, 0.003450f, -0.015705f, -0.005001f, -0.008197f, 0.007334f, 0.023292f, 0.038388f, -0.012588f,
    0.022114f, 0.051196f, 0.004237f, -0.040801f, 0.003330f, -0.048320f, 0.015905f, 0.028244f, 0.001551f, -0.004697f,
    -0.002856f, 0.036654f, -0.025168f, 0.072409f, 0.040138f, 0.036207f, 0.035893f, 0.015599f, 0.042749f, 0.009693f,
    0.032119f, -0.016392f, 0.006096f, 0.001768f, -0.004179f, -0.028086f, 0.001530f, -0.027617f, -0.035166f, -0.008522f,
    0.018021f, 0.022417f, 0.003032f, 0.013757f, 0.008656f, -0.001132f, 0.032930f, -0.011015f, 0.055220f, -0.017391f,
    -0.024996f, 0.020947f, -0.070713f, 0.031836f, -0.032186f, 0.015976f, 0.025453f, -0.011644f, 0.010345f, -0.005237f,
    0.021073f, -0.015213f, 0.013992f, -0.068109f, 0.020640f, 0.000530f, 0.016862f, -0.013688f, -0.022697f, -0.008824f,
    -0.051889f, 0.022451f, -0.073924f, -0.000298f, -0.049172f, -0.044353f, 0.001181f, -0.009192f, -0.001598f, 0.080619f,
    0.017180f, -0.025908f, -0.013777f, 0.052453f, -0.001083f, 0.000860f, -0.086948f, -0.058769f, 0.027654f, 0.004283f,
    0.029801f, -0.081538f, 0.043040f, -0.000241f, -0.002568f, 0.069655f, 0.063130f, -0.046813f, 0.005272f, -0.031015f,
    -0.006972f, -0.024280f, 0.005068f, 0.009156f, -0.006136f, -0.066519f, -0.019173f, 0.021648f, -0.019064f, -0.014515f,
    0.013584f, -0.036168f, 0.003496f, 0.016101f, 0.003525f, 0.056059f, -0.014912f, 0.053436f, -0.048189f, -0.031613f,
    -0.019341f, 0.045496f, 0.021337f, 0.042467f, -0.016751f, -0.045238f, 0.025441f, 0.016723f, -0.024043f, -0.017608f,
    -0.008389f, -0.052110f, 0.013856f, 0.007538f, 0.036044f, -0.062372f, 0.017180f, -0.013879f, 0.051308f, 0.043005f,
    0.037224f, -0.057284f, -0.048965f, 0.033763f, 0.069954f, -0.001984f, 0.002481f, -0.087127f, 0.010802f, -0.034182f,
    0.071465f, 0.085931f, -0.030932f, -0.027908f, -0.018884f, -0.014373f, 0.015040f, -0.024070f, -0.016992f, -0.052397f,
    0.028336f, -0.011300f, -0.045048f, 0.020469f, -0.036152f, -0.018919f, 0.049903f, -0.006793f, 0.012760f, 0.022390f,
    0.021332f, 0.040811f, -0.061087f, 0.014611f, -0.013828f, -0.006157f, 0.032217f, -0.003303f, -0.016384f, 0.049035f,
    0.044938f, -0.025816f, 0.031658f, 0.000246f, 0.034335f, -0.001269f, 0.028148f, -0.044796f, 0.029964f, -0.021910f,
    -0.027284f, 0.012767f, -0.022312f, -0.004974f, -0.022106f, 0.010160f, -0.011858f, -0.023335f, 0.002703f, -0.019893f,
    0.021590f, 0.056242f, 0.052467f, 0.044371f, 0.008427f, -0.038097f, -0.007645f, 0.012490f, -0.025332f, 0.006156f,
    -0.022855f, -0.031687f, 0.039643f, 0.051390f, 0.023920f, 0.063179f, -0.027624f, 0.057282f, -0.028009f, 0.051110f,
    0.061167f, -0.008445f, -0.003506f, -0.005301f, -0.012260f, -0.013257f, 0.015127f, 0.013095f, -0.030428f, -0.032435f,
    -0.006901f, 0.021051f, -0.015557f, -0.013581f, -0.037400f, 0.016504f, -0.032708f, -0.009882f, -0.046034f, -0.013372f,
    -0.021824f, 0.030276f, -0.007464f, -0.020641f, -0.010892f, -0.019049f, 0.006294f, 0.008477f, 0.028031f, 0.004696f,
    -0.008110f, -0.009699f, 0.033248f, -0.001530f, 0.026548f, 0.024610f, -0.013248f, -0.001443f, -0.046718f, 0.040361f,
    0.034478f, -0.031902f, -0.046266f, -0.010055f, 0.019300f, -0.009699f, 0.023554f, 0.000315f, 0.059408f, -0.002863f,
    0.016332f, 0.006969f, -0.011894f, -0.004759f, 0.046875f, -0.032637f, 0.040002f, 0.011277f, 0.033090f, 0.035583f,
    0.009236f, -0.001281f, 0.005623f, -0.031375f, 0.015819f, -0.016703f, -0.007258f, 0.007961f, -0.035705f, 0.032216f,
    0.004416f, -0.003908f, 0.013988f, 0.005761f, 0.014562f, 0.007448f, 0.013566f, -0.008931f, -0.006246f, 0.027761f,
    0.012296f, -0.028248f, -0.060720f, -0.027059f, 0.024906f, 0.027443f, 0.009404f, 0.081348f, -0.035080f, 0.044195f,
    -0.012607f, 0.057103f, 0.049632f, 0.028818f, -0.003442f, -0.027171f, -0.025372f, -0.021915f, 0.022431f, -0.030499f,
    -0.039042f, 0.001854f, -0.033476f, 0.030440f, 0.029705f, 0.050992f, 0.081178f, -0.020213f, 0.093845f, 0.002229f,
    -0.016408f, -0.037249f, 0.022475f, -0.014669f, -0.003605f, 0.022632f, -0.017516f, -0.029736f, 0.059491f, 0.005413f,
    -0.014894f, -0.011205f, 0.031244f, 0.040482f, -0.023849f, -0.012616f, 0.026076f, 0.009901f, -0.033965f, -0.029097f,
    0.018061f, 0.055867f, 0.018655f, -0.065777f, -0.006545f, -0.053980f, -0.036987f, -0.037854f, 0.060275f, -0.010617f,
    -0.006822f, 0.024353f, 0.019010f, -0.053285f, 0.023051f, -0.043789f, 0.017601f, 0.013900f, 0.031119f, -0.046487f,
    0.010726f, 0.016654f, 0.046249f, 0.034158f, -0.062153f, 0.027680f, -0.058298f, 0.015994f, 0.067972f, 0.030085f,
    -0.003950f, 0.009353f, 0.037196f, 0.068778f, -0.046330f, 0.002628f, -0.038988f, -0.033226f, 0.020012f, 0.007592f,
    0.035650f, -0.001804f, 0.011565f, 0.016795f, 0.021953f, -0.005399f, 0.048145f, -0.009092f, -0.015846f, 0.019900f,
    0.033055f, -0.040672f, 0.006931f, -0.008737f, -0.023953f, 0.028393f, -0.013074f, -0.029311f, -0.009234f, 0.000756f,
    -0.055045f, 0.041113f, 0.028201f, 0.028268f, -0.008789f, 0.097050f, -0.034185f, 0.027382f, 0.025903f, -0.022048f,
    0.005764f, -0.046574f, 0.041729f, 0.019120f, -0.018396f, -0.004306f, 0.051932f, -0.005210f, 0.025326f, 0.019647f,
    0.037339f, -0.002508f, 0.003550f, -0.014009f, -0.023289f, 0.070628f, 0.012482f, 0.004589f, 0.106088f, -0.051680f,
    -0.022424f, -0.022763f, -0.011438f, 0.051870f, -0.001514f, -0.015566f, -0.007012f, -0.036823f, -0.081805f, -0.037541f,
    -0.043212f, 0.004650f, -0.066585f, -0.041267f, 0.061551f, 0.026810f, 0.004957f, 0.020466f, -0.003855f, -0.016995f,
    -0.071259f, -0.033437f, 0.015506f, 0.031172f, 0.016488f, -0.015891f, -0.024432f, 0.052038f, -0.053292f, 0.035374f,
    -0.059630f, -0.008803f, 0.033685f, -0.027576f, -0.003847f, -0.065967f, -0.005148f, -0.026461f, 0.016199f, -0.013314f,
    0.018659f, -0.009155f, 0.014840f, -0.023581f, 0.026013f, 0.014751f, 0.045308f, 0.036266f, -0.022366f, 0.029892f,
    0.057782f, 0.017844f, 0.018692f, -0.039437f, -0.063039f, 0.010331f, 0.018235f, -0.041985f, 0.015653f, 0.014115f,
    -0.073682f, 0.046973f, 0.065386f, -0.025782f, 0.018555f, -0.014833f, 0.033127f, 0.002131f, -0.039956f, -0.035929f,
    0.017879f, 0.018125f, 0.050426f, -0.041916f, 0.017778f, 0.007688f, -0.016313f, 0.001543f, -0.041547f, 0.000337f,
    0.000033f, -0.020136f, -0.001164f, -0.054371f, 0.029209f, 0.022727f, 0.033224f, 0.004349f, 0.002697f, -0.010414f,
    -0.021939f, -0.012402f, -0.046633f, 0.040964f, -0.075051f, 0.015041f, 0.006673f, 0.024763f, 0.014227f, 0.025424f,
    -0.024198f, -0.050654f, -0.014520f, -0.023754f, 0.035689f, -0.039358f, -0.010361f, -0.042022f, -0.011813f, -0.022748f,
    -0.060534f, 0.024801f, -0.020744f, -0.003900f, -0.060056f, 0.024384f, -0.003740f, 0.035405f, 0.021015f, 0.052519f,
    0.031606f, 0.005738f, 0.002273f, 0.007904f, 0.067100f, 0.012378f, 0.048320f, 0.034670f, -0.032634f, 0.017293f,
    0.027329f, -0.034350f, 0.023263f, 0.056828f, 0.008672f, 0.056930f, -0.043577f, -0.022245f, -0.059306f, -0.003349f,
    -0.026798f, 0.067824f, 0.001616f, 0.004953f, 0.031316f, 0.012424f, 0.071474f, 0.017454f, -0.000930f, 0.004689f,
    -0.010074f, 0.047796f, -0.013227f, 0.003329f, -0.027370f, 0.032711f, -0.031610f, 0.070702f, 0.021404f, 0.066478f,
    0.014982f, -0.024281f, -0.038360f, -0.025346f, 0.018653f, 0.000342f, -0.035646f, 0.025533f, -0.030692f, 0.004508f,
    0.023080f, 0.024697f, -0.013568f, 0.031109f, 0.039868f, -0.012502f, -0.037771f, 0.002505f, 0.003649f, -0.033181f,
    0.022143f, -0.019739f, 0.023375f, -0.008426f, -0.021049f, -0.006057f, 0.049743f, -0.036137f, 0.036816f, -0.002092f,
    0.024853f, 0.006555f, -0.054385f, 0.008272f, -0.079852f, -0.063228f, 0.034954f, -0.036534f, 0.003824f, -0.007155f,
    -0.007747f, -0.050291f, -0.006060f, 0.040515f, 0.005376f, -0.011065f, -0.010806f, -0.019323f, 0.051504f, -0.007660f,
    0.006661f, -0.049234f, -0.010022f, 0.037603f, -0.024426f, 0.009528f, 0.009973f, -0.010491f, 0.005898f, 0.000118f,
    0.002215f, 0.004543f, -0.109125f, 0.027074f, 0.059446f, -0.022342f, 0.010209f, 0.033283f, -0.000761f, 0.042437f,
    0.005358f, 0.011736f, -0.016076f, 0.016094f, -0.028532f, 0.005907f, 0.003006f, 0.012218f, 0.038495f, -0.009767f,
    -0.026552f, -0.007133f, -0.040085f, 0.020348f, -0.036681f, -0.024008f, -0.008372f, -0.009713f, 0.033921f, 0.011879f,
    -0.031078f, 0.020931f, -0.033411f, 0.037742f, -0.102479f, 0.059068f, 0.005926f, -0.028919f, 0.034062f, -0.036363f,
    -0.043982f, -0.034417f, -0.002152f, -0.051332f, 0.011045f, -0.020226f, -0.041437f, -0.017576f, 0.023311f, -0.059922f,
    -0.003799f, -0.018583f, 0.016106f, 0.021549f, 0.057854f, 0.006017f, -0.010726f, 0.067335f, -0.011299f, 0.001789f,
    0.070549f, 0.016537f, -0.033086f, -0.017075f, -0.006842f, 0.056575f, 0.061209f, -0.022069f, -0.030387f, -0.005228f,
    0.004927f, 0.003704f, 0.019884f, -0.063854f, 0.014003f, -0.015646f, -0.003510f, 0.019694f, 0.031628f, -0.018221f,
    -0.010871f, 0.011276f, 0.085913f, -0.003139f, 0.001071f, -0.007400f, 0.017794f, 0.026157f, -0.028071f, -0.043525f,
    0.049111f, -0.040214f, 0.078719f, 0.018098f, 0.000521f, -0.016555f, 0.022095f, -0.048075f, -0.027468f, -0.059275f,
    0.021184f, 0.008613f, 0.031583f, 0.037152f, -0.023316f, -0.021667f, 0.017689f, -0.023370f, 0.023570f, 0.005057f,
    -0.021477f, -0.006588f, -0.007231f, 0.031896f, 0.011036f, -0.002048f, -0.023134f, -0.013154f, -0.046717f, 0.002243f,
    0.001428f, -0.018525f, 0.025800f, 0.022867f, -0.040093f, -0.032617f, -0.018919f, -0.088909f, 0.006604f, -0.007884f,
    0.026110f, 0.009494f, -0.014075f, 0.039703f, -0.039951f, -0.008128f, 0.048597f, -0.018031f, 0.007058f, -0.052406f,
    0.017334f, -0.013806f, 0.009166f, -0.023504f, -0.026103f, -0.004649f, -0.011935f, -0.010199f, -0.013043f, 0.008253f,
    0.001476f, 0.005945f, 0.018159f, -0.026059f, -0.030064f, 0.005063f, 0.041745f, -0.018924f, -0.012138f, 0.059719f,
    -0.018744f, -0.039082f, -0.029640f, 0.026607f, 0.018388f, -0.008378f, 0.024420f, -0.001479f, -0.004584f, 0.072523f,
    0.014770f, 0.004720f, 0.058339f, -0.000102f, -0.000387f, -0.018265f, -0.031053f, 0.031770f, -0.039034f, 0.005666f,
    0.038335f, -0.001306f, 0.007766f, -0.011567f, 0.017390f, -0.029976f, -0.027004f, 0.011951f, 0.014196f, 0.023377f,
    -0.031244f, -0.005037f, -0.035282f, -0.003700f, -0.053643f, 0.032770f, 0.032492f, -0.036493f, -0.023188f, 0.057063f,
    0.012816f, -0.038802f, -0.015326f, 0.020655f, 0.030442f, -0.006593f, -0.022073f, -0.013256f, 0.019905f, -0.075267f,
    0.045269f, -0.010762f, -0.004827f, -0.016568f, 0.050500f, 0.023469f, 0.032588f, -0.035914f, -0.004406f, -0.059846f,
    0.030747f, -0.010553f, 0.000967f, -0.019424f, -0.035807f, 0.018726f, 0.012468f, 0.032225f, 0.040919f, 0.018539f,
    -0.018304f, 0.042817f, -0.046418f, -0.022496f, -0.013039f, -0.031632f, -0.012529f, -0.022191f, -0.037817f, 0.068648f,
    -0.001396f, -0.038843f, 0.010183f, 0.026023f, 0.064339f, 0.006754f, -0.006842f, 0.004167f, -0.027824f, -0.012408f,
    0.002766f, 0.011992f, -0.009510f, 0.006094f, 0.001532f, 0.076116f, 0.027963f, 0.023657f, -0.005725f, 0.025199f,
    0.050471f, -0.000002f, 0.023671f, 0.016441f, -0.019513f, -0.025021f, 0.011169f, -0.035680f, -0.094208f, 0.010113f,
    0.019862f, 0.010130f, 0.093770f, -0.015751f, 0.034555f, 0.011356f, -0.012451f, 0.047116f, 0.035033f, 0.012207f,
    0.031603f, 0.024191f, -0.055639f, 0.073944f, -0.001095f, 0.014089f, -0.025515f, -0.004223f, -0.015428f, -0.020207f,
    -0.028580f, -0.010187f, -0.017346f, 0.023926f, 0.009275f, -0.068020f, 0.029151f, -0.016989f, 0.048351f, -0.007998f,
    -0.021012f, -0.000144f, 0.008361f, 0.018469f, -0.008187f, 0.042521f, -0.020940f, -0.026841f, 0.069470f, 0.023917f,
    -0.026350f, -0.011544f, -0.047529f, -0.017451f, -0.022829f, -0.005455f, 0.070872f, 0.000079f, 0.001621f, -0.007026f,
    -0.052733f, 0.046432f, 0.005821f, -0.030478f, 0.007963f, -0.027320f, 0.013222f, 0.062508f, 0.010017f, -0.018787f,
    0.016687f, 0.007822f, 0.025284f, -0.024044f, 0.014036f, 0.017306f, -0.046640f, -0.002237f, 0.019215f, 0.006325f,
    -0.060970f, -0.023905f, -0.041228f, 0.014921f, 0.079415f, -0.062924f, -0.017473f, -0.038253f, 0.027774f, -0.000670f,
    -0.019196f, -0.032821f, 0.021798f, -0.076233f, -0.045001f, -0.048143f, 0.041027f, 0.015095f, -0.047602f, -0.036735f,
    0.012315f, 0.055452f, -0.017886f, 0.029945f, 0.037385f, -0.010022f, 0.034026f, 0.014148f, -0.022514f, -0.027049f,
    -0.126768f, 0.025145f, 0.012976f, -0.015684f, 0.066777f, -0.040176f, 0.018694f, 0.002191f, 0.018037f, 0.010092f,
    -0.027287f, 0.021304f, -0.038269f, -0.035674f, -0.026580f, 0.036268f, -0.089242f, 0.016961f, 0.017825f, 0.010937f,
    -0.024430f, -0.107146f, 0.021510f, 0.031296f, -0.005514f, 0.004882f, 0.042775f, -0.049104f, -0.011632f, 0.011549f,
    -0.012937f, -0.001283f, -0.059436f, -0.034389f, 0.015850f, 0.024287f, 0.024915f, 0.044623f, -0.045459f, -0.034108f,
    -0.012767f, 0.013304f, 0.024132f, -0.031824f, 0.007190f, -0.038339f, -0.005919f, 0.072861f, 0.062020f, 0.057447f,
    0.013668f, -0.017509f, 0.000093f, -0.085669f, -0.013246f, 0.002722f, 0.019042f, -0.038077f, -0.034190f, -0.021600f,
    0.011059f, -0.004645f, -0.006673f, 0.017462f, -0.053435f, 0.009109f, -0.037719f, 0.001247f, -0.019432f, 0.006673f,
    -0.025153f, -0.014567f, -0.052031f, 0.017165f, 0.020854f, -0.009303f, -0.014811f, -0.029247f, -0.021729f, 0.035048f,
    -0.035162f, -0.039861f, -0.001852f, 0.001950f, -0.062804f, 0.032104f, 0.015826f, -0.047399f, 0.008311f, 0.034232f,
    0.013391f, -0.034335f, 0.000509f, 0.020665f, 0.014708f, -0.013932f, 0.022026f, 0.019580f, 0.021315f, -0.033290f,
    0.019155f, 0.004537f, 0.038185f, -0.001337f, -0.019193f, -0.035485f, -0.014110f, -0.009133f, -0.038164f, 0.039291f,
    -0.010702f, 0.003425f, -0.031311f, 0.089441f, -0.019340f, -0.024582f, -0.052883f, -0.056702f, -0.035476f, -0.031713f,
    -0.033138f, -0.036948f, -0.034897f, -0.026986f, 0.019283f, 0.032209f, 0.008121f, 0.035553f, 0.004415f, 0.035350f,
    0.012960f, 0.053607f, 0.009160f, -0.033932f, 0.011212f, -0.020746f, 0.009629f, -0.047152f, -0.010297f, 0.020719f,
    0.021428f, -0.043913f, 0.047265f, -0.044311f, -0.045414f, 0.005652f, 0.004370f, -0.010018f, 0.008082f, 0.055067f,
    -0.039285f, 0.011329f, -0.024931f, -0.035057f, 0.069616f, 0.002206f, 0.004096f, 0.021682f, 0.000757f, -0.033705f,
    -0.049721f, 0.013759f, 0.017088f, 0.020058f, 0.028992f, -0.023464f, -0.066870f, -0.006667f, -0.016140f, -0.093329f,
    -0.018997f, 0.010345f, -0.008669f, 0.032968f, -0.029192f, 0.023183f, 0.000905f, -0.009538f, -0.031711f, -0.008896f,
    0.015436f, 0.006738f, -0.022546f, 0.005040f, 0.000826f, 0.007578f, 0.028175f, 0.007367f, -0.021047f, -0.052563f,
    -0.041110f, 0.029399f, 0.041554f, 0.007466f, 0.046651f, -0.011729f, 0.025446f, 0.022608f, -0.060618f, 0.021014f,
    -0.041049f, -0.010759f, -0.013849f, -0.000101f, -0.000873f, -0.021251f, 0.020967f, 0.024815f, 0.034814f, -0.059334f,
    -0.016777f, 0.042865f, 0.006681f, -0.048499f, -0.019846f, 0.000077f, 0.013358f, -0.024326f, 0.028211f, 0.023754f,
    -0.020152f, -0.025348f, -0.021454f, 0.027546f, 0.004945f, 0.003596f, 0.019780f, -0.032526f, -0.010343f, 0.025727f,
    0.008564f, 0.001594f, -0.043849f, -0.001058f, 0.029238f, -0.001211f, -0.018145f, -0.025786f, -0.003599f, 0.051059f,
    0.005705f, 0.021811f, 0.019881f, -0.062852f, 0.005988f, -0.000771f, 0.065623f, 0.031687f, -0.051697f, 0.025201f,
    0.001860f, 0.017481f, 0.027070f, -0.025787f, 0.027217f, 0.098068f, 0.038742f, -0.012944f, -0.054524f, 0.019863f,
    0.054074f, 0.030399f, -0.008475f, -0.057325f, -0.035457f, 0.003188f, -0.035128f, -0.034080f, -0.007937f, -0.071459f,
    -0.039494f, 0.040338f, -0.074921f, 0.043985f, 0.040862f, 0.000079f, -0.008129f, -0.008946f, -0.017304f, -0.034623f,
    -0.014260f, -0.001270f, 0.036031f, -0.044988f, -0.021619f, 0.008487f, 0.017031f, 0.017191f, 0.017402f, -0.031457f,
    0.010760f, -0.004370f, 0.010824f, -0.016675f, 0.028340f, -0.004242f, 0.029622f, 0.001156f, 0.001461f, 0.012071f,
    0.016755f, 0.009954f, 0.079837f, -0.046993f, -0.069636f, 0.003130f, -0.025649f, 0.025828f, -0.009326f, -0.013592f,
    -0.003372f, -0.055632f, 0.003982f, -0.002585f, 0.063966f, -0.015910f, -0.013916f, -0.011408f, 0.022618f, 0.021107f,
    0.067639f, -0.000465f, -0.033228f, 0.021570f, 0.017733f, 0.009350f, 0.013124f, 0.051306f, -0.033793f, -0.056758f,
    -0.043197f, -0.055313f, 0.021681f, -0.050823f, 0.061558f, 0.073745f, -0.061274f, 0.020860f, -0.014205f, 0.057578f,
    -0.022682f, 0.013005f, 0.025160f, -0.039598f, 0.005646f, -0.017916f, 0.079169f, -0.021602f, 0.027068f, 0.002842f,
    0.024659f, -0.068862f, -0.041815f, 0.013907f, -0.021511f, -0.039806f, 0.012164f, 0.020679f, -0.093409f, 0.043877f,
    -0.033432f, 0.020324f, -0.015680f, 0.014457f, -0.033498f, 0.006853f, 0.012579f, -0.040043f, 0.025142f, -0.073800f,
    0.016702f, -0.015715f, 0.036233f, -0.040859f, -0.007367f, 0.013768f, 0.014199f, 0.012589f, -0.005973f, 0.001160f,
    0.025678f, -0.004790f, -0.022375f, 0.030727f, 0.065802f, -0.001869f, -0.003748f, -0.023933f, 0.019686f, -0.058932f,
    0.034223f, -0.023474f, 0.009555f, 0.027907f, 0.033171f, 0.034997f, 0.000575f, 0.020583f, 0.001734f, -0.023612f,
    0.074504f, -0.002537f, -0.021104f, 0.012128f, -0.005566f, 0.009357f, -0.031745f, -0.006849f, 0.001396f, -0.022889f,
    0.026494f, -0.019325f, -0.004067f, -0.012913f, -0.010532f, -0.029579f, -0.004817f, 0.001098f, 0.034829f, -0.010346f,
    0.016370f, -0.054655f, 0.009706f, 0.014541f, 0.036476f, -0.014493f, -0.039139f, -0.013584f, 0.010797f, 0.046271f,
    0.058168f, -0.003613f, -0.023549f, 0.102137f, -0.011996f, -0.021670f, -0.022528f, 0.015057f, -0.079074f, 0.036648f,
    -0.030167f, 0.002585f, -0.066206f, 0.017102f, -0.017732f, 0.034001f, 0.005733f, 0.018108f, 0.086585f, 0.021530f,
    0.022600f, 0.021768f, -0.047632f, -0.000556f, -0.019572f, -0.009297f, -0.037666f, -0.000011f, -0.012073f, 0.000364f,
    0.026203f, 0.014760f, -0.015385f, 0.044299f, 0.088984f, -0.000066f, 0.030512f, 0.002409f, -0.063271f, -0.019795f,
    -0.005352f, 0.062383f, -0.019531f, -0.011767f, -0.043712f, -0.030199f, 0.004359f, 0.014013f, -0.014373f, 0.040859f,
    0.031194f, -0.012047f, 0.058399f, -0.027828f, 0.045919f, 0.053379f, -0.015895f, -0.049417f, -0.001207f, -0.006741f,
    0.026895f, 0.011055f, 0.002245f, -0.064319f, 0.001179f, -0.020044f, 0.037051f, -0.000267f, -0.035476f, -0.025912f,
    0.034395f, 0.000940f, -0.034098f, -0.010587f, 0.011181f, -0.019437f, -0.021091f, 0.038534f, -0.025460f, 0.006253f,
    0.003921f, 0.014961f, -0.041044f, -0.009644f, -0.031973f, 0.054323f, 0.003362f, 0.009547f, -0.000875f, 0.023322f,
    -0.008922f, 0.011986f, -0.020592f, -0.047186f, -0.024843f, -0.008265f, 0.016352f, 0.045945f, -0.052963f, 0.003134f,
    0.006091f, 0.043254f, -0.001595f, -0.020969f, -0.027947f, 0.020763f, 0.024735f, 0.055750f, -0.011989f, -0.000173f,
    0.039556f, -0.020592f, 0.034302f, 0.013363f, 0.006590f, -0.000382f, 0.001652f, -0.010917f, 0.030036f, 0.036824f,
    -0.047041f, -0.019364f, -0.051877f, 0.041506f, -0.061627f, -0.017149f, 0.017768f, -0.008698f, 0.010074f, 0.060293f,
    0.041299f, -0.070781f, -0.031069f, 0.035845f, -0.011876f, -0.022097f, -0.022106f, 0.015098f, 0.020298f, 0.014451f,
    -0.012388f, 0.013754f, 0.015617f, 0.036703f, 0.023337f, 0.046344f, -0.049873f, 0.002758f, 0.015527f, 0.047841f,
    0.069771f, -0.018687f, 0.011494f, 0.027075f, 0.007848f, -0.004401f, -0.060563f, -0.060718f, -0.017213f, -0.020425f,
    -0.022005f, 0.051797f, -0.026941f, 0.042783f, 0.022917f, -0.083565f, 0.005904f, -0.035688f, -0.008449f, -0.026582f,
    -0.024451f, -0.025501f, -0.029190f, 0.019025f, 0.005069f, 0.010968f, 0.041148f, -0.020827f, 0.043340f, -0.021665f,
    0.014328f, 0.000360f, 0.026846f, -0.025785f, -0.008987f, 0.026654f, 0.053836f, 0.029710f, -0.010614f, 0.013633f,
    -0.002131f, -0.025100f, 0.028751f, 0.012613f, -0.079341f, 0.052272f, -0.016408f, 0.008508f, -0.048233f, 0.011898f,
    0.004822f, 0.022863f, -0.028945f, 0.047176f, 0.080160f, 0.034021f, 0.026564f, 0.031755f, -0.036348f, 0.009314f,
    -0.038392f, 0.019690f, -0.003300f, 0.006499f, -0.002518f, 0.009302f, 0.053235f, 0.027082f, 0.001781f, -0.071605f,
    -0.026684f, -0.032217f, -0.012340f, -0.042919f, 0.046419f, 0.054141f, 0.056049f, 0.023058f, 0.007914f, 0.003004f,
    -0.026570f, 0.040637f, 0.013580f, -0.017364f, 0.003814f, 0.007202f, 0.006579f, 0.002350f, 0.000303f, -0.036764f,
    -0.013947f, -0.021936f, 0.003300f, -0.013330f, -0.014986f, 0.015035f, -0.017023f, 0.063804f, 0.062299f, -0.060548f,
    -0.006978f, -0.002911f, 0.012055f, -0.058236f, 0.023317f, -0.029227f, 0.048269f, 0.008681f, -0.030889f, -0.038979f,
    -0.099432f, 0.003427f, -0.022390f, -0.064130f, -0.016973f, 0.016885f, 0.038950f, 0.017617f, 0.082046f, -0.003374f,
    0.022553f, 0.000573f, 0.025072f, 0.059660f, -0.025268f, 0.004039f, -0.002135f, -0.021003f, 0.019430f, -0.019431f,
    0.051268f, 0.010221f, -0.036867f, -0.079753f, -0.036262f, 0.002792f, 0.063704f, -0.084664f, 0.005941f, 0.028009f,
    -0.004690f, -0.003982f, 0.013502f, 0.029053f, -0.018539f, -0.005777f, 0.011755f, 0.013388f, 0.022553f, -0.020634f,
    0.013534f, 0.028165f, 0.009996f, 0.015672f, -0.022707f, 0.019018f, -0.055185f, -0.007661f, 0.012515f, 0.017977f,
    -0.013188f, -0.006850f, 0.051753f, -0.002152f, 0.036443f, -0.001209f, 0.013165f, -0.006281f, 0.027585f, 0.057662f,
    0.001325f, -0.014686f, 0.008800f, 0.034641f, -0.014291f, -0.023952f, -0.027368f, -0.065520f, 0.015878f, 0.026851f,
    0.002684f, 0.013965f, 0.058276f, -0.039435f, -0.041952f, 0.023060f, -0.006835f, 0.014505f, 0.012040f, -0.005880f,
    0.040393f, 0.014018f, 0.076882f, 0.026645f, -0.087024f, 0.012034f, -0.057950f, 0.038077f, -0.008473f, 0.036429f,
    0.016859f, 0.025726f, -0.025057f, 0.019722f, -0.028079f, 0.052025f, -0.036927f, 0.049741f, -0.013202f, -0.013916f,
    0.007396f, -0.076968f, -0.010919f, 0.011256f, -0.027603f, -0.037412f, 0.006074f, 0.003907f, 0.017568f, 0.006153f,
    0.048556f, -0.020306f, 0.025195f, 0.030467f, -0.044756f, -0.006478f, 0.005260f, 0.042852f, 0.025931f, -0.069613f,
    0.008943f, -0.019358f, 0.027314f, -0.008425f, 0.049681f, 0.004975f, -0.000512f, 0.033243f, -0.055791f, -0.069025f,
    -0.007840f, -0.009836f, 0.003176f, 0.028580f, 0.000773f, 0.021893f, 0.024375f, -0.019321f, 0.019288f, -0.024095f,
    -0.026650f, -0.037983f, 0.002602f, 0.041613f, -0.014002f, 0.015440f, 0.066474f, -0.036174f, -0.027839f, 0.006955f,
    0.066224f, 0.052858f, 0.006608f, -0.016969f, -0.006306f, 0.026851f, 0.011663f, -0.026724f, -0.019980f, 0.028425f,
    0.007772f, -0.003692f, 0.016515f, 0.018281f, -0.013461f, -0.021009f, -0.017980f, 0.017338f, 0.025496f, 0.024769f,
    -0.014964f, 0.027077f, 0.007028f, 0.000217f, -0.071126f, 0.011569f, 0.015714f, -0.001227f, 0.002226f, -0.008385f,
    0.048307f, 0.028347f, 0.029446f, -0.040132f, -0.016589f, -0.005733f, 0.019264f, 0.004257f, 0.012590f, 0.097428f,
    0.020770f, -0.026195f, -0.068073f, -0.001972f, 0.002040f, 0.008684f, 0.023943f, 0.022645f, 0.013599f, 0.021184f,
    -0.061941f, 0.008878f, 0.018246f, -0.050918f, -0.025060f, -0.007456f, 0.004064f, 0.007500f, 0.029080f, -0.003652f,
    0.056695f, 0.023220f, -0.005317f, 0.000748f, -0.024713f, 0.035828f, 0.047197f, -0.026127f, -0.012632f, 0.008343f,
    -0.052479f, 0.042979f, -0.003188f, 0.058940f, 0.008561f, -0.014618f, -0.058040f, -0.045344f, 0.042076f, 0.024081f,
    -0.028266f, -0.025531f, 0.062030f, -0.066621f, -0.020281f, 0.002811f, 0.056192f, -0.024152f, -0.021789f, -0.042343f,
    -0.006800f, 0.022198f, 0.005751f, -0.018785f, -0.051835f, 0.005407f, -0.005503f, 0.029871f, 0.046166f, 0.021387f,
    0.037529f, 0.046687f, 0.022349f, 0.013512f, -0.054942f, 0.048156f, -0.008994f, -0.012924f, 0.040083f, 0.039244f,
    0.051338f, -0.057262f, 0.015062f, -0.001479f, 0.027398f, -0.007970f, -0.020432f, -0.016338f, -0.012746f, -0.031540f,
    0.021503f, -0.050872f, -0.032355f, 0.008367f, 0.008328f, -0.034129f, -0.032745f, -0.029592f, -0.007097f, -0.072798f,
    -0.023211f, -0.025070f, -0.018958f, 0.011733f, -0.071476f, 0.082469f, -0.099204f, 0.039417f, 0.036171f, -0.030080f,
    -0.074661f, 0.009939f, 0.015169f, -0.003260f, -0.012495f, 0.035302f, -0.077314f, 0.060288f, -0.012961f, 0.052887f,
    -0.014422f, -0.011617f, 0.077653f, 0.018289f, 0.037412f, 0.041451f, 0.023510f, 0.007877f, 0.001210f, 0.019654f,
    -0.046802f, -0.022881f, -0.030477f, 0.007767f, -0.002785f, -0.021589f, -0.012087f, 0.028382f, 0.077915f, -0.036015f,
    0.000089f, -0.022885f, -0.035336f, 0.044427f, -0.006469f, 0.031040f, -0.000529f, -0.031997f, -0.017534f, -0.023791f,
    0.026629f, -0.005101f, -0.021515f, -0.011586f, 0.015986f, 0.036463f, -0.016778f, -0.015889f, 0.006143f, 0.068570f,
    -0.002242f, -0.010704f, -0.004804f, 0.000763f, 0.018038f, -0.007192f, -0.026175f, -0.000174f, -0.066272f, 0.006665f,
    0.055257f, -0.019026f, -0.008757f, -0.016392f, 0.017610f, 0.015530f, -0.052948f, -0.038690f, -0.015972f, -0.033946f,
    -0.015743f, -0.005086f, 0.000126f, 0.003753f, 0.027759f, 0.002030f, 0.000723f, 0.004598f, 0.020676f, 0.008146f,
    -0.022355f, -0.002278f, 0.040826f, 0.008316f, 0.005940f, -0.030308f, -0.078329f, -0.031190f, -0.018801f, -0.067037f,
    0.056661f, 0.000116f, 0.025766f, -0.030706f, 0.040547f, 0.030652f, 0.040676f, -0.025029f, -0.016797f, -0.032817f,
    0.016794f, -0.003612f, -0.045143f, 0.011130f, -0.034554f, -0.004624f, 0.008625f, 0.020341f, -0.045305f, -0.021264f,
    0.019594f, -0.003110f, 0.050321f, 0.037241f, -0.004555f, -0.026679f, -0.027908f, 0.014828f, 0.029064f, 0.001430f,
    0.015968f, 0.039114f, 0.019036f, 0.072071f, 0.011390f, -0.037090f, -0.002669f, 0.036642f, 0.011123f, 0.055869f,
    -0.016701f, 0.017833f, 0.056126f, -0.009235f, -0.023467f, 0.065770f, 0.035729f, -0.039156f, -0.005434f, -0.029967f,
    -0.031681f, 0.019641f, 0.038518f, 0.004577f, 0.030921f, -0.063485f, -0.005943f, 0.019403f, 0.022411f, 0.034762f,
    -0.071901f, -0.018742f, 0.000854f, 0.006194f, -0.000709f, 0.067328f, 0.031733f, -0.013917f, 0.012606f, -0.016432f,
    -0.092015f, -0.011569f, 0.008850f, 0.017594f, 0.000587f, -0.029563f, 0.052350f, 0.028924f, -0.004507f, 0.030305f,
    -0.023406f, 0.006422f, -0.026460f, 0.016224f, -0.021017f, -0.022080f, 0.018683f, 0.017441f, 0.003629f, -0.003646f,
    -0.048479f, 0.009095f, 0.005490f, 0.028413f, -0.036288f, 0.002578f, -0.019076f, -0.024172f, 0.066793f, 0.001183f,
    -0.005506f, -0.001086f, -0.053321f, 0.048671f, 0.036170f, 0.034242f, -0.008983f, 0.022109f, 0.052698f, 0.060696f,
    -0.030035f, -0.007086f, -0.012609f, -0.003129f, -0.061980f, -0.008578f, 0.037020f, -0.025026f, 0.036525f, 0.029818f,
    0.053925f, -0.019349f, 0.004428f, -0.005428f, -0.038833f, -0.009343f, 0.018078f, -0.001408f, -0.056575f, 0.008436f,
    -0.016751f, -0.016092f, -0.020093f, 0.010173f, 0.050142f, -0.013558f, -0.002009f, -0.009735f, -0.054567f, 0.008924f,
    -0.051991f, 0.008661f, -0.031691f, 0.002972f, 0.004173f, -0.014985f, -0.040456f, 0.021111f, 0.026550f, 0.024630f,
    -0.046319f, 0.040227f, -0.026010f, -0.029434f, 0.015334f, -0.068761f, 0.029834f, 0.011530f, 0.011713f, 0.026811f,
    -0.018772f, 0.059339f, -0.006084f, 0.053530f, 0.015236f, -0.026541f, -0.042132f, 0.050540f, -0.003277f, -0.040022f,
    -0.063029f, -0.037680f, -0.020891f, -0.016897f, -0.017594f, 0.007183f, -0.000226f, -0.037196f, 0.015460f, 0.025876f,
    -0.003809f, -0.014620f, -0.039282f, -0.000239f, 0.003636f, -0.031192f, -0.003273f, -0.028101f, 0.039295f, 0.027850f,
    0.006962f, 0.027456f, 0.027026f, -0.034619f, 0.050322f, -0.004941f, -0.046126f, 0.022588f, 0.045964f, 0.013505f,
    0.009322f, 0.008215f, -0.002729f, 0.014183f, -0.000882f, 0.026799f, 0.016916f, 0.017440f, -0.028120f, 0.051080f,
    -0.006662f, 0.019218f, 0.064003f, 0.010362f, -0.045911f, 0.040644f, 0.056708f, -0.000205f, 0.072218f, -0.036706f,
    0.026596f, 0.024527f, 0.022079f, -0.033360f, -0.006827f, -0.008646f, 0.032009f, 0.060242f, -0.000480f, 0.025435f,
    -0.039257f, 0.057262f, -0.071718f, 0.025445f, 0.013936f, -0.006116f, -0.049884f, 0.006565f, -0.001307f, -0.031817f,
    -0.036550f, 0.025562f, 0.051346f, -0.013768f, 0.027570f, -0.010244f, 0.079546f, -0.032884f, 0.004779f, -0.052379f,
    -0.043319f, -0.014581f, -0.033623f, -0.004265f, 0.020954f, 0.001343f, 0.036496f, 0.016840f, 0.008604f, -0.061349f,
    0.028916f, 0.033972f, 0.013536f, -0.071079f, -0.016491f, 0.035442f, 0.017893f, 0.073281f, -0.057348f, -0.034137f,
    -0.058930f, -0.025523f, 0.026944f, -0.027608f, -0.015253f, -0.020929f, 0.042728f, 0.014956f, 0.054696f, 0.048659f,
    -0.064123f, -0.044530f, 0.018076f, -0.007966f, 0.004862f, 0.003703f, 0.044928f, 0.006801f, -0.034747f, 0.048241f,
    -0.038498f, 0.052944f, -0.020433f, 0.042381f, -0.056480f, 0.037193f, 0.039158f, -0.001026f, -0.026561f, -0.043194f,
    0.091761f, 0.024596f, 0.003841f, 0.002593f, -0.023193f, -0.012380f, -0.058150f, -0.018962f, 0.030025f, 0.012338f,
    0.086956f, 0.018497f, -0.000193f, -0.018747f, 0.032416f, -0.024942f, -0.015922f, 0.035883f, -0.001212f, -0.015724f,
    -0.045120f, 0.009836f, -0.005604f, 0.004745f, -0.024041f, 0.004563f, 0.065600f, -0.049321f, 0.097633f, -0.062457f,
    0.004081f, -0.025187f, -0.082269f, 0.012076f, 0.029003f, -0.019443f, 0.057766f, 0.019608f, -0.074834f, -0.029335f,
    -0.015599f, 0.025596f, 0.035190f, -0.020086f, -0.023927f, -0.031223f, -0.005179f, -0.004815f, 0.018281f, 0.018940f,
    0.011221f, 0.019018f, -0.007813f, 0.039820f, 0.039623f, 0.051053f, -0.020474f, 0.006656f, -0.027775f, -0.006666f,
    0.081415f, -0.030671f, 0.029275f, -0.050076f, 0.003071f, 0.026472f, 0.049322f, 0.032174f, -0.002453f, -0.038711f,
    -0.024138f, -0.001893f, 0.017590f, 0.027285f, 0.017772f, 0.062930f, 0.018921f, -0.059838f, 0.029036f, -0.038634f,
    0.023993f, -0.024123f, 0.003555f, -0.016626f, -0.067015f, -0.008792f, 0.030816f, 0.016846f, -0.003166f, -0.024134f,
    -0.047419f, 0.028760f, -0.031357f, 0.045998f, -0.036720f, -0.035104f, 0.021584f, -0.041775f, -0.018091f, 0.000391f,
    -0.011082f, 0.027570f, 0.013893f, 0.025432f, 0.011980f, 0.000576f, 0.021803f, 0.014177f, 0.034372f, -0.028003f,
    -0.005768f, 0.048230f, -0.027311f, -0.018257f, -0.000563f, -0.029652f, 0.000053f, -0.048546f, 0.006244f, -0.026899f,
    -0.007763f, 0.056465f, -0.041308f, -0.043701f, 0.028100f, -0.042109f, -0.016283f, 0.023076f, -0.001464f, 0.026302f,
    -0.006857f, 0.013255f, -0.010055f, 0.012503f, 0.061018f, -0.019881f, 0.024588f, -0.046398f, -0.021482f, -0.000328f,
    -0.048450f, -0.014881f, 0.044517f, -0.037955f, -0.029023f, 0.034850f, 0.025027f, -0.048483f, 0.035725f, 0.007670f,
    0.013954f, -0.030519f, -0.039122f, -0.021398f, -0.025658f, 0.003565f, -0.022515f, 0.029635f, 0.023364f, -0.010755f,
    0.029672f, -0.017213f, 0.022518f, 0.028303f, 0.008690f, -0.011311f, 0.057821f, -0.012471f, 0.015791f, -0.047575f,
    0.019151f, -0.051431f, -0.037926f, 0.003326f, 0.027283f, 0.016103f, -0.006775f, 0.008238f, -0.007107f, -0.045906f,
    -0.024519f, -0.027646f, -0.035727f, 0.020388f, 0.031076f, 0.075708f, 0.026163f, 0.009480f, 0.018041f, -0.032397f,
    -0.008895f, -0.029834f, -0.018906f, 0.034681f, 0.046355f, 0.004475f, 0.012882f, -0.063015f, -0.016000f, 0.001089f,
    0.033447f, 0.017724f, -0.031504f, -0.005817f, -0.039968f, -0.040730f, 0.021997f, -0.059364f, 0.007361f, -0.000439f,
    0.036769f, 0.000781f, -0.002620f, -0.018440f, -0.025487f, 0.007014f, -0.040476f, -0.074893f, 0.053751f, 0.007583f,
    0.070172f, 0.014029f, -0.016591f, 0.010541f, 0.057827f, -0.026060f, -0.045572f, -0.000550f, 0.029500f, -0.035238f,
    0.016787f, 0.022913f, -0.047832f, -0.013786f, -0.009851f, 0.025869f, -0.029246f, 0.046074f, -0.024517f, -0.035661f,
    -0.019385f, 0.015538f, -0.038521f, -0.003341f, -0.046900f, -0.064041f, -0.066122f, -0.001143f, 0.075390f, -0.017494f,
    0.016277f, 0.002665f, -0.008728f, -0.070730f, -0.036952f, -0.017606f, -0.004805f, -0.014426f, -0.019620f, 0.015320f,
    -0.002492f, 0.014018f, 0.021022f, 0.013344f, -0.027199f, -0.007016f, -0.080112f, -0.009180f, 0.046967f, 0.007036f,
    -0.026997f, -0.054510f, -0.062297f, 0.022268f, -0.021828f, -0.018069f, 0.037477f, 0.006595f, 0.077668f, 0.084909f,
    -0.032168f, 0.005674f, 0.021248f, -0.018985f, -0.033663f, 0.015811f, 0.013616f, -0.001689f, -0.034154f, -0.018213f,
    0.017676f, 0.015124f, -0.016372f, 0.053360f, 0.064783f, -0.004123f, -0.019429f, 0.018487f, 0.003015f, 0.009005f,
    0.053657f, 0.058939f, 0.050739f, -0.005095f, -0.014435f, -0.038911f, -0.023291f, -0.010189f, -0.020131f, 0.031167f,
    0.013882f, -0.031431f, 0.056699f, -0.006676f, -0.053430f, 0.015570f, -0.013381f, 0.003436f, 0.012581f, -0.009418f,
    -0.019053f, -0.044549f, -0.018586f, -0.034928f, 0.011178f, -0.041412f, 0.004665f, -0.002698f, -0.001948f, -0.028829f,
    0.020368f, 0.024298f, 0.012457f, -0.042387f, -0.007568f, 0.017160f, -0.014891f, 0.036532f, 0.001404f, -0.030501f,
    -0.049756f, 0.003905f, -0.065064f, -0.011036f, 0.019720f, 0.011935f, -0.019729f, -0.039266f, 0.035056f, -0.036467f,
    -0.018183f, -0.015312f, 0.040866f, 0.012617f, 0.016610f, -0.006146f, 0.045899f, 0.000534f, -0.035753f, 0.015535f,
    0.045320f, -0.032698f, -0.010844f, -0.034973f, 0.020056f, 0.005181f, -0.002783f, -0.027469f, -0.007440f, 0.033877f,
    0.008515f, 0.008778f, -0.076566f, -0.021518f, 0.045067f, 0.118746f, 0.006878f, 0.021844f, -0.032850f, -0.026490f,
    0.017529f, -0.015171f, 0.010527f, -0.011951f, 0.005517f, 0.053294f, 0.011813f, 0.042520f, -0.004616f, 0.044153f,
    -0.015683f, -0.040557f, -0.000791f, 0.050318f, 0.035075f, 0.007003f, 0.026360f, 0.003612f, 0.028068f, -0.034482f,
    -0.045256f, -0.009795f, -0.028622f, -0.035197f, -0.047301f, 0.057369f, -0.063121f, 0.042852f, -0.029227f, 0.025778f,
    0.017094f, -0.036330f, 0.030021f, -0.042275f, 0.024098f, 0.001078f, 0.019091f, -0.013416f, 0.040190f, 0.011973f,
    -0.031795f, 0.051603f, 0.015081f, 0.018749f, -0.021594f, 0.040592f, -0.025112f, 0.004777f, -0.006802f, -0.003297f,
    -0.017269f, -0.026845f, 0.010853f, 0.012753f, -0.017717f, -0.000392f, 0.019582f, -0.056584f, 0.047834f, 0.075060f,
    0.001081f, -0.050947f, 0.010125f, 0.043236f, 0.017752f, -0.002989f, 0.021198f, -0.060002f, -0.037145f, 0.016943f,
    -0.001338f, 0.024672f, -0.033668f, -0.022082f, -0.032867f, 0.000612f, -0.013063f, 0.049607f, -0.009119f, 0.012128f,
    -0.022653f, 0.019422f, -0.003018f, -0.015882f, 0.005537f, -0.013098f, -0.036498f, -0.031724f, -0.079826f, -0.000908f,
    0.004020f, 0.015761f, -0.055360f, -0.016694f, -0.024031f, 0.009221f, 0.019396f, -0.019379f, -0.008381f, 0.024737f,
    -0.004532f, -0.004941f, -0.038708f, 0.015839f, -0.042248f, -0.054216f, -0.009060f, -0.012061f, 0.028522f, -0.046811f,
    -0.076608f, 0.004122f, 0.011130f, -0.042325f, 0.007001f, -0.023874f, 0.006764f, -0.007648f, 0.054734f, -0.046153f,
    0.002993f, 0.019695f, -0.059385f, -0.063615f, 0.000369f, 0.003181f, -0.007986f, -0.074918f, -0.063487f, 0.008885f,
    -0.000041f, -0.003899f, 0.004033f, 0.045277f, 0.032257f, -0.015011f, 0.043715f, 0.045309f, 0.018533f, 0.000822f,
    0.042043f, 0.024985f, -0.080321f, -0.026055f, -0.037329f, -0.034046f, 0.072638f, -0.063519f, 0.010991f, -0.038258f,
    0.070047f, 0.003364f, -0.050843f, 0.023995f, 0.019261f, -0.031124f, 0.035779f, 0.045565f, -0.028204f, -0.007998f,
    -0.029313f, 0.036106f, -0.028618f, 0.059753f, -0.004927f, -0.004276f, -0.038253f, -0.040223f, 0.015931f, 0.006879f,
    0.078516f, 0.005544f, 0.041543f, -0.005718f, 0.025559f, 0.036541f, -0.045388f, 0.020803f, 0.035717f, -0.019939f,
    -0.014759f, -0.012415f, 0.055383f, -0.086069f, 0.001906f, 0.051446f, 0.014655f, -0.019192f, -0.000634f, 0.017346f,
    -0.047926f, -0.020973f, 0.025756f, -0.014188f, -0.010458f, -0.007965f, -0.040677f, 0.004521f, -0.036571f, 0.049335f,
    0.041152f, -0.026869f, 0.047621f, -0.021848f, 0.024254f, 0.010640f, -0.004938f, 0.003194f, 0.012288f, -0.048004f,
    0.002484f, 0.015126f, -0.030871f, -0.015090f, 0.044505f, -0.040450f, -0.068369f, -0.009418f, -0.016332f, -0.009922f,
    -0.053388f, -0.013765f, 0.036968f, 0.042922f, 0.025555f, 0.000117f, -0.020510f, 0.000093f, -0.002122f, -0.046421f,
    -0.015503f, -0.011288f, -0.029154f, 0.035194f, -0.050272f, -0.010034f, 0.051511f, 0.003421f, -0.047598f, 0.011232f,
    -0.045573f, -0.002696f, -0.063520f, -0.021447f, -0.044647f, 0.018467f, -0.009928f, 0.018391f, -0.024193f, -0.001867f,
    -0.104283f, -0.057715f, -0.038573f, -0.030193f, 0.023530f, -0.021712f, -0.001204f, -0.028256f, -0.019401f, 0.000724f,
    -0.053267f, 0.043908f, 0.034781f, 0.007757f, -0.020014f, 0.034492f, 0.052571f, 0.009645f, 0.008048f, 0.017445f,
    -0.033461f, 0.008066f, 0.025880f, -0.000434f, -0.046234f, -0.038120f, 0.007710f, -0.018367f, -0.033464f, -0.005239f,
    -0.065603f, 0.041651f, 0.026706f, 0.029906f, -0.019467f, 0.000352f, -0.042415f, -0.041593f, -0.018524f, 0.006084f,
    0.016448f, 0.017622f, -0.031513f, 0.043713f, 0.012442f, 0.012430f, -0.053841f, 0.006431f, 0.020338f, -0.015102f,
    0.049171f, 0.017699f, -0.048524f, 0.034789f, -0.009443f, -0.023231f, -0.005824f, 0.013011f, 0.055457f, 0.006626f,
    -0.013777f, -0.032924f, 0.058550f, 0.030587f, -0.004392f, 0.068956f, -0.027796f, 0.000439f, -0.065062f, 0.010738f,
    0.018480f, 0.024790f, -0.014363f, 0.066072f, -0.017753f, 0.000758f, -0.033379f, -0.029353f, 0.030988f, -0.007954f,
    0.093663f, 0.017171f, -0.020081f, 0.025925f, 0.023338f, 0.025452f, 0.022804f, -0.002223f, -0.001519f, -0.013713f,
    0.029495f, 0.004411f, 0.021486f, -0.017398f, 0.005292f, 0.008609f, 0.056339f, -0.020448f, -0.045242f, 0.032626f,
    0.015441f, -0.072781f, -0.043014f, -0.026474f, -0.019135f, 0.065499f, 0.008669f, 0.006091f, -0.057341f, 0.034326f,
    0.015869f, -0.005672f, -0.014368f, 0.021298f, 0.038986f, -0.050428f, -0.015056f, -0.022069f, -0.053504f, 0.027528f,
    -0.013868f, -0.054684f, -0.048569f, 0.020667f, 0.017745f, 0.013265f, -0.033033f, -0.011940f, 0.076470f, -0.035915f,
    0.004781f, -0.018792f, -0.063810f, -0.043265f, -0.018527f, -0.045511f, -0.001277f, -0.014539f, -0.018316f, 0.011217f,
    0.002341f, 0.005498f, -0.026162f, 0.030418f, 0.043822f, 0.046148f, -0.035893f, 0.013674f, -0.049047f, 0.027459f,
    0.021841f, 0.027626f, -0.072515f, 0.028040f, -0.006911f, 0.022416f, -0.003970f, 0.030724f, 0.034420f, -0.031566f,
    -0.050926f, 0.046317f, -0.026400f, -0.026274f, 0.084183f, -0.000924f, 0.017697f, -0.051616f, 0.010892f, -0.020358f,
    -0.040634f, -0.028194f, 0.012624f, -0.003898f, -0.026738f, -0.032969f, 0.005640f, -0.024404f, -0.033832f, 0.002097f,
    0.015010f, -0.011891f, -0.003537f, 0.041147f, -0.002218f, 0.023439f, 0.013185f, 0.010245f, -0.019487f, 0.052447f,
    0.062415f, -0.093951f, 0.071281f, -0.031643f, 0.045382f, -0.003952f, 0.004277f, 0.003528f, 0.040497f, -0.029490f,
    0.021474f, -0.003116f, -0.053090f, 0.016091f, 0.033753f, 0.004483f, -0.040415f, -0.022586f, 0.024064f, -0.024219f,
    0.024022f, -0.001176f, 0.052899f, -0.014222f, 0.017857f, 0.064819f, 0.012933f, 0.086901f, 0.038790f, -0.020164f,
    -0.046818f, -0.011633f, -0.012930f, 0.056084f, 0.015190f, 0.026719f, -0.025568f, 0.022265f, -0.019756f, -0.077303f,
    -0.049668f, -0.005013f, 0.026947f, 0.001087f, 0.009750f, 0.024194f, -0.004889f, 0.020399f, -0.020549f, -0.071680f,
    -0.043382f, -0.061149f, 0.064192f, -0.023892f, 0.032051f, -0.014502f, -0.069429f, -0.001800f, 0.005042f, 0.084270f,
    -0.036034f, 0.037687f, -0.011826f, -0.021218f, 0.084644f, -0.026673f, -0.011389f, -0.044562f, 0.067467f, 0.043168f,
    -0.027268f, 0.004820f, 0.031573f, -0.012074f, -0.011281f, 0.038505f, 0.018684f, 0.010880f, -0.019332f, -0.016079f,
    0.001603f, -0.045069f, 0.016159f, 0.004072f, 0.026424f, 0.017572f, -0.032200f, -0.062391f, 0.057975f, 0.033090f,
    0.026628f, -0.000535f, -0.086676f, 0.007580f, -0.003793f, -0.020654f, -0.028730f, -0.077547f, 0.016873f, 0.017545f,
    -0.005040f, 0.030623f, -0.009712f, 0.035861f, 0.019875f, 0.005578f, -0.045053f, 0.064661f, 0.075606f, 0.006455f,
    -0.022150f, 0.005485f, -0.005463f, -0.015938f, -0.005021f, 0.025842f, -0.054657f, 0.037237f, -0.026726f, -0.002836f,
    0.060177f, 0.024150f, 0.064691f, -0.045453f, -0.036182f, 0.018985f, 0.007302f, -0.023134f, -0.000303f, -0.025607f,
    0.037389f, 0.018358f, -0.046863f, -0.051626f, 0.036755f, -0.037129f, 0.036864f, -0.006772f, -0.001432f, -0.001378f,
    -0.076915f, -0.016758f, -0.023133f, 0.029438f, 0.008918f, 0.034920f, -0.073404f, -0.039392f, 0.021033f, 0.032399f,
    -0.100287f, -0.039168f, -0.014973f, 0.005211f, 0.053557f, 0.001454f, -0.047703f, -0.011624f, 0.029547f, -0.075587f,
    -0.066162f, -0.044703f, -0.016258f, -0.117367f, -0.049080f, -0.045320f, 0.051868f, 0.033968f, -0.023390f, 0.038865f,
    -0.005955f, 0.019143f, 0.004156f, -0.057674f, 0.011867f, -0.010947f, -0.035676f, 0.015272f, -0.109666f, 0.012927f,
    0.073353f, 0.008882f, -0.015536f, 0.054417f, 0.007220f, 0.054721f, 0.057403f, 0.010368f, 0.037949f, 0.001299f,
    0.006223f, -0.005801f, -0.068142f, -0.021501f, -0.014761f, -0.056352f, -0.062935f, -0.061458f, 0.010650f, 0.007593f,
    -0.057743f, -0.004921f, -0.017078f, 0.028220f, 0.059000f, 0.044248f, -0.016965f, 0.043124f, -0.007623f, 0.036847f,
    -0.021054f, -0.054338f, 0.008643f, -0.032269f, 0.053189f, 0.008355f, 0.013607f, -0.000715f, 0.059364f, -0.043982f,
    -0.003817f, 0.007868f, 0.022271f, -0.024891f, 0.032758f, -0.077622f, -0.029746f, -0.003163f, -0.015950f, 0.033404f,
    0.084738f, 0.042912f, 0.005121f, -0.068670f, -0.037584f, -0.026418f, -0.070045f, 0.019574f, 0.004191f, 0.018241f,
    -0.092177f, 0.026831f, -0.074802f, -0.007147f, -0.017974f, 0.044092f, -0.039100f, -0.049095f, 0.063360f, -0.028595f,
    -0.062038f, 0.004735f, -0.082277f, 0.005028f, -0.047694f, -0.024550f, -0.026828f, -0.039677f, -0.043779f, 0.058943f,
    0.014409f, -0.019681f, -0.069911f, -0.077229f, -0.017446f, 0.023107f, -0.029335f, 0.067766f, 0.090226f, 0.009785f,
    -0.027478f, -0.045733f, 0.040702f, -0.052913f, 0.007729f, 0.029642f, -0.003982f, 0.082591f, 0.004211f, -0.019611f,
    0.047531f, 0.031144f, -0.028298f, -0.004409f, -0.014442f, -0.017873f, -0.022629f, -0.054831f, -0.014755f, 0.033973f,
    0.034524f, 0.046241f, -0.019892f, 0.070505f, -0.038453f, -0.025041f, 0.060188f, 0.019061f, -0.005692f, 0.036827f,
    -0.034689f, -0.016288f, -0.007424f, -0.015950f, -0.041352f, -0.034186f, 0.057107f, 0.005958f, 0.033055f, 0.055785f,
    -0.033322f, 0.007834f, -0.016049f, -0.060891f, -0.007184f, -0.068206f, -0.042845f, -0.020256f, 0.003767f, 0.006264f,
    0.024717f, 0.022082f, 0.014260f, -0.072417f, -0.032865f, -0.006986f, -0.075909f, -0.039128f, 0.005673f, -0.027075f,
    -0.028404f, -0.012097f, -0.004680f, 0.002614f, -0.062979f, 0.035901f, -0.039502f, -0.062809f, 0.037433f, -0.014231f,
    0.055621f, -0.007707f, -0.051643f, 0.010134f, 0.008584f, 0.087499f, -0.014884f, 0.020291f, -0.044762f, 0.062297f,
    -0.038571f, 0.029884f, 0.003352f, -0.014219f, -0.034769f, 0.032686f, -0.062166f, 0.018136f, 0.136041f, -0.011499f,
    0.003207f, 0.025296f, 0.032201f, -0.016331f, -0.008106f, -0.067238f, 0.054880f, 0.002636f, -0.001717f, 0.092424f,
    -0.039812f, -0.057999f, 0.019135f, -0.003977f, 0.058155f, 0.031074f, -0.059197f, 0.024233f, 0.046521f, 0.017142f,
    -0.014525f, -0.048436f, 0.018524f, -0.028236f, 0.017716f, 0.002585f, -0.039977f, -0.064816f, 0.051557f, -0.013946f,
    0.028746f, 0.054261f, -0.006401f, 0.017472f, -0.011394f, -0.008134f, 0.058769f, -0.009465f, 0.034579f, 0.002874f,
    0.008672f, 0.026594f, 0.038625f, -0.012723f, -0.007678f, 0.002271f, 0.068817f, 0.035990f, -0.023070f, 0.008244f,
    0.032219f, 0.039115f, 0.018580f, -0.014135f, 0.003430f, 0.051633f, -0.003163f, -0.014620f, -0.069192f, -0.046666f,
    -0.036028f, 0.045225f, 0.053658f, 0.034521f, 0.035322f, -0.019169f, -0.014734f, -0.028315f, 0.028855f, 0.033553f,
    0.046124f, -0.030787f, -0.015414f, 0.049649f, 0.017054f, -0.020070f, -0.003442f, 0.036046f, -0.024923f, -0.005821f,
    0.005832f, -0.035420f, 0.023863f, 0.064917f, -0.028963f, 0.018311f, -0.011222f, -0.028499f, -0.094756f, -0.070493f,
    -0.000212f, 0.044566f, 0.003386f, 0.044165f, -0.072709f, 0.044109f, 0.038645f, -0.013913f, -0.033636f, 0.055788f,
    0.060458f, 0.050542f, -0.042336f, -0.071561f, -0.019463f, -0.081323f, 0.061979f, 0.048535f, -0.029624f, 0.045655f,
    -0.010138f, -0.048979f, 0.032606f, -0.071586f, -0.079275f, -0.015628f, -0.008418f, 0.056285f, -0.026720f, -0.036880f,
    -0.096075f, 0.039591f, 0.053877f, -0.031410f, -0.029718f, 0.050012f, 0.006410f, -0.086186f, -0.000017f, -0.008208f,
    -0.007222f, 0.085226f, -0.019960f, 0.028164f, 0.013832f, -0.014802f, 0.004791f, -0.014189f, -0.021305f, 0.033126f,
    0.031783f, 0.014846f, 0.000724f, -0.048434f, 0.054648f, -0.032879f, -0.000295f, 0.043699f, -0.049968f, 0.038569f,
    0.039875f, -0.060942f, 0.038492f, -0.029005f, -0.006728f, 0.010882f, -0.013559f, -0.009036f, -0.012560f, -0.090873f,
    0.028805f, -0.018586f, 0.011876f, -0.018568f, 0.020821f, -0.054089f, -0.031801f, -0.045806f, -0.088940f, -0.004277f,
    -0.016959f, -0.057008f, 0.002023f, 0.079831f, -0.097751f, 0.047038f, -0.047261f, 0.079260f, 0.015262f, 0.047140f,
    -0.042316f, 0.024173f, 0.015571f, -0.053135f, 0.014882f, -0.038815f, -0.034656f, -0.044035f, -0.043087f, -0.086148f,
    0.000807f, -0.019283f, -0.010235f, 0.028658f, -0.034733f, -0.013393f, -0.054074f, -0.019731f, 0.023944f, 0.023224f,
    -0.134869f, 0.073226f, -0.008279f, -0.004631f, 0.065569f, -0.030336f, -0.024132f, 0.083433f, -0.023592f, 0.056771f,
    0.027348f, 0.009864f, 0.074789f, -0.000652f, 0.026296f, -0.026270f, 0.044878f, 0.032892f, 0.005733f, -0.034269f,
    -0.021847f, -0.045775f, 0.019404f, -0.018790f, 0.038335f, -0.014470f, -0.025460f, -0.012240f, -0.024894f, 0.023738f,
    0.018941f, 0.063201f, -0.038002f, 0.037476f, -0.044320f, -0.034237f, 0.039042f, -0.052536f, -0.074209f, 0.015216f,
    -0.023714f, 0.029144f, 0.008350f, -0.022810f, 0.031273f, 0.001131f, -0.011614f, 0.041943f, -0.027777f, -0.015490f,
    0.016110f, -0.058283f, -0.002770f, 0.058113f, -0.000682f, 0.054447f, -0.011734f, -0.023924f, -0.019420f, 0.008593f,
    0.062153f, -0.049109f, -0.024204f, -0.122688f, -0.076715f, -0.040691f, -0.032151f, -0.049599f, 0.053604f, 0.006609f,
    -0.036510f, -0.066480f, 0.026452f, -0.022736f, 0.012625f, 0.139060f, -0.053333f, -0.007989f, -0.000268f, 0.026622f,
    -0.048404f, -0.036224f, -0.015601f, 0.013191f, 0.039757f, 0.063721f, -0.028163f, -0.051848f, -0.050541f, -0.026345f,
    -0.035008f, 0.042746f, 0.057626f, 0.088996f, -0.011792f, -0.031823f, 0.071097f, -0.038800f, 0.086271f, 0.028316f,
    -0.029037f, 0.082025f, -0.002982f, -0.093057f, 0.007297f, -0.092562f, -0.033477f, 0.007967f, -0.062122f, -0.001813f,
    -0.019621f, -0.073803f, -0.010046f, 0.048304f, -0.036518f, 0.009609f, 0.035136f, 0.007049f, -0.041591f, -0.079747f,
    0.008548f, 0.026662f, -0.024352f, 0.061390f, 0.010836f, 0.041684f, -0.058570f, -0.023160f, 0.013580f, -0.067023f,
    0.006687f, -0.008765f, -0.006789f, 0.051457f, 0.083122f, -0.038892f, 0.048061f, -0.026036f, 0.005162f, 0.030640f,
    0.025717f, 0.037626f, -0.042909f, -0.012231f, -0.046544f, 0.058853f, -0.088725f, -0.063888f, -0.038969f, 0.002512f,
    -0.018759f, -0.086796f, 0.008468f, -0.019788f, 0.016625f, 0.039787f, -0.010180f, -0.017206f, 0.027580f, -0.056440f,
    -0.045703f, -0.020985f, 0.084318f, -0.048876f, 0.034789f, 0.010026f, -0.058507f, -0.022176f, 0.055000f, 0.134835f,
    0.011985f, 0.034796f, -0.124034f, 0.045267f, 0.020678f, -0.037052f, 0.016276f, -0.056854f, -0.048716f, -0.023567f,
    -0.003785f, -0.134317f, 0.071579f, -0.007725f, -0.025902f, 0.009104f, 0.000465f, -0.024021f, -0.057634f, -0.074435f,
    0.047454f, 0.084804f, -0.096911f, 0.006726f, -0.019978f, -0.033998f, 0.049169f, -0.069371f, 0.015742f, 0.064914f,
    -0.088202f, 0.114192f, 0.025973f, 0.056297f, 0.050185f, 0.019268f, -0.027171f, 0.064510f, 0.052238f, -0.017475f,
    -0.071235f, 0.026135f, -0.006624f, -0.094491f, -0.022438f, -0.073371f, -0.027752f, 0.051466f, -0.040055f, -0.026276f,
    0.006520f, -0.054787f, 0.049103f, 0.070562f, 0.027611f, 0.058017f, -0.032087f, -0.008601f, 0.041677f, -0.051098f,
    -0.028137f, 0.015796f, -0.037530f, 0.082736f, 0.048880f, 0.054959f, -0.011916f, -0.030211f, -0.003769f, 0.019694f,
    -0.024873f, -0.001577f, -0.054381f, -0.053826f, 0.044461f, 0.030485f, -0.046451f, 0.027038f, -0.046434f, 0.024300f,
    -0.083071f, 0.018144f, 0.031210f, -0.000760f, -0.015985f, -0.079673f, -0.044483f, -0.027844f, -0.044281f, -0.061711f,
    0.024322f, 0.065825f, -0.068931f, 0.003465f, -0.003571f, -0.054668f, 0.018921f, 0.034807f, -0.086731f, 0.033738f,
    0.030511f, -0.008956f, -0.023922f, 0.010166f, 0.099051f, -0.001039f, 0.034255f, 0.079507f, -0.107502f, -0.009570f,
    -0.012473f, 0.040038f, -0.036334f, 0.052734f, 0.034166f, 0.040264f, -0.057302f, -0.050428f, 0.095319f, -0.077716f,
    0.134749f, 0.059930f, -0.019166f, 0.047609f, 0.027379f, -0.061535f, -0.007410f, -0.184271f, -0.081724f, 0.026449f,
    0.002592f, 0.073985f, -0.021238f, -0.028676f, -0.035662f, -0.049009f, -0.016539f, -0.013925f, -0.050575f, 0.086023f,
    -0.000259f, -0.041967f, -0.036541f, 0.045623f, 0.006423f, 0.086630f, 0.058720f, 0.063147f, -0.034985f, -0.099413f,
    0.035039f, -0.012864f, 0.111382f, 0.037132f, 0.038009f, -0.004848f, 0.027440f, -0.094847f, -0.052383f, -0.078355f,
    -0.032390f, 0.026463f, -0.001720f, 0.044773f, -0.022434f, 0.026873f, -0.073422f, 0.001748f, -0.050408f, 0.065275f,
    -0.010528f, 0.021304f, -0.064465f, -0.065334f, 0.060712f, -0.012994f, 0.012103f, 0.058218f, -0.026071f, 0.029125f,
    -0.003179f, -0.042460f, -0.091094f, -0.010556f, 0.089194f, -0.132006f, 0.080773f, 0.073861f, -0.041154f, 0.028148f,
    0.000155f, 0.086600f, 0.008081f, -0.004366f, -0.159084f, 0.052001f, 0.001732f, -0.078740f, -0.045098f, -0.017714f,
    -0.169630f, -0.001049f, 0.050045f, -0.122418f, 0.098351f, 0.068470f, 0.022423f, -0.073204f, -0.014969f, -0.064898f,
    -0.029335f, -0.047600f, 0.023402f, 0.135180f, -0.055011f, 0.039925f, 0.015876f, -0.025433f, 0.041108f, -0.096644f,
    0.019608f, 0.082464f, 0.031175f, 0.106038f, 0.090203f, 0.007741f, 0.043137f, -0.017029f, 0.033091f, -0.036453f,
    0.031550f, -0.064658f, -0.060314f, -0.040247f, 0.009165f, -0.062249f, -0.023106f, 0.076109f, 0.013961f, -0.021586f,
    -0.047899f, -0.035635f, -0.012762f, 0.037055f, -0.015360f, 0.038118f, -0.055189f, -0.022450f, -0.037139f, -0.046728f,
    0.048524f, -0.088819f, -0.050845f, 0.012938f, 0.028432f, 0.026778f, 0.028816f, 0.004331f, -0.044582f, -0.011846f,
    0.021875f, 0.024655f, 0.007814f, -0.020088f, 0.066124f, 0.064082f, -0.008147f, 0.040404f, -0.086755f, -0.059702f,
    -0.098796f, 0.025676f, -0.073502f, -0.011676f, -0.026312f, 0.042996f, 0.021707f, 0.022095f, -0.076257f, -0.026709f,
    0.035609f, -0.097599f, 0.009602f, 0.063203f, -0.008522f, 0.003701f, -0.010316f, -0.010562f, 0.003454f, 0.011989f,
    -0.045412f, 0.048011f, -0.001811f, 0.014249f, -0.136460f, 0.027064f, 0.134569f, -0.050331f, 0.086660f, 0.119678f,
    -0.068194f, -0.097212f, 0.030280f, 0.022550f, 0.034397f, 0.113822f, 0.082174f, 0.001284f, -0.091796f, -0.051289f,
    0.108980f, -0.043493f, 0.078177f, 0.072326f, -0.107797f, 0.042203f, -0.035802f, -0.084350f, 0.088771f, -0.160266f,
    -0.106780f, -0.009154f, -0.008048f, 0.022183f, -0.044088f, 0.005817f, -0.044680f, 0.040216f, 0.040805f, 0.040881f,
    -0.062880f, 0.121508f, -0.037125f, -0.065445f, 0.054785f, -0.048723f, 0.012255f, 0.104967f, -0.054608f, -0.024629f,
    -0.065137f, -0.003845f, 0.094869f, -0.112681f, 0.092545f, 0.023709f, -0.071361f, 0.027794f, 0.026086f, -0.058073f,
    0.011276f, -0.063441f, -0.058851f, 0.013453f, 0.011289f, 0.056798f, 0.007327f, -0.036072f, -0.031586f, 0.005917f,
    -0.028303f, 0.110449f, -0.066856f, 0.052511f, -0.021615f, -0.047317f, 0.007084f, 0.031126f, 0.004523f, 0.044466f,
    0.028465f, 0.039521f, 0.045555f, -0.075024f, -0.112453f, -0.079162f, 0.097426f, -0.119218f, -0.016675f, 0.067113f,
    -0.137339f, 0.048769f, -0.037052f, 0.075390f, 0.075116f, 0.046496f, -0.101077f, 0.064671f, 0.072590f, -0.096981f,
    -0.066263f, -0.004483f, -0.088582f, -0.054524f, 0.046460f, -0.088566f, 0.078860f, 0.099155f, 0.028606f, -0.000357f,
    -0.057112f, -0.116677f, -0.026774f, -0.015708f, 0.040491f, 0.126626f, -0.102411f, 0.107358f, 0.032536f, -0.016019f,
    0.087025f, -0.131585f, 0.051614f, 0.094094f, -0.104607f, 0.091762f, 0.086645f, 0.025091f, 0.055233f, 0.013942f,
    0.037531f, 0.040373f, 0.101045f, -0.043294f, -0.013607f, 0.088684f, 0.131937f, -0.000172f, 0.041536f, 0.000512f,
    0.052581f, -0.019358f, -0.068089f, -0.078267f, -0.017666f, 0.004624f, -0.042130f, 0.047765f, -0.037097f, -0.039464f,
    -0.085250f, -0.066616f, -0.014226f, -0.017416f, -0.012801f, 0.056903f, -0.047307f, 0.116333f, 0.068051f, 0.034699f,
    -0.029605f, -0.022483f, -0.036080f, 0.037602f, 0.059881f, 0.088481f, -0.026836f, -0.052069f, 0.055134f, 0.040017f,
    -0.029793f, -0.030523f, -0.034956f, -0.044856f, -0.033316f, 0.049446f, -0.064351f, -0.043211f, -0.019104f, -0.021820f,
    -0.100544f, -0.061055f, 0.074494f, -0.109125f, 0.010214f, 0.079889f, -0.065229f, -0.011910f, 0.125148f, 0.073715f,
    -0.021265f, 0.058398f, -0.154392f, 0.036058f, 0.021786f, 0.027747f, -0.102871f, 0.015810f, 0.006853f, 0.036206f,
    0.064924f, 0.169058f, -0.041667f, -0.021030f, 0.103792f, 0.064726f, 0.037570f, 0.102644f, 0.032490f, -0.025041f,
    -0.151805f, -0.073017f, 0.200515f, -0.051004f, 0.105857f, 0.118364f, -0.119733f, 0.116656f, -0.020424f, -0.122948f,
    0.105659f, -0.130811f, -0.160222f, 0.015167f, -0.006246f, 0.019487f, -0.092676f, 0.018707f, -0.019742f, 0.023826f,
    0.006572f, 0.019059f, 0.001058f, 0.169459f, -0.069108f, -0.035380f, 0.049705f, 0.061026f, 0.016625f, 0.040975f,
    0.071962f, 0.096806f, -0.026835f, -0.081397f, 0.020296f, -0.042076f, 0.007135f, 0.029573f, -0.015430f, 0.045681f,
    -0.051775f, -0.059558f, 0.017886f, -0.079383f, -0.034521f, -0.010945f, -0.048915f, 0.068567f, -0.022365f, -0.040579f,
    -0.027418f, 0.049197f, -0.062519f, 0.175008f, -0.039570f, 0.026636f, -0.021095f, -0.098118f, -0.110969f, -0.018451f,
    0.017154f, 0.046941f, -0.073119f, 0.067174f, 0.088946f, -0.052132f, -0.004433f, -0.162059f, 0.093720f, -0.124638f,
    -0.043340f, 0.060572f, -0.159044f, -0.002189f, 0.014497f, 0.060429f, -0.010136f, -0.007934f, -0.072438f, 0.127169f,
    0.135636f, -0.080644f, -0.057209f, 0.017287f, -0.068848f, 0.052726f, 0.127647f, -0.123382f, 0.047310f, 0.163732f,
    0.029121f, -0.043167f, -0.106376f, -0.186497f, -0.118392f, -0.000094f, 0.057772f, 0.179990f, -0.027181f, 0.088815f,
    -0.014701f, -0.030078f, 0.135867f, -0.140741f, 0.091721f, 0.020461f, -0.070779f, 0.069817f, 0.098372f, 0.129045f,
    -0.034331f, -0.058476f, 0.020654f, 0.076761f, 0.093909f, 0.004501f, -0.029039f, -0.069959f, 0.058922f, -0.027100f,
    0.096071f, 0.005343f, 0.010487f, 0.027600f, -0.066921f, -0.000439f, -0.069460f, 0.000358f, -0.006838f, 0.033511f,
    -0.015851f, -0.000135f, -0.001295f, -0.012138f, 0.081659f, -0.010024f, -0.015753f, 0.081161f, -0.119995f, 0.062770f,
    0.113637f, -0.041276f, -0.010845f, 0.017042f, 0.028124f, 0.143638f, -0.020187f, 0.037612f, -0.009388f, -0.000616f,
    0.039674f, -0.009502f, 0.003641f, -0.113777f, -0.070588f, -0.003378f, -0.007689f, 0.100078f, -0.035904f, -0.052771f,
    -0.021932f, -0.062674f, -0.087002f, -0.044568f, 0.106360f, -0.138495f, -0.034160f, 0.143063f, -0.093218f, 0.033915f,
    0.106156f, 0.061939f, 0.065610f, 0.119875f, -0.108301f, 0.044989f, 0.056164f, 0.003264f, -0.101917f, -0.094002f,
    0.095478f, -0.046442f, 0.060165f, 0.208295f, -0.008947f, -0.102512f, 0.145825f, 0.119052f, 0.098316f, 0.085068f,
    0.046509f, -0.003987f, -0.116061f, -0.076015f, 0.121709f, -0.026066f, 0.024856f, 0.148595f, -0.139837f, 0.032918f,
    0.029336f, -0.069725f, -0.032911f, -0.211896f, -0.103854f, -0.067320f, 0.102512f, 0.100124f, -0.118222f, -0.027451f,
    0.042347f, 0.080832f, 0.000030f, -0.032821f, 0.034370f, 0.125618f, -0.031794f, 0.020530f, 0.050617f, 0.079526f,
    0.076854f, 0.049444f, 0.029507f, 0.089612f, -0.007276f, -0.077339f, 0.040835f, -0.087551f, 0.151373f, 0.028627f,
    -0.134313f, 0.056748f, 0.014300f, -0.038157f, 0.022500f, -0.085868f, -0.115412f, -0.053505f, -0.014116f, 0.101473f,
    -0.029798f, -0.134262f, -0.028107f, -0.025165f, -0.023725f, 0.065188f, -0.036628f, 0.016369f, -0.021081f, -0.087361f,
    -0.107190f, 0.079503f, -0.053381f, 0.065908f, -0.027291f, 0.140068f, 0.105818f, -0.052470f, 0.014362f, -0.173379f,
    0.014591f, -0.178467f, -0.041203f, 0.089657f, -0.121904f, 0.022886f, -0.001005f, 0.054043f, 0.112983f, 0.059790f,
    -0.093449f, 0.189673f, 0.142784f, -0.098601f, -0.096404f, -0.052072f, -0.119511f, 0.043235f, 0.092041f, -0.008328f,
    0.079713f, 0.181702f, 0.103962f, 0.052535f, -0.134333f, -0.181405f, -0.082030f, 0.039796f, 0.080586f, 0.130049f,
    -0.031530f, 0.125430f, -0.027102f, -0.031421f, 0.133151f, -0.107474f, 0.136460f, 0.062119f, -0.100677f, 0.081392f,
    0.108771f, 0.045149f, 0.101504f, -0.055864f, 0.050214f, 0.166399f, 0.081639f, 0.056263f, -0.077309f, 0.046329f,
    0.059301f, -0.090727f, 0.026645f, 0.064374f, 0.025764f, -0.010980f, -0.038547f, -0.116386f, -0.090358f, -0.032855f,
    0.046417f, 0.092903f, -0.043583f, 0.005722f, -0.016018f, -0.011445f, 0.010308f, 0.000674f, -0.053565f, 0.069943f,
    0.031275f, 0.101083f, 0.099579f, 0.028415f, 0.026782f, 0.011244f, 0.026141f, 0.072505f, 0.062784f, -0.039066f,
    0.018506f, 0.038855f, 0.012759f, -0.009168f, 0.021966f, -0.043547f, 0.019428f, -0.018155f, 0.057263f, 0.086744f,
    -0.053999f, -0.047691f, 0.012736f, -0.088987f, -0.166677f, -0.147968f, 0.014227f, -0.139882f, -0.060276f, 0.144347f,
    -0.119885f, 0.174452f, 0.083227f, 0.077775f, 0.032567f, 0.131444f, -0.096469f, 0.129834f, 0.055498f, -0.029723f,
    -0.020772f, -0.048001f, 0.092921f, -0.035216f, 0.056026f, 0.185893f, -0.055535f, -0.071493f, 0.202163f, 0.116594f,
    0.181731f, 0.085546f, 0.069003f, -0.021148f, -0.141051f, -0.049179f, 0.122017f, -0.041939f, 0.063967f, 0.174816f,
    -0.140612f, 0.055132f, -0.022187f, -0.050071f, 0.013999f, -0.108133f, -0.201082f, -0.006652f, -0.011071f, 0.021792f,
    -0.142946f, -0.039798f, 0.091181f, 0.092090f, -0.078397f, -0.016099f, 0.040863f, 0.094221f, -0.031673f, 0.006419f,
    0.028136f, 0.101136f, 0.064098f, 0.056265f, -0.004659f, 0.063667f, -0.072203f, -0.098954f, 0.091441f, -0.108378f,
    0.053674f, 0.029287f, -0.116294f, 0.180711f, -0.061592f, -0.057296f, 0.062172f, -0.031381f, -0.119661f, -0.057420f,
    0.018841f, 0.110322f, -0.022917f, -0.104084f, -0.016394f, 0.093651f, -0.200041f, -0.022204f, 0.081497f, 0.053398f,
    -0.092501f, -0.054525f, -0.145296f, 0.047663f, -0.097176f, 0.030607f, -0.040474f, 0.232397f, 0.131833f, -0.095278f,
    -0.027538f, -0.140783f, -0.070070f, -0.184591f, -0.137777f, 0.135452f, -0.141338f, -0.053181f, -0.010013f, 0.049575f,
    0.109388f, 0.085966f, -0.080643f, 0.269025f, 0.113040f, -0.052362f, -0.041896f, -0.111935f, -0.139090f, 0.061148f,
    0.246016f, -0.065982f, -0.010533f, 0.221812f, 0.079712f, 0.046476f, -0.163728f, -0.214211f, -0.056074f, 0.073306f,
    0.093354f, 0.147743f, -0.031179f, 0.124894f, -0.023270f, -0.054535f, 0.039212f, -0.118112f, 0.117515f, 0.024876f,
    -0.048624f, -0.003370f, 0.061757f, 0.097465f, 0.019252f, -0.111582f, 0.128752f, 0.227159f, 0.162535f, 0.047290f,
    -0.020398f, 0.001234f, 0.054905f, -0.028265f, 0.034986f, 0.023806f, 0.121286f, -0.006794f, -0.006506f, -0.110376f,
    -0.063164f, -0.047960f, 0.049245f, 0.016554f, -0.070591f, 0.043706f, -0.044565f, -0.051780f, 0.073388f, -0.030121f,
    0.009719f, 0.143894f, 0.019234f, 0.058503f, 0.062051f, -0.008411f, -0.054148f, 0.000964f, 0.144133f, 0.170831f,
    0.086407f, -0.039353f, -0.007665f, -0.055155f, -0.038876f, -0.008950f, 0.030447f, -0.026081f, -0.061800f, 0.031269f,
    0.178794f, 0.066267f, -0.163349f, -0.076941f, 0.055684f, -0.137414f, -0.174460f, -0.134670f, 0.011237f, -0.206052f,
    -0.031753f, 0.174497f, -0.122916f, 0.246328f, 0.057274f, 0.127742f, 0.021039f, 0.107541f, -0.111185f, 0.142591f,
    0.152729f, 0.014403f, 0.076495f, -0.083774f, -0.016177f, -0.036325f, 0.049968f, 0.129475f, 0.040135f, 0.038998f,
    0.265813f, 0.118252f, 0.203066f, 0.073948f, 0.047185f, -0.080084f, -0.177130f, -0.120225f, 0.175489f, -0.012943f,
    0.042066f, 0.190612f, -0.080145f, 0.104589f, -0.031856f, -0.086603f, -0.024313f, -0.038824f, -0.123247f, -0.099057f,
    0.030178f, 0.058760f, -0.097727f, -0.125787f, 0.144030f, 0.198554f, -0.024874f, -0.072168f, 0.055987f, 0.078879f,
    -0.121342f, -0.016127f, 0.104575f, 0.088953f, 0.109759f, 0.031841f, 0.082396f, 0.085811f, 0.039311f, -0.055586f,
    0.109225f, -0.064153f, 0.010079f, 0.003165f, -0.107060f, 0.199725f, -0.053707f, -0.089779f, 0.094648f, 0.002572f,
    0.001583f, -0.130741f, -0.037175f, 0.142325f, 0.036945f, -0.179412f, -0.013223f, 0.008014f, -0.089933f, -0.048386f,
    0.050984f, 0.014701f, -0.236566f, 0.072871f, -0.159631f, 0.069270f, -0.125025f, 0.014644f, -0.105770f, 0.346429f,
    0.106018f, -0.174379f, 0.088636f, -0.161693f, -0.066769f, -0.243066f, -0.218201f, 0.235336f, -0.153686f, -0.034431f,
    0.051488f, 0.030157f, 0.126967f, 0.149258f, -0.091212f, 0.242982f, 0.170442f, 0.015481f, -0.020540f, -0.022509f,
    -0.056218f, 0.016925f, 0.210677f, -0.064939f, -0.023637f, 0.136089f, 0.023086f, 0.051959f, -0.215529f, -0.201446f,
    -0.123107f, 0.086565f, 0.075401f, 0.141607f, 0.031726f, 0.104525f, -0.046475f, -0.114404f, 0.008424f, -0.143074f,
    0.097350f, -0.016696f, -0.008383f, 0.036768f, -0.033104f, 0.102924f, 0.036685f, -0.112171f, 0.152821f, 0.287848f,
    0.155027f, 0.016322f, -0.026930f, -0.020751f, 0.090887f, -0.119251f, 0.129257f, 0.129606f, 0.070303f, 0.042936f,
    0.077724f, 0.006884f, -0.178993f, -0.057435f, 0.117261f, 0.106601f, 0.009436f, -0.010529f, -0.004664f, -0.062060f,
    -0.074024f, 0.016784f, 0.024692f, 0.139814f, 0.077514f, 0.127738f, 0.109717f, 0.013902f, -0.034324f, -0.004994f,
    0.161954f, 0.092185f, 0.094967f, 0.001390f, -0.049813f, -0.001991f, -0.057296f, -0.067528f, 0.078024f, 0.071110f,
    0.082825f, 0.061963f, 0.367539f, 0.110444f, -0.139621f, -0.162740f, 0.039613f, -0.135317f, -0.173312f, -0.051808f,
    -0.115507f, -0.191527f, -0.073581f, 0.109516f, -0.213795f, 0.294303f, 0.104168f, 0.294399f, 0.040935f, 0.011084f,
    -0.245787f, 0.226769f, 0.170907f, 0.042096f, 0.074948f, -0.066310f, -0.005218f, -0.106762f, 0.009064f, 0.102418f,
    -0.043725f, -0.066343f, 0.268066f, 0.077609f, 0.268124f, -0.053075f, -0.066903f, -0.014226f, -0.167097f, -0.079981f,
    0.071452f, 0.023016f, 0.019955f, 0.175348f, 0.018336f, 0.153877f, -0.049324f, -0.026003f, -0.195718f, 0.066241f,
    -0.002217f, -0.131416f, 0.038874f, 0.114772f, -0.113908f, -0.112864f, 0.152634f, 0.065809f, 0.050947f, -0.237155f,
    0.036227f, -0.040284f, -0.208421f, -0.017027f, 0.079283f, 0.107180f, 0.093795f, -0.114301f, 0.021135f, 0.151976f,
    -0.004034f, -0.157882f, 0.157287f, 0.007114f, 0.028045f, -0.005794f, -0.108524f, 0.255004f, 0.003860f, -0.044927f,
    0.013234f, 0.049724f, 0.026657f, -0.119281f, 0.019824f, 0.209368f, -0.012426f, -0.043316f, 0.021085f, -0.000919f,
    -0.072449f, -0.070530f, 0.142696f, -0.018992f, -0.413587f, 0.146335f, -0.098099f, 0.090135f, -0.094884f, -0.027050f,
    -0.085350f, 0.438234f, 0.131236f, -0.186966f, 0.117990f, -0.118302f, -0.177419f, -0.207105f, -0.241953f, 0.221839f,
    -0.196581f, -0.113509f, -0.030212f, 0.024363f, 0.104407f, 0.149495f, -0.122282f, 0.334970f, 0.149107f, 0.103506f,
    -0.032970f, -0.005771f, 0.000615f, 0.066023f, 0.218144f, 0.075435f, -0.008678f, 0.198504f, -0.069899f, 0.134568f,
    -0.123715f, -0.058950f, -0.093143f, 0.164471f, 0.212997f, 0.085633f, 0.049210f, 0.055978f, 0.049261f, -0.187820f,
    -0.033644f, -0.119223f, 0.085845f, 0.083900f, 0.064980f, -0.105821f, -0.115325f, -0.005384f, 0.075220f, -0.090804f,
    0.163659f, 0.278836f, -0.007286f, -0.002144f, -0.076434f, 0.032279f, 0.083425f, -0.081372f, 0.069181f, 0.120125f,
    0.091150f, 0.035372f, 0.209705f, -0.048135f, -0.187885f, -0.061841f, 0.154695f, 0.046861f, -0.083010f, 0.049963f,
    0.068089f, -0.115398f, -0.079290f, -0.039082f, 0.054026f, 0.182453f, 0.097374f, 0.082752f, 0.073002f, -0.038389f,
    -0.007220f, -0.019125f, 0.229239f, 0.159128f, 0.046996f, -0.033026f, -0.030341f, 0.012810f, -0.079507f, -0.150695f,
    0.031643f, 0.061076f, 0.120829f, 0.194289f, 0.481451f, 0.040505f, -0.221679f, -0.180769f, 0.210263f, -0.164691f,
    -0.133055f, 0.026273f, -0.065397f, -0.173881f, -0.139330f, 0.077039f, -0.200033f, 0.314555f, -0.033233f, 0.339230f,
    0.173036f, -0.003182f, -0.182756f, 0.266595f, 0.305093f, 0.064268f, 0.139636f, 0.004340f, -0.057730f, -0.139837f,
    -0.240542f, 0.147218f, -0.120220f, -0.060049f, -0.028344f, 0.247994f, 0.098216f, -0.192023f, 0.007749f, -0.049002f,
    -0.159145f, -0.026893f, 0.124754f, -0.097071f, 0.181493f, -0.041777f, -0.067320f, 0.069412f, -0.185508f, -0.048111f,
    0.217183f, -0.055881f, 0.324172f, 0.176702f, -0.139033f, 0.045019f, -0.367428f, -0.145493f, 0.071798f, 0.177094f,
    -0.104364f, 0.153125f, 0.127773f, 0.025026f, -0.376588f, 0.115625f, -0.136294f, -0.242444f, 0.014495f, 0.217483f,
    -0.132481f, 0.351696f, -0.198919f, -0.216684f, -0.055433f, 0.212209f, -0.136170f, 0.192053f, -0.180640f, -0.093054f,
    0.104567f, -0.063792f, -0.189760f, 0.123393f, 0.120907f, 0.089168f, 0.002259f, 0.127206f, 0.248723f, -0.057103f,
    -0.165281f, 0.106537f, -0.019884f, -0.222542f, 0.223584f, -0.251023f, -0.184276f, 0.224890f, -0.083441f, 0.220817f,
    -0.168501f, -0.183889f, 0.002717f, 0.344182f, 0.162747f, 0.107729f, 0.032203f, 0.111972f, -0.079718f, -0.253555f,
    -0.205071f, 0.148684f, -0.004630f, 0.086964f, -0.117608f, -0.040509f, 0.041439f, 0.118511f, 0.069546f, 0.028959f,
    0.131167f, 0.175195f, 0.100664f, -0.002675f, -0.136083f, 0.185837f, 0.026959f, 0.051143f, 0.150225f, 0.040687f,
    -0.150414f, 0.241659f, -0.018608f, -0.260979f, -0.253214f, 0.164816f, -0.202175f, 0.150002f, -0.183686f, -0.055107f,
    0.093846f, 0.038240f, -0.177191f, -0.256045f, 0.273284f, 0.080428f, 0.333983f, -0.107136f, 0.291246f, 0.050313f,
    -0.224874f, -0.072148f, 0.137831f, 0.188799f, -0.190512f, 0.059298f, -0.072923f, 0.197304f, -0.154643f, -0.254304f,
    0.132777f, 0.201354f, -0.100866f, -0.223594f, 0.330633f, 0.039029f, -0.001546f, -0.168875f, 0.246937f, 0.027943f,
    0.147883f, 0.278364f, -0.140177f, 0.005938f, 0.059795f, -0.055047f, -0.146008f, 0.335106f, 0.145712f, -0.086455f,
    0.070054f, 0.177925f, 0.032006f, 0.160640f, -0.127216f, 0.086990f, 0.037532f, 0.226596f, -0.004246f, -0.214138f,
    -0.021662f, -0.096945f, 0.072215f, 0.029872f, 0.208197f, 0.146638f, 0.614295f, -0.102182f, -0.183817f, 0.002707f,
    -0.029083f, -0.171157f, -0.154181f, -0.104084f, -0.049140f, 0.051422f, -0.321495f, 0.049042f, 0.035349f, 0.220684f,
    -0.075300f, 0.198540f, -0.084534f, -0.208175f, -0.102803f, 0.219858f, 0.158586f, -0.112027f, 0.211660f, 0.027696f,
    0.138933f, 0.016130f, -0.084827f, -0.276603f, 0.058801f, -0.034360f, 0.212513f, -0.181055f, -0.424908f, -0.213235f,
    0.208034f, 0.501283f, 0.011646f, -0.225648f, -0.199886f, 0.127439f, 0.017479f, 0.048918f, 0.038088f, 0.126491f,
    -0.021036f, -0.253886f, -0.279682f, -0.181678f, 0.237516f, 0.165508f, -0.315414f, 0.194330f, -0.040275f, 0.187826f,
    0.407471f, -0.108208f, 0.008779f, 0.172049f, -0.608733f, -0.272684f, -0.216177f, -0.573330f, -0.696328f, -0.364816f,
    -0.063311f, 0.215759f, 0.229630f, -0.007198f, 0.345701f, -0.332308f, -0.386061f, -0.345985f, -0.095235f, -0.539992f,
    0.006567f, 0.323899f, -0.334583f, 0.278837f, 0.042021f, 0.466871f, 0.214159f, -0.032554f, -0.125121f, 0.162297f,
    0.046922f, -0.540044f, -0.422999f, -0.351627f, -0.043244f, 0.052293f, 0.689201f, -0.174324f, -0.156924f, 0.093243f,
    0.195221f, -0.021164f, 0.084206f, -0.002082f, -0.322065f, 0.210931f, -0.082360f, -0.263944f, 0.233336f, 0.057541f,
    0.453744f, -0.092030f, 0.078568f, -0.190705f, -0.027684f, -0.159866f, -0.097778f, 0.037981f, 0.037341f, -0.110013f,
    -0.073621f, -0.153110f, -0.222830f, 0.098901f, 0.191569f, 0.423876f, 0.070698f, -0.022099f, -0.003544f, -0.002047f,
    -0.055040f, -0.001345f, 0.071225f, -0.051735f, -0.005680f, -0.000882f, -0.011322f, -0.011489f, 0.018607f, 0.044009f,
    -0.036272f, 0.009614f, 0.008787f, -0.001752f, -0.012092f, -0.026732f, -0.041975f, 0.014902f, 0.068745f, -0.027643f,
    0.059838f, -0.046237f, 0.015313f, 0.066085f, -0.000738f, -0.040772f, 0.038789f, -0.087756f, -0.072921f, 0.055158f,
    0.028117f, 0.070687f, 0.016926f, -0.089535f, 0.079948f, -0.016639f, -0.011888f, 0.033979f, 0.031252f, -0.065413f,
    -0.013401f, 0.006065f, -0.059879f, 0.023945f, 0.008462f, -0.021932f, 0.098926f, -0.008236f, -0.032748f, -0.049511f,
    -0.040329f, 0.003962f, -0.026058f, -0.016782f, 0.016714f, 0.020358f, 0.029201f, -0.018980f, -0.003971f, 0.017064f};

// Shape: 32
const float PARAMS_HIDDEN_1_BIAS[32] = {
    -0.064491f, 0.001962f, -0.075283f, -0.087128f, 0.018951f, 0.120692f, 0.112831f, -0.067403f, -0.016719f, -0.104067f,
